~o
<STREAMINFO> 1 39
<VECSIZE> 39<NULLD><MFCC_D_A_0><DIAGC>
~s "silst"
<MEAN> 39
 -1.587178e+01 -2.793913e+00 1.434923e+00 -8.729837e-01 1.248229e+00 4.123595e-01 4.322135e-01 1.599740e+00 2.633090e+00 7.770461e-01 1.285551e+00 6.689348e-01 5.318551e+01 -1.714887e-02 4.361651e-02 -8.982349e-03 4.206427e-03 5.833334e-02 3.155394e-02 2.359356e-02 1.799488e-02 -3.142180e-03 1.635694e-02 1.420470e-02 2.661901e-02 -1.165691e-01 5.639727e-02 -2.292675e-02 -5.789430e-03 -3.385650e-03 -7.099763e-02 -3.082644e-02 -3.525764e-02 -3.826914e-02 -2.278044e-02 -2.735748e-02 -1.638331e-02 -2.083126e-02 6.243151e-02
<VARIANCE> 39
 2.315336e+01 3.002681e+01 1.470888e+01 1.820620e+01 1.947867e+01 1.777598e+01 1.863021e+01 1.709305e+01 1.746780e+01 1.458449e+01 1.448877e+01 1.104965e+01 3.290945e+01 2.198055e+00 1.692983e+00 1.215167e+00 1.437099e+00 1.548536e+00 1.504968e+00 1.554343e+00 1.460201e+00 1.408530e+00 1.281531e+00 1.166842e+00 9.668162e-01 2.146350e+00 4.176391e-01 3.041318e-01 2.344863e-01 2.793667e-01 3.053531e-01 2.907311e-01 3.020676e-01 2.886149e-01 2.723152e-01 2.523848e-01 2.281699e-01 1.907293e-01 3.880405e-01
<GCONST> 9.813510e+01
~h "B"
<BEGINHMM>
<NUMSTATES> 5
<STATE> 2
<MEAN> 39
 -3.965563e+00 1.078118e+00 2.833671e+00 2.608095e-01 -1.174829e+00 2.082258e-01 -3.592681e+00 -7.522549e+00 -5.215237e+00 -3.637865e+00 8.636919e-01 -1.958493e+00 5.741498e+01 -6.017657e-01 2.803880e+00 1.561205e+00 1.847711e+00 3.029459e+00 8.869621e-01 1.315325e+00 8.499307e-01 -5.612433e-01 -9.086651e-01 -7.290643e-01 4.595163e-02 -3.555608e+00 -6.053888e-01 -6.062769e-01 -2.622001e-01 -4.088043e-01 -4.569625e-01 -2.956206e-01 -4.842079e-02 3.807689e-01 6.011208e-01 3.070761e-01 -9.294863e-02 -1.778245e-01 7.031720e-01
<VARIANCE> 39
 1.457021e+01 2.017142e+01 1.555533e+01 2.297723e+01 2.705927e+01 2.478327e+01 4.040883e+01 2.659397e+01 2.340707e+01 2.774348e+01 2.005521e+01 2.409728e+01 2.057257e+01 1.242724e+00 2.340056e+00 2.065097e+00 3.372707e+00 3.319793e+00 2.482868e+00 3.060022e+00 3.561562e+00 2.680424e+00 2.440680e+00 2.033808e+00 1.841568e+00 2.481885e+00 1.850966e-01 4.174541e-01 2.927273e-01 3.841095e-01 4.981771e-01 3.677886e-01 4.402141e-01 4.999221e-01 4.225114e-01 4.044417e-01 3.373810e-01 2.826727e-01 4.862339e-01
<GCONST> 1.112275e+02
<STATE> 3
<MEAN> 39
 -6.998039e+00 4.847151e+00 5.510464e+00 2.679418e+00 2.937454e+00 1.096278e+00 -1.328989e+00 -4.384505e+00 -3.948690e+00 -4.121304e+00 -9.226413e-01 -2.526111e+00 5.202415e+01 -1.701962e+00 -3.747646e-01 5.408749e-04 -2.614747e-02 3.776726e-01 -1.012398e-01 6.204640e-01 1.125192e+00 9.336436e-01 4.028929e-01 -1.370151e-01 8.837606e-02 -2.336562e-01 -1.532447e-02 -1.207778e+00 -7.567453e-01 -8.867322e-01 -1.178265e+00 -4.138470e-01 -3.331242e-01 -2.322058e-01 2.719279e-01 4.563300e-01 3.750913e-01 1.067717e-01 1.607440e+00
<VARIANCE> 39
 1.292876e+01 9.407327e+00 8.878261e+00 1.057739e+01 1.236972e+01 1.433772e+01 2.061550e+01 1.882803e+01 1.645284e+01 1.574786e+01 1.262229e+01 1.425671e+01 1.076074e+01 1.252077e+00 2.677567e+00 1.661332e+00 2.002570e+00 2.550905e+00 1.802218e+00 2.160870e+00 1.957345e+00 1.737880e+00 1.844810e+00 1.548489e+00 1.415723e+00 4.509857e+00 2.987010e-01 3.861654e-01 3.026539e-01 4.728028e-01 4.807825e-01 3.649014e-01 4.125710e-01 4.908304e-01 4.333211e-01 3.660134e-01 3.246918e-01 2.720102e-01 5.727533e-01
<GCONST> 1.018544e+02
<STATE> 4
<MEAN> 39
 -1.364585e+01 -1.468651e+00 2.145510e+00 -2.859835e-01 5.855979e-01 -7.447349e-01 -4.566396e-01 -1.337118e+00 3.354026e-01 -4.773632e-01 7.383492e-01 -9.293239e-01 5.666074e+01 5.390818e-02 -2.165490e+00 -1.518502e+00 -1.948784e+00 -2.343170e+00 -1.082138e+00 -6.857949e-01 -6.416169e-01 2.284787e-01 6.356906e-01 5.304934e-01 8.188884e-02 3.931850e+00 1.046264e+00 -1.893980e-01 -2.267322e-01 -4.583733e-01 -8.013076e-01 -2.522217e-02 -3.482057e-01 -5.693832e-01 -3.445201e-01 -1.562186e-01 8.330359e-02 -2.077965e-01 7.156066e-01
<VARIANCE> 39
 1.670163e+01 1.888905e+01 1.325740e+01 1.494539e+01 1.673525e+01 1.682190e+01 1.711192e+01 1.811165e+01 1.614171e+01 1.452031e+01 1.299145e+01 1.168661e+01 6.684519e+01 3.468734e+00 2.334430e+00 2.224726e+00 3.360575e+00 3.781404e+00 2.306253e+00 2.973929e+00 2.926769e+00 2.513898e+00 2.352372e+00 1.915611e+00 1.854151e+00 5.323841e+00 4.665985e-01 5.391267e-01 4.623316e-01 6.070076e-01 6.650450e-01 5.930828e-01 7.563992e-01 5.723475e-01 5.117355e-01 5.161112e-01 4.705827e-01 4.616524e-01 1.178838e+00
<GCONST> 1.148167e+02
<TRANSP> 5
 0.000000e+00 1.000000e+00 0.000000e+00 0.000000e+00 0.000000e+00
 0.000000e+00 4.351679e-01 5.648321e-01 0.000000e+00 0.000000e+00
 0.000000e+00 0.000000e+00 6.169387e-01 3.830613e-01 0.000000e+00
 0.000000e+00 0.000000e+00 0.000000e+00 5.754532e-01 4.245468e-01
 0.000000e+00 0.000000e+00 0.000000e+00 0.000000e+00 0.000000e+00
<ENDHMM>
~h "D"
<BEGINHMM>
<NUMSTATES> 5
<STATE> 2
<MEAN> 39
 -7.448038e+00 -1.701166e+00 4.578758e+00 3.707950e+00 -5.639365e+00 -6.393487e+00 -6.060529e+00 -4.662476e+00 -1.877305e+00 -2.521331e+00 -1.532691e+00 -3.083654e+00 6.165704e+01 -7.460825e-01 1.508207e+00 7.317178e-01 6.360689e-01 2.290598e+00 1.043462e+00 1.188767e+00 4.350852e-01 -2.524020e-01 6.583214e-02 -2.459095e-01 -6.568453e-02 -2.363903e+00 -3.356386e-01 -4.490763e-01 -3.064834e-01 -5.562062e-01 -2.262672e-01 2.154582e-01 4.454601e-02 1.678630e-01 2.196726e-01 4.105198e-02 1.021421e-01 1.216044e-01 5.384809e-01
<VARIANCE> 39
 2.820782e+01 4.492937e+01 3.428637e+01 4.539517e+01 6.014282e+01 4.248402e+01 4.279482e+01 3.920099e+01 3.481654e+01 3.380310e+01 2.439716e+01 2.138754e+01 4.435876e+01 2.474107e+00 4.020675e+00 2.731728e+00 3.882057e+00 5.055558e+00 3.696697e+00 4.111524e+00 3.912657e+00 3.294795e+00 2.630062e+00 2.160260e+00 1.926133e+00 3.884030e+00 3.248867e-01 7.118991e-01 4.125212e-01 5.404652e-01 9.659892e-01 5.874047e-01 6.268957e-01 5.761619e-01 5.338358e-01 4.522851e-01 3.707495e-01 3.073624e-01 8.293487e-01
<GCONST> 1.255397e+02
<STATE> 3
<MEAN> 39
 -1.072427e+01 1.357589e+00 5.293156e+00 3.150798e+00 -2.545536e-01 -1.901429e+00 -2.461297e+00 -2.582997e+00 -1.701408e+00 -2.474427e+00 -1.330219e+00 -2.355705e+00 5.604932e+01 -1.522552e+00 -1.177647e+00 -5.405236e-01 -1.093008e+00 7.828380e-02 6.717661e-01 6.429332e-01 4.163422e-01 4.546358e-01 2.797197e-01 2.380524e-01 4.577832e-01 8.374352e-01 -4.929445e-02 -7.743948e-01 -3.151034e-01 -5.043174e-01 -9.549407e-01 -4.829183e-01 -4.647930e-01 -1.942264e-01 1.627143e-01 6.917762e-02 1.131890e-01 4.717246e-02 1.354274e+00
<VARIANCE> 39
 2.811969e+01 3.005543e+01 2.339686e+01 2.536852e+01 3.211005e+01 2.882414e+01 2.662764e+01 2.496844e+01 2.151359e+01 2.104759e+01 1.671495e+01 1.483425e+01 4.593567e+01 3.047946e+00 4.601226e+00 2.703383e+00 3.710398e+00 4.501537e+00 3.482105e+00 3.468469e+00 2.966714e+00 2.729021e+00 2.447376e+00 1.902658e+00 1.594637e+00 6.536596e+00 5.339779e-01 6.474108e-01 5.046587e-01 6.000386e-01 7.482645e-01 6.178612e-01 5.970342e-01 5.934153e-01 4.988887e-01 4.485495e-01 3.805697e-01 3.233521e-01 8.936607e-01
<GCONST> 1.207341e+02
<STATE> 4
<MEAN> 39
 -1.558625e+01 -6.164874e+00 2.964320e+00 -2.410385e+00 -5.027916e+00 -3.969524e+00 -3.348474e+00 -2.622706e+00 3.145507e-01 -1.316471e+00 -5.590560e-01 -1.384232e+00 6.643601e+01 6.021252e-02 -9.484927e-01 -4.266535e-01 -6.995263e-01 -1.203746e+00 -6.970965e-01 -8.240872e-01 -2.410946e-01 4.300059e-01 2.503349e-01 1.076537e-01 -3.669104e-02 1.764729e+00 7.050465e-01 3.128206e-01 -4.551855e-02 3.262712e-01 -1.003936e-01 -7.154772e-02 -1.948193e-01 -5.674163e-02 -6.884447e-02 -4.093444e-02 -7.828387e-03 -1.494335e-01 -4.403062e-01
<VARIANCE> 39
 5.048648e+01 3.806950e+01 3.165916e+01 3.927007e+01 4.291909e+01 3.571954e+01 3.617355e+01 3.152684e+01 2.611867e+01 2.245766e+01 1.764661e+01 1.528892e+01 4.839961e+01 5.783903e+00 3.724937e+00 2.860717e+00 3.718362e+00 4.872103e+00 4.059255e+00 4.347046e+00 3.555390e+00 2.962456e+00 2.659999e+00 2.023029e+00 1.890582e+00 7.117530e+00 8.702155e-01 7.195918e-01 6.160492e-01 7.948085e-01 9.875917e-01 8.276186e-01 9.044162e-01 6.887566e-01 5.595275e-01 4.884270e-01 4.192029e-01 3.741328e-01 1.044691e+00
<GCONST> 1.281516e+02
<TRANSP> 5
 0.000000e+00 1.000000e+00 0.000000e+00 0.000000e+00 0.000000e+00
 0.000000e+00 4.068033e-01 5.931966e-01 0.000000e+00 0.000000e+00
 0.000000e+00 0.000000e+00 4.533280e-01 5.466719e-01 0.000000e+00
 0.000000e+00 0.000000e+00 0.000000e+00 5.469785e-01 4.530215e-01
 0.000000e+00 0.000000e+00 0.000000e+00 0.000000e+00 0.000000e+00
<ENDHMM>
~h "F"
<BEGINHMM>
<NUMSTATES> 5
<STATE> 2
<MEAN> 39
 -1.649847e+01 -3.382346e+00 -3.868986e-03 -4.853896e-01 -9.769070e-01 -1.075697e+00 -1.940152e+00 -1.760648e+00 -1.988544e-01 -8.245652e-01 -1.117894e+00 -2.259720e+00 6.568002e+01 -3.874069e+00 -2.332262e-01 -2.937944e-03 8.889466e-01 1.306784e+00 6.014758e-01 1.198657e+00 1.174061e+00 7.002293e-01 4.758907e-01 3.864679e-01 7.472045e-01 -3.918725e-01 1.663060e-01 -3.632713e-01 -3.464766e-01 -3.219008e-01 -5.370386e-01 -1.976939e-01 -2.811419e-01 -1.353130e-01 8.626786e-02 1.178467e-01 1.668455e-01 5.275399e-02 2.445794e-01
<VARIANCE> 39
 4.644674e+01 1.702597e+01 1.504506e+01 1.993707e+01 1.775530e+01 1.968307e+01 2.458887e+01 2.111019e+01 1.775086e+01 1.599870e+01 1.509015e+01 1.382355e+01 2.270051e+01 3.181229e+00 2.600171e+00 2.877740e+00 3.463827e+00 3.560202e+00 2.861228e+00 4.423750e+00 3.274047e+00 2.707243e+00 2.609290e+00 2.194758e+00 2.074203e+00 1.509515e+00 8.831143e-01 3.882987e-01 3.316205e-01 4.289667e-01 4.665344e-01 3.870175e-01 5.138736e-01 4.653023e-01 4.036137e-01 3.501725e-01 3.127891e-01 2.729036e-01 2.096752e-01
<GCONST> 1.114202e+02
<STATE> 3
<MEAN> 39
 -2.483906e+01 -5.686077e+00 -2.537762e+00 -6.762131e-01 -1.212401e+00 -9.718952e-01 -7.775162e-01 -2.471181e-01 1.472669e+00 9.632201e-01 9.432904e-01 -9.456820e-02 6.619800e+01 -9.046235e-02 -1.627633e-01 -2.304335e-01 -1.595633e-01 -6.172048e-02 -6.894699e-02 -1.899887e-02 -5.951754e-03 4.080435e-02 9.077770e-02 1.186260e-01 1.007120e-01 -4.141027e-02 7.766834e-01 8.539082e-02 7.765902e-02 -1.416589e-01 -1.417854e-01 -1.056844e-01 -1.691476e-01 -1.874404e-01 -1.316916e-01 -1.300332e-01 -1.100200e-01 -1.467480e-01 -5.451342e-03
<VARIANCE> 39
 9.182952e+00 1.251836e+01 8.859347e+00 1.175394e+01 9.839262e+00 1.156528e+01 1.089809e+01 1.158682e+01 9.793440e+00 9.462238e+00 8.110444e+00 7.189620e+00 1.867232e+01 1.719614e+00 8.513315e-01 8.005263e-01 8.962625e-01 8.718861e-01 9.639348e-01 9.896502e-01 9.823725e-01 9.426751e-01 8.908912e-01 8.250960e-01 7.537171e-01 7.900131e-01 3.826133e-01 2.082088e-01 1.920533e-01 2.466759e-01 2.735294e-01 2.485930e-01 3.004458e-01 2.691026e-01 2.397736e-01 2.232098e-01 1.946960e-01 1.817843e-01 1.740545e-01
<GCONST> 8.232359e+01
<STATE> 4
<MEAN> 39
 -1.953571e+01 -5.566755e+00 -2.136751e+00 -2.003104e+00 -1.526021e+00 -1.667454e+00 -1.332698e+00 -9.626333e-01 9.254765e-01 4.938139e-01 4.690090e-01 -7.301986e-01 6.506478e+01 4.375926e+00 2.133409e-01 -3.123117e-01 -1.276960e+00 -1.717571e+00 -7.967274e-01 -1.182715e+00 -1.122210e+00 -6.545252e-01 -7.709239e-01 -5.073881e-01 -6.526690e-01 2.714397e-01 7.725527e-01 -1.215914e-01 -1.838328e-01 -2.689761e-01 -6.501512e-01 -5.710470e-02 -2.975064e-01 -2.148715e-01 -3.997871e-02 -1.617600e-01 -3.042585e-02 -7.123853e-02 3.379284e-01
<VARIANCE> 39
 3.070795e+01 1.687599e+01 1.244716e+01 1.764232e+01 1.478883e+01 1.630153e+01 1.574076e+01 1.535637e+01 1.359980e+01 1.221796e+01 1.028151e+01 9.608014e+00 2.642037e+01 3.704465e+00 2.623931e+00 2.638003e+00 3.628526e+00 3.642522e+00 2.941889e+00 4.210884e+00 2.747636e+00 2.369468e+00 2.061402e+00 1.600844e+00 1.749616e+00 2.305322e+00 6.629899e-01 4.276167e-01 3.473704e-01 4.565449e-01 4.897000e-01 4.589933e-01 6.040344e-01 4.442838e-01 4.262122e-01 3.726255e-01 3.055431e-01 2.935697e-01 3.230692e-01
<GCONST> 1.087855e+02
<TRANSP> 5
 0.000000e+00 1.000000e+00 0.000000e+00 0.000000e+00 0.000000e+00
 0.000000e+00 5.911723e-01 4.088277e-01 0.000000e+00 0.000000e+00
 0.000000e+00 0.000000e+00 8.305475e-01 1.694525e-01 0.000000e+00
 0.000000e+00 0.000000e+00 0.000000e+00 5.541197e-01 4.458803e-01
 0.000000e+00 0.000000e+00 0.000000e+00 0.000000e+00 0.000000e+00
<ENDHMM>
~h "G"
<BEGINHMM>
<NUMSTATES> 5
<STATE> 2
<MEAN> 39
 -8.261027e+00 6.204157e-01 5.598072e+00 4.200422e+00 -4.355149e+00 -6.163133e+00 -6.803515e+00 -2.667253e+00 -2.753641e+00 -5.836897e+00 3.156683e-01 -1.990512e+00 5.870272e+01 -6.510932e-01 1.486486e+00 2.681065e-01 4.170171e-01 2.380899e+00 1.150833e+00 1.265090e+00 3.623320e-01 -8.548142e-02 4.503190e-01 -3.568685e-01 8.130983e-02 -2.753098e+00 -2.910174e-01 -8.637236e-01 -5.828120e-01 -6.467857e-01 -2.459226e-01 2.234776e-01 4.808065e-02 -2.017314e-03 3.192635e-01 3.852199e-01 7.055829e-02 -2.254435e-02 8.432252e-01
<VARIANCE> 39
 1.944541e+01 2.934627e+01 3.271668e+01 3.857175e+01 5.828738e+01 4.225049e+01 4.818583e+01 3.782537e+01 4.188999e+01 3.515537e+01 3.100128e+01 2.759700e+01 3.367202e+01 1.793177e+00 3.417257e+00 2.653110e+00 3.208966e+00 4.692845e+00 3.680652e+00 4.304373e+00 3.388866e+00 3.440089e+00 3.156476e+00 2.627602e+00 2.151773e+00 3.475447e+00 2.872459e-01 7.048107e-01 4.582481e-01 4.907740e-01 8.488477e-01 5.923675e-01 7.390030e-01 6.120002e-01 5.840384e-01 5.320356e-01 4.965910e-01 3.547978e-01 8.507137e-01
<GCONST> 1.252544e+02
<STATE> 3
<MEAN> 39
 -1.192542e+01 1.191372e+00 3.861664e+00 2.912489e+00 1.100624e+00 -1.248805e+00 -2.448016e+00 -1.109046e+00 -8.523482e-01 -2.427254e+00 2.604524e-01 -1.116030e+00 5.323458e+01 -1.168062e+00 -2.297570e+00 -1.834810e+00 -1.445976e+00 9.595492e-02 9.290311e-01 1.454946e-01 3.011097e-01 6.617156e-01 7.746965e-01 4.707468e-01 9.187452e-02 1.657992e+00 1.500427e-01 -7.859317e-01 -3.116304e-01 -3.964558e-01 -1.003136e+00 -5.461828e-01 -7.246094e-01 -2.542439e-01 -8.653090e-02 -1.809358e-01 1.468696e-01 -9.593244e-02 1.612144e+00
<VARIANCE> 39
 1.958735e+01 2.045185e+01 2.379006e+01 2.055380e+01 2.806862e+01 2.813662e+01 2.824580e+01 2.262917e+01 2.370328e+01 2.317184e+01 1.670966e+01 1.476065e+01 2.903734e+01 2.211838e+00 4.378343e+00 3.983239e+00 3.231659e+00 4.929037e+00 3.928801e+00 4.721314e+00 3.304761e+00 3.223771e+00 2.796733e+00 2.224208e+00 1.984015e+00 6.351599e+00 4.259886e-01 6.878921e-01 6.647934e-01 5.448402e-01 7.500127e-01 6.166214e-01 6.778224e-01 5.801837e-01 5.652387e-01 4.789823e-01 4.231423e-01 3.741103e-01 7.126592e-01
<GCONST> 1.208122e+02
<STATE> 4
<MEAN> 39
 -1.457689e+01 -8.563106e+00 -2.869575e+00 -2.970712e+00 -2.474541e+00 -1.406397e+00 -6.130445e+00 -1.942775e+00 -3.343630e-01 -1.574295e+00 2.117489e+00 -1.780187e+00 6.612295e+01 4.909560e-01 -7.578986e-01 -1.575943e-01 -8.107111e-01 -1.687997e+00 -1.059950e+00 -1.300711e+00 -6.535409e-01 -1.769826e-01 -1.756980e-01 8.681971e-02 -1.363532e-01 2.520882e+00 7.972061e-01 7.706761e-01 7.147746e-01 4.635157e-01 -3.944214e-01 -4.476120e-01 -6.244475e-02 -1.318843e-01 -9.722452e-02 -2.658070e-01 -1.989343e-01 4.744808e-02 -5.871071e-01
<VARIANCE> 39
 2.378061e+01 3.169344e+01 6.124185e+01 4.036503e+01 5.261161e+01 5.161302e+01 5.161673e+01 4.006331e+01 3.500780e+01 2.949064e+01 2.308433e+01 1.955775e+01 3.515319e+01 3.632677e+00 5.198863e+00 5.186529e+00 4.122664e+00 5.051426e+00 4.308473e+00 4.324566e+00 3.514887e+00 3.164958e+00 3.066638e+00 2.365630e+00 1.956442e+00 5.748390e+00 4.658078e-01 8.404495e-01 9.013312e-01 7.390987e-01 1.067966e+00 9.359600e-01 9.751427e-01 7.623054e-01 7.146116e-01 6.866048e-01 5.535908e-01 4.428286e-01 8.303223e-01
<GCONST> 1.316794e+02
<TRANSP> 5
 0.000000e+00 1.000000e+00 0.000000e+00 0.000000e+00 0.000000e+00
 0.000000e+00 5.630013e-01 4.369987e-01 0.000000e+00 0.000000e+00
 0.000000e+00 0.000000e+00 5.327556e-01 4.672444e-01 0.000000e+00
 0.000000e+00 0.000000e+00 0.000000e+00 6.153085e-01 3.846915e-01
 0.000000e+00 0.000000e+00 0.000000e+00 0.000000e+00 0.000000e+00
<ENDHMM>
~h "J"
<BEGINHMM>
<NUMSTATES> 5
<STATE> 2
<MEAN> 39
 -1.327884e+01 3.814590e-01 1.452697e+01 3.525068e+00 -9.050896e+00 -3.850558e+00 -3.131534e+00 -4.320189e+00 -4.292778e+00 -5.530928e+00 -1.746409e+00 -1.059581e+00 6.041498e+01 -7.357953e-01 1.085102e+00 -1.889095e+00 -3.177297e-01 4.684860e+00 1.073801e+00 5.461347e-01 9.425035e-01 1.426267e+00 4.288155e-01 -5.903608e-01 5.208367e-02 -2.523006e+00 -3.857584e-01 -4.920803e-01 -3.521169e-01 -3.042337e-01 -3.670210e-01 5.165458e-01 2.411975e-01 -1.567038e-01 -4.361342e-02 2.824654e-01 1.111233e-01 -1.110342e-01 3.746722e-01
<VARIANCE> 39
 1.641555e+01 1.395452e+01 2.477635e+01 3.425662e+01 3.538067e+01 2.845474e+01 2.592483e+01 1.476113e+01 2.378393e+01 9.843714e+00 1.417810e+01 1.270016e+01 4.076370e+01 1.839687e+00 2.329275e+00 1.532994e+00 2.309240e+00 3.456034e+00 3.665961e+00 3.594223e+00 1.898595e+00 2.166087e+00 2.317710e+00 1.800385e+00 2.067506e+00 2.211455e+00 3.851013e-01 4.741557e-01 2.808401e-01 3.995309e-01 7.649064e-01 4.963069e-01 4.510785e-01 2.953242e-01 3.932281e-01 3.321136e-01 1.582724e-01 2.425076e-01 7.124630e-01
<GCONST> 1.094670e+02
<STATE> 3
<MEAN> 39
 -1.558203e+01 5.506676e-01 8.176006e+00 3.022835e+00 -1.252182e+00 1.563138e+00 -4.779444e-01 -2.507376e+00 -1.531339e+00 -3.602877e+00 -2.943017e+00 -1.907552e+00 5.547621e+01 -2.246098e+00 -2.284038e+00 -1.456088e+00 -2.070004e+00 5.390144e-01 1.275415e+00 8.743272e-01 -1.028427e-01 8.368171e-01 1.028943e+00 4.012739e-01 4.054301e-01 1.449274e+00 -4.944579e-01 -8.277734e-01 6.908592e-01 -4.006680e-01 -1.364188e+00 -6.212924e-01 -1.167572e-01 -2.961098e-01 -2.362153e-01 -2.661772e-02 2.552338e-01 1.508746e-01 1.541088e+00
<VARIANCE> 39
 2.818637e+01 2.789403e+01 2.870843e+01 2.900159e+01 1.665321e+01 1.769859e+01 1.648122e+01 1.558892e+01 1.823497e+01 2.509704e+01 1.018398e+01 1.547298e+01 3.617630e+01 2.991842e+00 4.380864e+00 3.218322e+00 3.211952e+00 4.583366e+00 2.724612e+00 1.862277e+00 2.180351e+00 1.794473e+00 1.755346e+00 1.589548e+00 1.769042e+00 6.569167e+00 6.760191e-01 8.499528e-01 4.965689e-01 6.786049e-01 5.316825e-01 5.468506e-01 4.440391e-01 3.697830e-01 2.838905e-01 4.292831e-01 2.610676e-01 3.209801e-01 7.628000e-01
<GCONST> 1.144381e+02
<STATE> 4
<MEAN> 39
 -1.903788e+01 -8.793671e+00 9.053111e+00 -1.665260e+00 -9.810770e+00 -5.745488e+00 -2.282542e+00 -3.108837e+00 -2.125615e-01 -2.235395e+00 -1.121148e+00 3.916088e-01 6.779087e+01 1.446508e+00 -5.997670e-01 -3.145461e-01 2.928415e-01 -1.736203e+00 -1.707942e+00 -8.604239e-01 3.204269e-01 9.368426e-02 -5.078841e-02 9.697488e-02 1.490127e-01 7.006189e-01 4.662975e-01 2.204006e-01 -1.374019e-01 2.097183e-01 -4.831550e-02 -1.976992e-02 -9.153762e-02 1.255591e-01 9.092144e-03 -5.892058e-02 -3.345636e-02 -6.820555e-02 -3.393383e-01
<VARIANCE> 39
 7.395354e+01 1.848115e+01 2.940965e+01 4.355757e+01 5.189996e+01 5.034007e+01 3.719405e+01 2.114915e+01 1.670640e+01 1.702484e+01 1.244951e+01 1.049642e+01 2.344932e+01 1.050409e+01 2.461100e+00 3.626585e+00 3.215472e+00 3.691561e+00 3.453177e+00 3.605184e+00 2.312934e+00 1.810487e+00 1.625329e+00 1.467261e+00 1.402650e+00 3.794792e+00 2.090394e+00 5.732428e-01 6.780087e-01 7.991219e-01 8.765941e-01 8.376546e-01 6.980020e-01 3.743840e-01 3.697423e-01 3.677308e-01 2.854464e-01 2.603765e-01 6.083421e-01
<GCONST> 1.206018e+02
<TRANSP> 5
 0.000000e+00 1.000000e+00 0.000000e+00 0.000000e+00 0.000000e+00
 0.000000e+00 4.889626e-01 5.110374e-01 0.000000e+00 0.000000e+00
 0.000000e+00 0.000000e+00 6.269495e-01 3.730505e-01 0.000000e+00
 0.000000e+00 0.000000e+00 0.000000e+00 8.746315e-01 1.253686e-01
 0.000000e+00 0.000000e+00 0.000000e+00 0.000000e+00 0.000000e+00
<ENDHMM>
~h "K"
<BEGINHMM>
<NUMSTATES> 5
<STATE> 2
<MEAN> 39
 -1.298352e+01 -2.451419e+00 3.375495e+00 2.297124e+00 -2.901273e+00 -4.909074e+00 -4.956538e+00 -8.237679e-01 -1.069527e+00 -4.276928e+00 7.953296e-01 -1.721005e+00 6.051657e+01 -1.385859e+00 9.169614e-01 -1.988862e-01 3.285126e-01 2.406342e+00 1.632176e+00 1.539852e+00 7.567070e-01 6.591827e-01 1.042481e+00 4.979682e-01 7.015213e-01 -3.542666e+00 1.857306e-02 -5.236796e-01 -4.826535e-01 -5.417978e-01 -3.478047e-01 1.223746e-01 1.207274e-01 -4.725659e-02 2.167713e-01 3.783150e-01 2.276682e-02 4.227868e-02 4.697044e-01
<VARIANCE> 39
 2.822963e+01 2.902194e+01 4.658678e+01 3.629534e+01 7.186529e+01 5.388360e+01 4.490535e+01 3.943259e+01 5.145850e+01 3.694144e+01 2.715393e+01 2.450125e+01 3.949302e+01 3.029578e+00 3.012788e+00 3.261854e+00 3.428885e+00 5.118055e+00 3.890000e+00 4.191623e+00 3.500181e+00 3.925966e+00 3.417354e+00 2.643756e+00 2.430065e+00 3.421820e+00 4.401257e-01 6.264251e-01 5.646703e-01 5.207506e-01 1.063342e+00 7.414976e-01 7.122605e-01 6.448556e-01 7.714496e-01 6.494969e-01 4.923485e-01 4.008237e-01 9.873043e-01
<GCONST> 1.294208e+02
<STATE> 3
<MEAN> 39
 -1.501037e+01 -8.117800e-01 1.182957e+00 8.373143e-01 1.333428e+00 -1.871607e-01 -2.775753e-01 1.059772e+00 1.844092e+00 3.009702e-01 2.411015e+00 8.505876e-01 5.143554e+01 -5.627109e-01 -1.346435e+00 -1.042767e+00 -8.908086e-01 -2.675546e-01 5.121276e-01 3.421448e-01 9.340746e-02 2.258169e-01 5.170137e-01 3.016395e-01 9.522659e-02 8.975497e-01 2.630950e-02 -6.348755e-01 -1.447354e-01 -3.322554e-01 -7.457706e-01 -4.909074e-01 -5.792127e-01 -2.944735e-01 -2.621568e-01 -3.058256e-01 -9.192022e-02 -3.095882e-01 1.802367e+00
<VARIANCE> 39
 1.361684e+01 1.299321e+01 1.606964e+01 1.498661e+01 1.976673e+01 2.148330e+01 1.933775e+01 1.798211e+01 1.798973e+01 1.572260e+01 1.252163e+01 1.056919e+01 1.948521e+01 2.275626e+00 4.277222e+00 3.687134e+00 3.053228e+00 4.588831e+00 3.732132e+00 3.910307e+00 2.887341e+00 3.057655e+00 2.800883e+00 1.861560e+00 1.857587e+00 9.626870e+00 3.863366e-01 4.800806e-01 5.420228e-01 4.475622e-01 6.394802e-01 5.443356e-01 5.513955e-01 4.653866e-01 4.695847e-01 3.998524e-01 3.312808e-01 3.197444e-01 8.185917e-01
<GCONST> 1.137192e+02
<STATE> 4
<MEAN> 39
 -1.772910e+01 -9.038176e+00 -1.383860e+00 -4.546509e+00 -3.306940e+00 -1.525613e+00 -1.478213e+00 -3.360498e-01 4.196947e-01 -5.419344e-01 2.153054e+00 -1.371481e+00 6.738779e+01 3.596714e-01 -2.716609e-01 2.285787e-01 -4.401098e-01 -7.340613e-01 -3.813204e-01 -9.757445e-02 -2.305409e-01 -2.651294e-01 -3.262131e-01 -3.891440e-01 -3.468423e-01 1.378833e+00 4.489029e-01 4.267009e-01 2.465742e-01 2.374401e-01 -5.069162e-02 -1.171604e-01 -4.649523e-02 -5.495644e-02 -6.247130e-02 -1.418353e-01 -1.503858e-01 -1.503215e-02 -4.735683e-01
<VARIANCE> 39
 2.314196e+01 2.805409e+01 5.587855e+01 3.406507e+01 4.456348e+01 3.985093e+01 4.417596e+01 3.175808e+01 2.710707e+01 2.483104e+01 2.064336e+01 1.647482e+01 3.399733e+01 3.482657e+00 3.660227e+00 3.677031e+00 3.111524e+00 3.688590e+00 3.237040e+00 3.687865e+00 2.896011e+00 2.606998e+00 2.566430e+00 2.029678e+00 1.688560e+00 6.613728e+00 4.278729e-01 7.193612e-01 8.132150e-01 5.716482e-01 7.309165e-01 6.364899e-01 7.370102e-01 5.908837e-01 5.195568e-01 4.969755e-01 3.973340e-01 3.454350e-01 9.881326e-01
<GCONST> 1.242600e+02
<TRANSP> 5
 0.000000e+00 1.000000e+00 0.000000e+00 0.000000e+00 0.000000e+00
 0.000000e+00 5.288822e-01 4.711178e-01 0.000000e+00 0.000000e+00
 0.000000e+00 0.000000e+00 6.474906e-01 3.525094e-01 0.000000e+00
 0.000000e+00 0.000000e+00 0.000000e+00 8.060945e-01 1.939056e-01
 0.000000e+00 0.000000e+00 0.000000e+00 0.000000e+00 0.000000e+00
<ENDHMM>
~h "L"
<BEGINHMM>
<NUMSTATES> 5
<STATE> 2
<MEAN> 39
 -5.803461e+00 -3.465115e+00 -2.883594e+00 -1.249552e+01 -1.011036e+01 2.529793e-01 -2.996017e+00 -8.492229e+00 -3.608932e+00 -6.842258e-01 5.284728e-01 -2.159065e+00 6.892614e+01 9.257615e-01 3.778912e-01 -5.654349e-02 -1.376267e+00 -8.609527e-01 7.874522e-01 3.034029e-01 -6.173156e-01 -5.387486e-01 -2.472946e-01 -4.623976e-02 2.708052e-01 9.468923e-02 -3.152474e-01 -1.753919e-01 4.169729e-02 3.719759e-01 1.881391e-01 -1.396327e-01 -4.530570e-02 2.944040e-01 2.807079e-01 -2.087815e-02 -8.130508e-02 1.195883e-02 -3.034071e-02
<VARIANCE> 39
 1.574935e+01 3.837718e+01 2.969620e+01 5.810362e+01 4.995686e+01 4.294563e+01 6.550997e+01 4.628951e+01 4.233136e+01 3.799343e+01 3.220383e+01 3.479369e+01 3.698135e+01 2.308740e+00 2.804918e+00 1.892247e+00 2.929810e+00 3.725602e+00 3.114993e+00 3.652744e+00 3.400637e+00 2.981124e+00 2.826658e+00 2.361223e+00 2.344990e+00 1.959026e+00 3.715988e-01 4.321042e-01 3.053529e-01 4.704644e-01 6.532905e-01 4.750927e-01 5.016910e-01 5.276297e-01 5.401760e-01 5.253542e-01 4.120645e-01 3.681365e-01 2.275639e-01
<GCONST> 1.214106e+02
<STATE> 3
<MEAN> 39
 -4.478580e+00 -1.988257e+00 -2.474919e+00 -1.614660e+01 -1.283815e+01 2.347664e+00 -9.053603e-01 -7.845366e+00 -2.974478e+00 -2.028398e+00 -8.572645e-01 -1.004300e+00 6.753470e+01 -4.436973e-02 2.111797e-01 4.542837e-02 5.404689e-02 1.257893e-01 5.244162e-02 -8.929578e-02 5.446778e-02 1.119678e-01 -9.142638e-02 -1.396902e-01 7.451152e-03 -2.066939e-01 -1.362701e-01 -1.424410e-01 -2.139081e-02 3.079397e-01 2.153012e-01 -1.202083e-01 -1.021906e-01 4.806959e-02 9.932628e-02 9.561393e-02 5.665225e-02 -9.155017e-02 2.468826e-02
<VARIANCE> 39
 9.643067e+00 3.571580e+01 3.242803e+01 5.736419e+01 5.593261e+01 4.466258e+01 6.417841e+01 4.493274e+01 4.067968e+01 3.772844e+01 3.358481e+01 2.929544e+01 3.055614e+01 3.701313e-01 1.625018e+00 9.229510e-01 1.446645e+00 1.618979e+00 1.379063e+00 1.518338e+00 1.486392e+00 1.488082e+00 1.553506e+00 1.380180e+00 1.164763e+00 7.711036e-01 1.131118e-01 2.022478e-01 1.641301e-01 2.751300e-01 3.008263e-01 2.779815e-01 2.771362e-01 2.985126e-01 2.851290e-01 2.680057e-01 2.433870e-01 2.177210e-01 1.176624e-01
<GCONST> 1.014375e+02
<STATE> 4
<MEAN> 39
 -6.436298e+00 -3.156766e+00 -3.144948e+00 -1.220362e+01 -8.695977e+00 1.610273e+00 -3.486120e+00 -7.891579e+00 -1.672078e+00 -7.573622e-01 -3.041229e-01 -2.215818e+00 6.736200e+01 -6.816773e-01 -7.156985e-01 1.715708e-01 1.552365e+00 9.042392e-01 -7.169008e-01 -4.734620e-01 5.965481e-01 8.922420e-01 3.680432e-01 -1.092775e-01 -5.079215e-01 -3.428459e-04 -1.544158e-01 -6.694773e-02 1.903003e-01 2.926404e-01 -3.229670e-02 -2.174604e-01 1.012200e-01 2.977097e-01 5.549285e-02 -1.646472e-01 -9.752431e-02 2.396573e-02 -7.667102e-02
<VARIANCE> 39
 1.473014e+01 4.010136e+01 3.125837e+01 5.932239e+01 5.355814e+01 4.794467e+01 7.596095e+01 5.230844e+01 4.749557e+01 4.459724e+01 3.798555e+01 3.436572e+01 5.077782e+01 1.195013e+00 3.076013e+00 2.010973e+00 3.509086e+00 4.035630e+00 3.381374e+00 3.249889e+00 3.418473e+00 3.405910e+00 3.267599e+00 2.760543e+00 2.282062e+00 2.530241e+00 2.570709e-01 3.837470e-01 3.067616e-01 5.163131e-01 6.570305e-01 4.995860e-01 5.457628e-01 5.751581e-01 5.897670e-01 6.119446e-01 4.831749e-01 4.132822e-01 2.635670e-01
<GCONST> 1.235422e+02
<TRANSP> 5
 0.000000e+00 1.000000e+00 0.000000e+00 0.000000e+00 0.000000e+00
 0.000000e+00 4.955827e-01 5.044173e-01 0.000000e+00 0.000000e+00
 0.000000e+00 0.000000e+00 7.726679e-01 2.273321e-01 0.000000e+00
 0.000000e+00 0.000000e+00 0.000000e+00 5.836471e-01 4.163529e-01
 0.000000e+00 0.000000e+00 0.000000e+00 0.000000e+00 0.000000e+00
<ENDHMM>
~h "M"
<BEGINHMM>
<NUMSTATES> 5
<STATE> 2
<MEAN> 39
 -9.518690e+00 -3.607430e+00 8.860114e-01 -7.334561e-01 -2.568856e+00 -3.129945e+00 -3.856027e+00 -3.477551e+00 -1.028560e+00 -3.067795e+00 3.851421e-02 -1.422029e+00 6.088823e+01 3.936533e-02 3.852743e-01 3.487885e-01 4.383372e-01 5.825089e-01 -5.487187e-02 -5.449516e-02 -8.899090e-02 -4.162097e-01 -3.315217e-01 1.979633e-01 1.388235e-01 -4.040239e-01 -9.457080e-02 -1.139181e-01 -6.001682e-02 -8.515526e-02 -1.270311e-01 6.071066e-02 9.228810e-02 9.989638e-02 1.388087e-01 9.539168e-02 -8.319849e-03 -1.944498e-02 1.087473e-01
<VARIANCE> 39
 3.721539e+01 3.348338e+01 2.901192e+01 3.509834e+01 4.986138e+01 4.264051e+01 5.795579e+01 4.790734e+01 5.119303e+01 4.221364e+01 2.922251e+01 2.783172e+01 6.833875e+01 2.167514e+00 3.016653e+00 2.831351e+00 3.057533e+00 4.294434e+00 2.885504e+00 3.451028e+00 3.258284e+00 3.961495e+00 3.533066e+00 2.448685e+00 1.978698e+00 2.963497e+00 3.064406e-01 4.193326e-01 4.048780e-01 4.603325e-01 6.011848e-01 4.754844e-01 5.494715e-01 5.249901e-01 5.940179e-01 5.245128e-01 3.932468e-01 3.260805e-01 3.993365e-01
<GCONST> 1.238366e+02
<STATE> 3
<MEAN> 39
 -7.875100e+00 -2.743906e+00 1.602765e+00 6.203368e-01 -2.080109e+00 -3.333752e+00 -4.566092e+00 -4.263125e+00 -2.330923e+00 -4.460288e+00 1.267144e-02 -1.592417e+00 6.145428e+01 -1.421495e-01 1.214790e-01 1.009110e-01 1.101573e-01 1.940943e-01 6.055343e-02 1.539575e-01 1.476362e-01 -2.505452e-02 5.051887e-02 9.140228e-02 5.127472e-02 -2.601322e-01 -1.154959e-02 -1.174634e-01 -1.371769e-01 -1.691412e-01 -2.258780e-01 2.140296e-02 4.636515e-02 6.478211e-02 1.890075e-01 1.656965e-01 -5.840511e-02 -4.156598e-02 1.175770e-01
<VARIANCE> 39
 2.023861e+01 3.272152e+01 2.696331e+01 3.298785e+01 4.648175e+01 4.380132e+01 6.205420e+01 4.916124e+01 5.239289e+01 4.567541e+01 3.080437e+01 3.018015e+01 5.871936e+01 3.940740e-01 1.010114e+00 9.735585e-01 1.150236e+00 1.413781e+00 1.267219e+00 1.397388e+00 1.414704e+00 1.651211e+00 1.519771e+00 1.223876e+00 1.030174e+00 5.980868e-01 8.070611e-02 1.946499e-01 2.240147e-01 2.645871e-01 3.318604e-01 2.507158e-01 2.909480e-01 3.069598e-01 3.622961e-01 3.412158e-01 2.614975e-01 2.171904e-01 1.041829e-01
<GCONST> 1.012860e+02
<STATE> 4
<MEAN> 39
 -1.299545e+01 -3.173777e+00 9.802090e-01 -4.209794e-02 1.620989e+00 4.968279e-01 5.966074e-01 1.233810e+00 3.729847e+00 9.155657e-01 1.809679e+00 7.799280e-01 5.037028e+01 -2.934927e-02 7.160713e-02 2.191925e-02 2.560231e-02 -2.019992e-02 -3.202349e-03 5.781002e-02 3.399892e-02 -3.218791e-02 2.603228e-02 4.725295e-02 -3.656046e-03 -5.379248e-02 7.123016e-04 -1.737796e-02 -2.136612e-03 -7.806163e-03 -4.314918e-02 -1.544678e-02 -7.738891e-03 -1.070760e-02 -1.072327e-02 -1.526137e-02 -2.105224e-02 -2.798685e-02 5.126780e-02
<VARIANCE> 39
 6.784571e+00 1.863332e+01 7.936172e+00 8.574976e+00 1.236983e+01 1.401753e+01 1.732128e+01 1.582351e+01 1.944148e+01 1.550805e+01 1.263373e+01 1.061620e+01 2.675501e+01 1.747687e-01 4.672610e-01 4.247277e-01 5.273656e-01 6.614820e-01 7.263418e-01 8.417189e-01 8.707037e-01 9.655610e-01 9.046794e-01 8.392578e-01 7.141700e-01 1.998983e-01 3.870825e-02 8.169746e-02 8.728929e-02 1.099604e-01 1.436442e-01 1.513448e-01 1.735418e-01 1.824798e-01 2.039800e-01 1.923801e-01 1.735544e-01 1.505064e-01 3.642072e-02
<GCONST> 7.021889e+01
<TRANSP> 5
 0.000000e+00 1.000000e+00 0.000000e+00 0.000000e+00 0.000000e+00
 0.000000e+00 6.040270e-01 3.959730e-01 0.000000e+00 0.000000e+00
 0.000000e+00 0.000000e+00 6.282450e-01 3.717549e-01 0.000000e+00
 0.000000e+00 0.000000e+00 0.000000e+00 8.945241e-01 1.054759e-01
 0.000000e+00 0.000000e+00 0.000000e+00 0.000000e+00 0.000000e+00
<ENDHMM>
~h "N"
<BEGINHMM>
<NUMSTATES> 5
<STATE> 2
<MEAN> 39
 -7.269525e+00 -4.201854e+00 1.776647e+00 3.460115e-01 -7.582653e+00 -6.493822e+00 -6.343988e+00 -3.047507e+00 -4.628642e-01 -4.370212e+00 -1.257530e+00 -3.754426e+00 6.552136e+01 1.855951e-01 1.360503e+00 8.424207e-01 8.382338e-01 1.180230e+00 -7.594625e-01 1.675280e-01 2.189794e-01 -1.603673e+00 -5.847291e-01 4.863360e-01 -3.977286e-01 -1.277428e+00 -9.747414e-02 -7.846590e-02 -4.282342e-02 -1.192443e-01 -5.017043e-02 1.015516e-01 1.770287e-01 4.369995e-02 -2.299420e-02 6.411539e-02 2.614672e-02 -4.653832e-03 6.996045e-02
<VARIANCE> 39
 1.569686e+01 3.177859e+01 3.155005e+01 3.349437e+01 5.046060e+01 4.301161e+01 5.366713e+01 4.546774e+01 4.721563e+01 4.091812e+01 3.404254e+01 3.114005e+01 4.138297e+01 1.216137e+00 2.413291e+00 2.690056e+00 2.387828e+00 3.796958e+00 2.983840e+00 3.570859e+00 3.126364e+00 3.733506e+00 3.246776e+00 2.519210e+00 1.960968e+00 1.736265e+00 1.389793e-01 2.654992e-01 2.989604e-01 2.987598e-01 4.522898e-01 3.940022e-01 4.235296e-01 3.669800e-01 4.848352e-01 3.696759e-01 3.156112e-01 2.549312e-01 1.955186e-01
<GCONST> 1.158383e+02
<STATE> 3
<MEAN> 39
 -6.851568e+00 -6.637954e-01 3.856843e+00 1.668506e+00 -5.651889e+00 -8.964364e+00 -5.000569e+00 -1.766138e+00 -6.122765e+00 -6.078542e+00 2.964623e-01 -5.574703e+00 6.318903e+01 -1.242004e-01 3.785632e-01 3.007476e-01 1.858032e-01 3.472467e-01 2.648246e-02 2.366925e-01 2.214090e-02 -3.564339e-01 -9.211305e-02 1.374710e-02 -6.304313e-02 -3.550402e-01 -2.716776e-01 -5.515845e-01 -2.788946e-01 -2.956740e-01 -3.078618e-01 4.794644e-01 -1.599207e-02 -8.480312e-02 7.620649e-01 3.148712e-01 -2.413880e-01 2.407885e-01 3.761325e-01
<VARIANCE> 39
 1.324402e+01 3.037044e+01 2.528084e+01 3.195520e+01 4.207795e+01 4.195132e+01 5.559813e+01 4.710763e+01 5.183636e+01 4.549238e+01 3.751125e+01 3.613919e+01 2.920874e+01 1.045734e+00 2.324542e+00 1.576910e+00 1.546468e+00 2.740699e+00 2.267486e+00 2.369865e+00 2.153431e+00 3.099297e+00 2.128013e+00 1.799257e+00 1.419321e+00 1.891980e+00 2.246732e-01 4.206513e-01 4.153701e-01 4.007725e-01 6.436339e-01 5.116655e-01 5.922381e-01 5.757335e-01 6.011411e-01 5.940269e-01 4.637033e-01 3.615897e-01 2.740199e-01
<GCONST> 1.163166e+02
<STATE> 4
<MEAN> 39
 -8.779691e+00 -2.841169e+00 3.167126e+00 1.303080e+00 -4.601739e+00 -5.548023e+00 -3.858851e+00 -1.867967e+00 -1.592696e+00 -4.025707e+00 -1.187118e+00 -3.843952e+00 6.203399e+01 -5.447168e-01 -6.123036e-01 -3.773194e-01 -3.829091e-01 4.720486e-02 7.726027e-01 3.061353e-01 8.458634e-02 8.625833e-01 4.889524e-01 -1.786409e-01 3.451479e-01 5.594525e-02 -9.374039e-02 -1.540245e-01 -1.690008e-01 -1.558955e-01 -9.964812e-02 9.000346e-02 2.007010e-02 4.294466e-03 1.443566e-01 1.067256e-01 1.518559e-02 6.431685e-02 1.367520e-01
<VARIANCE> 39
 1.842875e+01 4.047104e+01 2.850973e+01 3.248016e+01 5.035016e+01 4.077514e+01 4.744089e+01 4.196769e+01 4.593134e+01 3.670554e+01 3.072788e+01 2.683542e+01 5.307621e+01 1.224414e+00 2.711034e+00 1.991613e+00 1.917796e+00 3.208367e+00 2.482698e+00 2.656555e+00 2.633884e+00 3.062046e+00 2.524564e+00 2.055843e+00 1.650854e+00 2.257232e+00 2.501899e-01 4.609696e-01 3.370640e-01 3.607720e-01 5.085527e-01 4.248271e-01 4.565826e-01 4.274819e-01 5.199879e-01 4.014051e-01 3.206690e-01 2.684406e-01 3.074276e-01
<GCONST> 1.164727e+02
<TRANSP> 5
 0.000000e+00 1.000000e+00 0.000000e+00 0.000000e+00 0.000000e+00
 0.000000e+00 4.316482e-01 5.683518e-01 0.000000e+00 0.000000e+00
 0.000000e+00 0.000000e+00 5.120319e-01 4.879681e-01 0.000000e+00
 0.000000e+00 0.000000e+00 0.000000e+00 5.645141e-01 4.354859e-01
 0.000000e+00 0.000000e+00 0.000000e+00 0.000000e+00 0.000000e+00
<ENDHMM>
~h "P"
<BEGINHMM>
<NUMSTATES> 5
<STATE> 2
<MEAN> 39
 -9.376569e+00 7.223368e-01 2.655241e+00 6.346342e-01 -2.893543e-02 -7.718002e-01 -2.834694e+00 -3.475823e+00 -2.302255e+00 -2.467767e+00 -4.042363e-01 -1.870767e+00 5.532677e+01 -1.602038e+00 1.125355e+00 3.434568e-01 6.224788e-01 1.835854e+00 9.795020e-01 1.646307e+00 1.419705e+00 7.587996e-01 4.403897e-01 2.823057e-01 6.099697e-01 -3.402503e+00 -3.469317e-01 -7.186582e-01 -4.041033e-01 -4.230528e-01 -5.748315e-01 -2.711080e-01 -1.089911e-01 1.503757e-01 3.448093e-01 2.819597e-01 1.822764e-01 8.955771e-02 9.065737e-01
<VARIANCE> 39
 2.928170e+01 2.077159e+01 2.502704e+01 2.599063e+01 2.712564e+01 2.487062e+01 3.243761e+01 2.547323e+01 2.343934e+01 2.210579e+01 1.831423e+01 1.802353e+01 2.818368e+01 2.964881e+00 2.970588e+00 2.743885e+00 3.029476e+00 3.648298e+00 2.781942e+00 3.802967e+00 2.952154e+00 2.776081e+00 2.732482e+00 2.194124e+00 2.183112e+00 3.732384e+00 3.637200e-01 4.150037e-01 3.767706e-01 4.051539e-01 5.665987e-01 4.402125e-01 5.198020e-01 4.983017e-01 4.334699e-01 4.028211e-01 3.411774e-01 2.971274e-01 7.709896e-01
<GCONST> 1.163197e+02
<STATE> 3
<MEAN> 39
 -1.418277e+01 1.142112e-01 1.338947e+00 -2.483519e-01 1.296885e+00 6.734935e-01 6.395700e-01 8.996907e-01 1.764458e+00 8.370215e-01 2.158163e+00 9.676116e-01 4.969287e+01 -8.525836e-01 -9.230861e-01 -3.823876e-01 -2.935618e-01 -3.059886e-01 -2.901566e-01 1.026526e-01 2.755039e-01 4.286115e-01 3.625491e-01 1.759735e-01 2.333095e-01 1.184820e+00 1.809094e-01 -4.833717e-01 -7.499048e-02 -1.948559e-01 -4.364465e-01 -3.139504e-01 -3.898533e-01 -3.585735e-01 -2.052682e-01 -1.592039e-01 -1.879082e-01 -2.508652e-01 1.418566e+00
<VARIANCE> 39
 8.624768e+00 6.092314e+00 7.367741e+00 8.634092e+00 9.505721e+00 1.102274e+01 1.147474e+01 1.124777e+01 1.054242e+01 1.002725e+01 8.922161e+00 8.054991e+00 1.227589e+01 1.827100e+00 1.792131e+00 1.301401e+00 1.455556e+00 1.648051e+00 1.746806e+00 1.943530e+00 1.931242e+00 1.673189e+00 1.518644e+00 1.313004e+00 1.282267e+00 7.004926e+00 3.097480e-01 2.504102e-01 2.525111e-01 3.132237e-01 3.578849e-01 3.342487e-01 3.818459e-01 3.418688e-01 3.033903e-01 2.870997e-01 2.507206e-01 2.383937e-01 6.036369e-01
<GCONST> 9.333624e+01
<STATE> 4
<MEAN> 39
 -1.728682e+01 -7.891984e+00 -2.442135e-01 -3.349180e+00 -2.318315e+00 -2.022655e+00 -4.274752e-01 7.028252e-02 1.510098e+00 3.628792e-01 8.329710e-01 -5.595258e-01 6.571497e+01 5.474955e-01 -9.727289e-01 -3.095626e-01 -6.759208e-01 -9.385939e-01 -2.974382e-01 -3.075495e-01 -2.991238e-01 -2.753944e-01 -3.132020e-01 -3.784259e-01 -5.069001e-01 2.028418e+00 5.922088e-01 4.564100e-01 7.666165e-02 5.100731e-02 -1.533285e-01 5.667544e-02 -1.471381e-01 -1.609509e-01 -1.866399e-01 -1.937736e-01 -8.200540e-02 -9.428548e-02 -5.732918e-01
<VARIANCE> 39
 1.520348e+01 2.379971e+01 2.198979e+01 2.471141e+01 2.230744e+01 2.357766e+01 2.309112e+01 2.302889e+01 1.808817e+01 1.619152e+01 1.340902e+01 1.158934e+01 3.292316e+01 3.352639e+00 3.737117e+00 2.255219e+00 2.666720e+00 3.014106e+00 2.767008e+00 3.236275e+00 2.857048e+00 2.475180e+00 2.159461e+00 1.688211e+00 1.586831e+00 6.469514e+00 3.546282e-01 4.998851e-01 3.495423e-01 4.628937e-01 5.557886e-01 5.305799e-01 5.946074e-01 5.286614e-01 4.633568e-01 4.259361e-01 3.323376e-01 3.059263e-01 8.600504e-01
<GCONST> 1.138344e+02
<TRANSP> 5
 0.000000e+00 1.000000e+00 0.000000e+00 0.000000e+00 0.000000e+00
 0.000000e+00 5.473836e-01 4.526164e-01 0.000000e+00 0.000000e+00
 0.000000e+00 0.000000e+00 7.208064e-01 2.791936e-01 0.000000e+00
 0.000000e+00 0.000000e+00 0.000000e+00 7.412056e-01 2.587944e-01
 0.000000e+00 0.000000e+00 0.000000e+00 0.000000e+00 0.000000e+00
<ENDHMM>
~h "R"
<BEGINHMM>
<NUMSTATES> 5
<STATE> 2
<MEAN> 39
 -4.129830e+00 -5.597373e+00 -6.347272e+00 -1.707203e+00 -3.497857e+00 -3.716370e+00 -9.771038e+00 -6.163529e+00 4.522955e-01 -1.917902e+00 -1.719358e+00 -1.343838e+00 6.551433e+01 1.346638e+00 -3.877594e-02 -8.300169e-01 2.268247e-02 -3.138634e-01 -1.668301e-01 -1.231420e+00 -4.273265e-01 4.294046e-01 -9.609335e-02 -3.262991e-01 -1.158262e-01 2.947691e-01 -2.223525e-01 -3.282928e-01 1.614947e-01 6.313703e-02 -2.712105e-01 -9.641814e-02 1.624941e-01 2.394402e-01 1.708657e-01 1.724482e-02 7.544805e-02 1.947004e-02 1.761142e-01
<VARIANCE> 39
 3.483203e+01 4.146348e+01 4.257146e+01 3.687320e+01 4.457481e+01 4.995881e+01 5.940044e+01 6.404134e+01 4.650109e+01 3.760303e+01 2.353929e+01 1.943788e+01 3.668890e+01 4.503987e+00 2.634438e+00 3.271002e+00 2.731909e+00 3.539412e+00 3.398362e+00 5.280642e+00 3.664612e+00 3.290462e+00 2.980052e+00 2.064567e+00 1.721722e+00 1.790724e+00 5.136448e-01 3.950258e-01 4.688661e-01 3.852798e-01 4.501207e-01 5.166535e-01 7.701699e-01 6.067504e-01 5.072988e-01 4.063346e-01 3.279915e-01 2.782932e-01 2.804215e-01
<GCONST> 1.229357e+02
<STATE> 3
<MEAN> 39
 -2.262097e+00 -1.058319e+01 -8.253830e+00 -8.582109e-01 -6.874326e+00 -5.851688e+00 -1.444277e+01 -4.344227e+00 5.716985e+00 -2.374763e+00 -2.064411e+00 -1.749362e+00 6.986953e+01 9.550836e-02 -1.033059e+00 4.387320e-01 4.464426e-01 -1.025856e+00 -7.076414e-01 2.279135e-01 8.809966e-01 5.853645e-01 -4.010574e-01 -1.743208e-01 -8.868062e-03 6.188266e-01 -5.721213e-01 1.547223e-01 5.676318e-01 -1.317377e-01 5.304257e-02 1.373855e-01 8.760511e-01 1.841448e-01 -5.129332e-01 -6.305150e-02 1.485695e-01 4.358118e-02 -1.718841e-01
<VARIANCE> 39
 1.463394e+01 2.982392e+01 4.616154e+01 4.958292e+01 4.656297e+01 5.427217e+01 8.281737e+01 8.788488e+01 4.903965e+01 5.756015e+01 3.129480e+01 2.750199e+01 2.776225e+01 1.580576e+00 2.364684e+00 2.778979e+00 2.568335e+00 3.554204e+00 3.454962e+00 4.946280e+00 3.674733e+00 3.483391e+00 2.598663e+00 2.047196e+00 1.811510e+00 1.518784e+00 3.846293e-01 2.854957e-01 3.409973e-01 3.750975e-01 5.170032e-01 5.450132e-01 8.093570e-01 6.849005e-01 5.271666e-01 5.147578e-01 3.646352e-01 3.031375e-01 1.373027e-01
<GCONST> 1.212550e+02
<STATE> 4
<MEAN> 39
 -3.371982e+00 -1.201477e+01 -4.948453e+00 3.590298e-01 -9.152516e+00 -8.089015e+00 -1.167022e+01 -1.062856e+00 5.608276e+00 -3.561456e+00 -2.134886e+00 -1.648493e+00 6.942393e+01 -2.995648e-01 1.140999e-01 6.306154e-01 2.662242e-02 -2.743620e-01 -1.069151e-02 6.302474e-01 7.978360e-02 -4.838221e-01 -8.086879e-02 1.131484e-01 -2.384784e-02 -1.619232e-01 -1.289901e-01 1.695784e-01 1.322687e-01 -5.954969e-02 7.775716e-02 1.065987e-01 1.695500e-01 -9.722982e-02 -1.907932e-01 5.297104e-02 5.914798e-02 -2.214817e-02 -1.121430e-01
<VARIANCE> 39
 1.343355e+01 3.027502e+01 4.894963e+01 4.657801e+01 5.411271e+01 4.966813e+01 6.949266e+01 8.544355e+01 5.098869e+01 5.828873e+01 3.004309e+01 2.823049e+01 2.953037e+01 6.027831e-01 1.115329e+00 1.768845e+00 1.323174e+00 2.270720e+00 1.629623e+00 2.617383e+00 1.882367e+00 1.939997e+00 1.435432e+00 1.197855e+00 1.012623e+00 7.063377e-01 1.227079e-01 1.698578e-01 1.777035e-01 2.038666e-01 3.010873e-01 2.650661e-01 3.543409e-01 3.128520e-01 2.710486e-01 2.400988e-01 1.917515e-01 1.721909e-01 8.388674e-02
<GCONST> 1.038167e+02
<TRANSP> 5
 0.000000e+00 1.000000e+00 0.000000e+00 0.000000e+00 0.000000e+00
 0.000000e+00 5.893276e-01 4.106724e-01 0.000000e+00 0.000000e+00
 0.000000e+00 0.000000e+00 4.276644e-01 5.723356e-01 0.000000e+00
 0.000000e+00 0.000000e+00 0.000000e+00 7.286132e-01 2.713868e-01
 0.000000e+00 0.000000e+00 0.000000e+00 0.000000e+00 0.000000e+00
<ENDHMM>
~h "S"
<BEGINHMM>
<NUMSTATES> 5
<STATE> 2
<MEAN> 39
 -2.014118e+01 -3.586259e-01 1.955209e+00 -3.183565e+00 -9.307820e-01 -4.464725e+00 -3.362194e+00 -1.233964e+00 -1.392663e-01 -1.170963e+00 -1.434914e+00 -2.486726e+00 6.889673e+01 -4.103849e+00 1.004353e+00 -5.207583e-01 -5.377339e-01 1.592752e+00 9.375430e-01 1.358085e+00 1.137292e+00 5.409498e-01 3.790711e-01 3.616447e-01 7.357011e-01 4.483170e-01 1.455414e-01 -1.463941e-01 -2.946458e-01 -1.418320e-02 -3.566470e-01 4.588303e-02 -1.088378e-01 -9.427276e-02 7.037759e-03 1.309785e-02 1.393148e-01 3.982607e-02 3.304516e-02
<VARIANCE> 39
 6.263340e+01 2.594061e+01 2.898200e+01 2.609576e+01 2.859484e+01 3.468068e+01 3.244751e+01 2.662404e+01 2.362149e+01 2.097537e+01 2.034647e+01 1.669356e+01 2.424020e+01 2.837034e+00 2.569503e+00 3.403555e+00 3.473064e+00 3.742722e+00 3.330055e+00 4.151295e+00 3.253777e+00 2.657408e+00 2.435948e+00 2.243387e+00 2.170235e+00 1.186902e+00 1.066961e+00 3.965671e-01 4.481430e-01 4.667915e-01 5.591115e-01 5.436980e-01 5.933042e-01 5.076884e-01 4.204189e-01 3.498180e-01 3.547197e-01 3.206605e-01 2.352223e-01
<GCONST> 1.174321e+02
<STATE> 3
<MEAN> 39
 -3.054630e+01 3.082515e+00 -1.773629e+00 -3.885465e+00 1.598766e+00 -2.061560e+00 -2.425908e-01 9.261673e-01 8.801939e-01 2.873698e-02 4.159532e-01 -4.535320e-01 6.987536e+01 -3.009546e-01 8.348787e-02 -1.634276e-02 -5.551199e-02 5.154496e-02 1.332289e-01 4.811969e-02 5.115836e-02 6.175997e-02 6.795484e-02 1.018497e-01 6.000872e-02 -7.368311e-02 6.232809e-01 -2.571871e-01 2.438827e-01 -2.212375e-03 -1.525630e-01 -1.202598e-01 -1.927688e-01 -1.475919e-01 -2.889994e-02 -4.369262e-02 -6.030560e-02 -9.897236e-02 -1.549982e-01
<VARIANCE> 39
 8.598849e+00 2.002308e+01 2.366809e+01 2.598706e+01 1.650942e+01 1.788622e+01 1.976002e+01 1.431242e+01 1.277392e+01 1.005409e+01 8.233363e+00 7.320917e+00 1.787551e+01 1.150141e+00 1.389583e+00 1.115477e+00 1.049660e+00 9.744679e-01 1.110815e+00 1.021751e+00 9.251850e-01 8.871825e-01 8.170684e-01 7.259699e-01 6.291156e-01 5.329067e-01 3.304591e-01 2.228999e-01 2.052163e-01 2.504375e-01 2.277204e-01 2.559826e-01 2.647929e-01 2.349668e-01 2.056315e-01 1.858359e-01 1.660722e-01 1.580908e-01 1.293118e-01
<GCONST> 8.518679e+01
<STATE> 4
<MEAN> 39
 -2.674313e+01 -3.677926e-01 1.266967e+00 -4.942602e+00 5.860166e-01 -1.684598e+00 -1.880420e+00 6.711334e-02 1.562727e+00 1.957547e-01 5.109705e-01 -7.033336e-01 6.802342e+01 2.944875e+00 -1.027943e+00 5.988576e-01 1.617167e-01 -8.847024e-01 -3.055420e-01 -6.378000e-01 -8.462097e-01 -1.584118e-01 -6.457727e-02 -2.593521e-02 -2.706314e-01 -1.226061e+00 7.237234e-01 -5.917524e-02 -1.752585e-01 1.552051e-01 -3.088114e-01 -1.153422e-01 -7.100351e-02 -1.846595e-01 -1.321028e-01 -5.843445e-02 -1.258798e-02 -6.996749e-02 -1.343656e-01
<VARIANCE> 39
 2.914446e+01 2.722485e+01 3.019614e+01 2.222425e+01 2.468262e+01 2.946206e+01 2.498170e+01 2.262817e+01 1.811427e+01 1.441721e+01 1.206633e+01 9.855203e+00 2.897519e+01 4.155259e+00 2.431558e+00 2.362297e+00 3.040365e+00 3.186026e+00 3.402534e+00 3.622627e+00 2.705214e+00 2.217806e+00 1.775106e+00 1.454604e+00 1.592975e+00 3.203809e+00 5.088155e-01 5.214582e-01 4.024277e-01 4.615636e-01 5.451558e-01 5.363393e-01 6.147532e-01 5.012222e-01 3.997281e-01 3.332629e-01 2.773140e-01 2.729842e-01 5.834542e-01
<GCONST> 1.132717e+02
<TRANSP> 5
 0.000000e+00 1.000000e+00 0.000000e+00 0.000000e+00 0.000000e+00
 0.000000e+00 6.928465e-01 3.071535e-01 0.000000e+00 0.000000e+00
 0.000000e+00 0.000000e+00 8.315105e-01 1.684895e-01 0.000000e+00
 0.000000e+00 0.000000e+00 0.000000e+00 6.516458e-01 3.483542e-01
 0.000000e+00 0.000000e+00 0.000000e+00 0.000000e+00 0.000000e+00
<ENDHMM>
~h "T"
<BEGINHMM>
<NUMSTATES> 5
<STATE> 2
<MEAN> 39
 -1.382276e+01 -1.352782e+00 3.383529e+00 7.163132e-01 -1.852725e+00 -2.197906e+00 -2.196160e+00 -1.318826e+00 5.498290e-01 -5.417442e-01 5.055194e-01 -7.188647e-01 5.657990e+01 -1.033185e+00 -2.952861e-01 -1.470540e-01 -3.631074e-01 6.698586e-01 7.147269e-01 9.349117e-01 4.215063e-01 1.689429e-01 3.287693e-01 2.435566e-01 3.852933e-01 -4.366198e-01 -1.330518e-01 -4.848620e-01 -1.838913e-01 -4.054474e-01 -5.628254e-01 -2.985079e-01 -2.702867e-01 -9.899478e-02 2.128546e-02 -8.834704e-02 -3.209557e-02 -7.385394e-02 1.188518e+00
<VARIANCE> 39
 4.111366e+01 3.019400e+01 2.940912e+01 2.961717e+01 4.161760e+01 3.665510e+01 3.448459e+01 3.118419e+01 2.613238e+01 2.436410e+01 1.945990e+01 1.695272e+01 5.915403e+01 3.932827e+00 5.130029e+00 3.100698e+00 3.798204e+00 5.645341e+00 4.046321e+00 3.969881e+00 3.253438e+00 2.912179e+00 2.567672e+00 2.076504e+00 1.832150e+00 9.825966e+00 5.759931e-01 6.117061e-01 5.052695e-01 5.408254e-01 8.102343e-01 7.070050e-01 6.270403e-01 5.659582e-01 5.106972e-01 4.501246e-01 3.878123e-01 3.294763e-01 1.301912e+00
<GCONST> 1.258099e+02
<STATE> 3
<MEAN> 39
 -2.099432e+01 -5.941348e+00 2.772609e+00 -4.662447e+00 -4.019184e+00 -2.603652e+00 -1.349463e+00 -1.082524e+00 9.211520e-01 -5.292931e-01 8.359354e-01 -8.018115e-02 6.752000e+01 -7.172498e-01 -6.939344e-01 1.901795e-01 -4.700722e-01 -6.395163e-01 -7.582383e-01 -3.125301e-01 -4.699558e-02 1.173216e-01 -1.384903e-01 -2.019113e-01 -1.530489e-01 1.988157e+00 8.501408e-01 2.061357e-01 -9.207770e-03 4.476125e-01 -6.674193e-02 -1.540047e-01 -2.797279e-01 -5.197729e-02 -3.549575e-02 -9.830693e-02 -1.208496e-01 -1.885539e-01 -5.540259e-01
<VARIANCE> 39
 5.959281e+01 3.431573e+01 3.076642e+01 3.636523e+01 3.152146e+01 2.980985e+01 2.923456e+01 2.590041e+01 2.030003e+01 1.675681e+01 1.414908e+01 1.229894e+01 5.258207e+01 5.175237e+00 2.973738e+00 2.474461e+00 3.505303e+00 3.327426e+00 3.016755e+00 2.893572e+00 2.529039e+00 2.195811e+00 1.943851e+00 1.554278e+00 1.398352e+00 8.172802e+00 7.824748e-01 6.710370e-01 5.991709e-01 7.024484e-01 7.993420e-01 6.427732e-01 6.921757e-01 5.551775e-01 4.882199e-01 4.034217e-01 3.552222e-01 3.064662e-01 1.363985e+00
<GCONST> 1.216016e+02
<STATE> 4
<MEAN> 39
 -1.731576e+01 -7.742098e+00 2.652847e+00 -2.192687e+00 -4.630213e+00 -4.891256e+00 -2.533092e+00 -9.460695e-01 1.361248e+00 -8.180228e-01 -5.689277e-01 -1.619320e+00 6.708789e+01 2.122529e+00 -2.135577e-01 -5.307568e-01 5.031367e-01 -5.649552e-01 -3.421728e-01 -8.574064e-01 -3.842327e-01 -1.460859e-01 -2.337502e-01 -3.496047e-01 -4.496537e-01 -2.994657e-01 4.571659e-01 1.718545e-01 -2.145497e-01 -5.661790e-02 -1.490451e-01 1.464879e-01 -1.800534e-01 -1.498066e-01 -7.273725e-02 -5.490278e-02 5.996374e-02 1.922361e-02 -1.077054e-01
<VARIANCE> 39
 5.290480e+01 3.330475e+01 2.951332e+01 3.113304e+01 3.843172e+01 3.571785e+01 3.573048e+01 3.517947e+01 2.640883e+01 2.292286e+01 1.877498e+01 1.574524e+01 4.617820e+01 5.607154e+00 2.971676e+00 2.735199e+00 3.030268e+00 4.422018e+00 3.696512e+00 4.452638e+00 3.405166e+00 2.805236e+00 2.429037e+00 2.059043e+00 1.881791e+00 3.470116e+00 5.755716e-01 4.584510e-01 4.008721e-01 4.780420e-01 5.978187e-01 5.554022e-01 6.616158e-01 5.691903e-01 4.965428e-01 4.028108e-01 3.509794e-01 3.069160e-01 6.188466e-01
<GCONST> 1.218403e+02
<TRANSP> 5
 0.000000e+00 1.000000e+00 0.000000e+00 0.000000e+00 0.000000e+00
 0.000000e+00 5.923873e-01 4.076127e-01 0.000000e+00 0.000000e+00
 0.000000e+00 0.000000e+00 5.058002e-01 4.941998e-01 0.000000e+00
 0.000000e+00 0.000000e+00 0.000000e+00 4.588785e-01 5.411215e-01
 0.000000e+00 0.000000e+00 0.000000e+00 0.000000e+00 0.000000e+00
<ENDHMM>
~h "V"
<BEGINHMM>
<NUMSTATES> 5
<STATE> 2
<MEAN> 39
 -6.591879e+00 -7.911910e+00 -1.126706e+00 -4.742326e+00 -1.129533e+01 -4.732583e+00 -6.487521e+00 -4.855632e+00 2.123322e-01 -3.236990e+00 -2.584984e-01 -4.329960e+00 7.128218e+01 5.488265e-02 -8.894287e-01 -8.578778e-01 -4.300716e-01 -5.134737e-01 4.054154e-01 -1.455719e-01 -1.952053e-01 9.159385e-01 2.028316e-01 -2.027764e-01 6.655544e-02 9.733837e-01 -1.214331e-01 3.884206e-01 1.448282e-01 3.201170e-01 5.173627e-01 9.274918e-02 3.113403e-01 -5.370883e-02 -3.951335e-01 -8.841875e-02 2.643239e-02 -3.133421e-03 -5.685450e-01
<VARIANCE> 39
 1.845011e+01 3.542231e+01 2.812411e+01 5.494489e+01 4.320317e+01 4.091146e+01 6.580103e+01 5.072847e+01 4.742209e+01 4.778841e+01 3.760564e+01 3.491326e+01 3.194009e+01 1.440277e+00 4.132740e+00 2.694597e+00 2.753463e+00 3.947669e+00 2.608779e+00 3.644392e+00 3.107086e+00 4.688950e+00 2.589701e+00 2.074335e+00 1.717494e+00 3.884860e+00 3.114876e-01 3.877979e-01 2.994917e-01 4.010457e-01 6.097492e-01 4.361479e-01 6.292365e-01 5.441631e-01 5.744216e-01 4.132138e-01 3.426184e-01 2.919177e-01 2.992174e-01
<GCONST> 1.215574e+02
<STATE> 3
<MEAN> 39
 -5.554514e+00 -1.217139e+01 -5.284890e+00 -7.013287e+00 -9.715551e+00 -9.129978e-01 -3.413532e+00 -6.759333e+00 1.653661e+00 -2.262936e+00 -2.422302e+00 -5.401571e+00 7.426944e+01 1.546942e-01 5.697304e-01 -8.265722e-02 -1.310238e-01 3.715860e-01 4.861847e-01 -1.563211e-02 -6.051090e-01 -5.232437e-01 2.720970e-02 2.518790e-01 2.656060e-01 -5.353118e-01 -1.336729e-01 3.504738e-01 2.494730e-01 2.031070e-01 1.694989e-01 -7.660606e-02 -2.969776e-03 4.538797e-02 -2.471592e-01 -1.832020e-01 5.829245e-02 9.790168e-02 -2.830554e-01
<VARIANCE> 39
 1.217029e+01 3.864386e+01 2.455366e+01 4.848804e+01 4.396224e+01 5.227162e+01 6.803503e+01 4.608161e+01 4.117880e+01 4.252845e+01 4.219765e+01 3.259872e+01 3.007479e+01 4.713277e-01 1.785720e+00 1.084106e+00 1.560007e+00 2.343474e+00 1.558774e+00 1.735184e+00 1.828119e+00 1.813460e+00 1.720647e+00 1.465189e+00 1.315759e+00 9.193138e-01 1.615610e-01 1.626549e-01 1.740442e-01 2.748963e-01 4.040956e-01 2.750507e-01 3.336210e-01 3.174828e-01 3.699747e-01 3.361650e-01 2.604302e-01 2.268099e-01 8.980700e-02
<GCONST> 1.048702e+02
<STATE> 4
<MEAN> 39
 -5.481943e+00 -2.300921e+00 -7.571888e-01 -2.956100e+00 -9.271653e+00 -2.446524e+00 -6.094775e+00 -8.795244e+00 -5.040100e+00 -7.283085e+00 1.872169e+00 -2.608951e+00 6.738469e+01 -3.672780e-01 5.894886e-01 3.402931e-01 3.758466e-01 4.362243e-01 -3.270637e-02 -1.074266e-01 -6.709746e-02 -3.468487e-01 -1.538647e-01 -9.787020e-03 8.251760e-02 -4.556390e-01 -1.952835e-01 -3.602496e-02 2.656752e-02 4.937721e-02 1.695307e-01 -1.965278e-02 1.094421e-01 1.201214e-01 1.096493e-01 1.062443e-01 -1.281743e-01 -5.831232e-02 1.554348e-02
<VARIANCE> 39
 9.888321e+00 2.760518e+01 2.601151e+01 4.588505e+01 4.376193e+01 3.840382e+01 9.540859e+01 4.437011e+01 5.154593e+01 5.177459e+01 3.871478e+01 4.571536e+01 2.109864e+01 7.306821e-01 1.623845e+00 1.742382e+00 2.601165e+00 3.133434e+00 1.980622e+00 2.858580e+00 2.380930e+00 3.504521e+00 2.695095e+00 2.005615e+00 1.775180e+00 1.206936e+00 1.862545e-01 1.829348e-01 2.660842e-01 3.721165e-01 4.635243e-01 3.161986e-01 4.780706e-01 4.246769e-01 4.944067e-01 3.913774e-01 3.278598e-01 2.999502e-01 1.198950e-01
<GCONST> 1.124057e+02
<TRANSP> 5
 0.000000e+00 1.000000e+00 0.000000e+00 0.000000e+00 0.000000e+00
 0.000000e+00 4.272842e-01 5.727158e-01 0.000000e+00 0.000000e+00
 0.000000e+00 0.000000e+00 7.002382e-01 2.997617e-01 0.000000e+00
 0.000000e+00 0.000000e+00 0.000000e+00 8.224235e-01 1.775766e-01
 0.000000e+00 0.000000e+00 0.000000e+00 0.000000e+00 0.000000e+00
<ENDHMM>
~h "W"
<BEGINHMM>
<NUMSTATES> 5
<STATE> 2
<MEAN> 39
 -5.211249e+00 2.087916e+00 -1.961235e-01 -4.941031e+00 -9.743493e+00 -2.175538e+00 -3.071206e+00 -3.353408e+00 -3.154607e+00 -5.421625e+00 -1.037066e+00 -1.597121e+00 6.032775e+01 9.204279e-01 4.667930e-01 -8.747470e-02 -6.573651e-01 -1.048960e+00 -1.378996e-01 8.917962e-02 -1.034647e-01 -2.969611e-01 -4.982025e-01 -2.860363e-01 -5.955061e-02 2.791850e-01 -7.820308e-02 -4.944407e-01 -1.709183e-01 -3.161553e-02 -1.010389e-01 9.256940e-02 -2.057758e-01 -2.219083e-01 7.255442e-02 1.748812e-01 2.265971e-01 6.687904e-02 4.822900e-01
<VARIANCE> 39
 2.627901e+01 2.867026e+01 2.188976e+01 3.590604e+01 5.655707e+01 3.370511e+01 4.550952e+01 3.351012e+01 3.142018e+01 3.010428e+01 2.402467e+01 2.216056e+01 3.289904e+01 2.682398e+00 2.315217e+00 2.085348e+00 2.789331e+00 4.689892e+00 2.912620e+00 3.795016e+00 3.432913e+00 2.933617e+00 2.776925e+00 2.074410e+00 1.899788e+00 3.015531e+00 2.607371e-01 3.483400e-01 3.496711e-01 4.675528e-01 7.275915e-01 5.986816e-01 6.103707e-01 5.739644e-01 5.196686e-01 5.088770e-01 4.363399e-01 3.575978e-01 2.777495e-01
<GCONST> 1.192571e+02
<STATE> 3
<MEAN> 39
 -3.052982e+00 -1.306909e+00 -3.010850e+00 -8.355540e+00 -1.355469e+01 -4.748337e-02 -3.729772e+00 -5.385582e+00 -4.858440e+00 -7.276472e+00 2.122799e-01 -4.877591e-02 6.490315e+01 5.852181e-01 -1.623757e+00 -9.215958e-01 -3.469953e-01 -5.555400e-01 8.270792e-01 -9.335682e-01 -1.446344e+00 -3.062460e-01 4.938197e-01 1.123401e+00 3.815721e-01 1.784009e+00 -4.543489e-01 -4.251424e-01 1.825257e-01 5.789154e-01 5.741563e-01 -2.681680e-01 -3.899291e-01 4.002681e-02 5.254521e-01 6.543949e-01 1.087141e-01 -3.389744e-01 6.241149e-02
<VARIANCE> 39
 1.404737e+01 2.543548e+01 2.484169e+01 4.895181e+01 4.817751e+01 3.669258e+01 6.719776e+01 4.086216e+01 3.836570e+01 3.712034e+01 3.180857e+01 3.235391e+01 2.354928e+01 1.911949e+00 2.113753e+00 1.828339e+00 2.930789e+00 4.551671e+00 3.308406e+00 4.675290e+00 3.264773e+00 2.613349e+00 2.983793e+00 2.620517e+00 2.297916e+00 1.967471e+00 2.669145e-01 2.900608e-01 2.761516e-01 4.096203e-01 6.458824e-01 5.914031e-01 6.133844e-01 5.687080e-01 5.524070e-01 4.921670e-01 4.337717e-01 3.665914e-01 2.031467e-01
<GCONST> 1.189617e+02
<STATE> 4
<MEAN> 39
 -3.804262e+00 -6.046626e+00 -3.928652e+00 -6.144569e+00 -1.165683e+01 4.382183e-01 -8.664310e+00 -8.705524e+00 -3.589460e+00 -2.762069e+00 3.882952e+00 -1.362991e+00 6.825403e+01 -3.474256e-01 -1.761793e+00 1.857135e-01 1.145978e+00 1.422001e-01 -9.988818e-01 -1.644505e+00 -2.268233e-01 1.549692e+00 1.488706e+00 1.483687e-02 -1.097305e+00 1.402504e+00 -3.587221e-01 3.003171e-01 5.048393e-01 3.328424e-01 1.971247e-01 -5.665194e-01 3.355956e-01 6.960016e-01 3.062444e-01 -1.734332e-01 -6.139259e-01 -2.152647e-01 -3.844850e-01
<VARIANCE> 39
 1.177880e+01 2.746725e+01 2.908533e+01 5.653738e+01 3.847213e+01 4.215380e+01 8.199331e+01 4.851338e+01 4.006785e+01 3.811149e+01 3.532379e+01 4.299700e+01 2.569823e+01 1.040980e+00 1.690115e+00 1.767773e+00 2.890838e+00 3.579648e+00 3.762317e+00 3.458286e+00 3.728902e+00 3.107306e+00 2.952222e+00 2.785475e+00 1.968986e+00 1.092546e+00 2.560410e-01 2.786874e-01 2.986804e-01 4.293700e-01 6.866086e-01 6.053996e-01 7.641281e-01 5.830491e-01 5.623235e-01 5.773674e-01 4.896798e-01 4.774187e-01 2.011928e-01
<GCONST> 1.192427e+02
<TRANSP> 5
 0.000000e+00 1.000000e+00 0.000000e+00 0.000000e+00 0.000000e+00
 0.000000e+00 6.896847e-01 3.103153e-01 0.000000e+00 0.000000e+00
 0.000000e+00 0.000000e+00 4.260275e-01 5.739725e-01 0.000000e+00
 0.000000e+00 0.000000e+00 0.000000e+00 3.788441e-01 6.211559e-01
 0.000000e+00 0.000000e+00 0.000000e+00 0.000000e+00 0.000000e+00
<ENDHMM>
~h "Y"
<BEGINHMM>
<NUMSTATES> 5
<STATE> 2
<MEAN> 39
 -1.378535e+01 -4.576776e-01 8.269377e+00 2.022273e+00 -6.688284e+00 -2.695182e+00 -3.390842e+00 -2.730558e+00 -2.682625e+00 -3.861795e+00 -3.964296e-01 -1.451721e+00 6.208139e+01 2.332082e-01 1.821130e-02 1.480304e+00 3.422263e-01 -2.039959e+00 -5.760533e-01 -4.325857e-01 -6.867186e-01 -7.762398e-01 -9.482366e-01 -2.688657e-01 -1.962480e-01 9.985806e-01 1.980202e-01 -1.976842e-01 -1.287424e-02 -3.277086e-02 -4.262408e-01 -1.435682e-01 -1.114413e-01 -4.725064e-02 -7.016730e-03 -7.537978e-02 7.857081e-02 2.923675e-02 2.422619e-01
<VARIANCE> 39
 4.798956e+01 3.520680e+01 3.949993e+01 3.922109e+01 5.958841e+01 5.350869e+01 4.548623e+01 3.520167e+01 3.633417e+01 3.451628e+01 2.644881e+01 1.976144e+01 5.324897e+01 3.725820e+00 2.712029e+00 2.764718e+00 3.077263e+00 6.126803e+00 4.346025e+00 4.288786e+00 3.288488e+00 3.099823e+00 3.293776e+00 2.327723e+00 1.777978e+00 2.858572e+00 4.417817e-01 4.463018e-01 5.211027e-01 4.323182e-01 8.234845e-01 6.921701e-01 5.808575e-01 5.223465e-01 5.042701e-01 4.812406e-01 3.880126e-01 2.890468e-01 3.306668e-01
<GCONST> 1.248658e+02
<STATE> 3
<MEAN> 39
 -1.154540e+01 -2.446895e+00 1.392361e+01 1.188936e+00 -1.972024e+01 -4.667281e+00 -5.627652e+00 -5.647889e+00 -6.619113e+00 -7.788431e+00 1.316399e+00 -2.634289e+00 6.846997e+01 2.640819e-01 -7.790855e-01 3.990717e-02 1.712692e-01 -1.364114e+00 -7.392249e-01 -1.433964e-01 2.237539e-01 -1.637937e-02 -2.701416e-01 3.868880e-01 1.755597e-01 8.933378e-01 3.710515e-02 -1.008541e-01 -6.529254e-01 -2.310946e-02 6.852677e-01 -1.389000e-01 -7.957928e-02 3.129003e-01 3.489482e-01 1.836054e-01 -9.133102e-02 4.685182e-02 -1.137679e-01
<VARIANCE> 39
 1.366364e+01 2.904396e+01 2.895747e+01 4.521205e+01 5.015946e+01 3.773494e+01 4.079740e+01 3.422468e+01 3.956648e+01 2.858703e+01 3.486393e+01 2.482026e+01 2.505127e+01 1.220695e+00 1.902468e+00 2.798420e+00 1.689106e+00 3.937037e+00 3.148203e+00 2.516212e+00 2.331027e+00 2.082941e+00 1.891016e+00 1.600853e+00 1.226864e+00 1.644200e+00 1.851285e-01 2.584416e-01 2.655462e-01 2.855876e-01 6.331099e-01 4.973458e-01 4.846515e-01 3.987126e-01 3.947041e-01 3.793902e-01 3.476175e-01 2.283933e-01 1.467867e-01
<GCONST> 1.110962e+02
<STATE> 4
<MEAN> 39
 -8.938385e+00 -6.805942e+00 8.239731e+00 4.636754e+00 -1.729090e+01 -1.003423e+01 -7.798568e+00 -3.049397e+00 -1.714831e+00 -8.102712e+00 -5.953397e-01 -4.406020e-01 7.029925e+01 4.627034e-01 -4.495898e-01 -1.395528e+00 -1.615555e-01 8.905452e-01 -3.071604e-01 -8.146974e-01 3.479818e-01 9.850960e-01 4.116337e-01 -4.190878e-01 -7.850656e-02 1.882004e-01 -1.330107e-02 1.759139e-01 -1.006570e-01 -1.787727e-01 3.503370e-01 3.432128e-01 5.273337e-02 -1.557365e-01 -6.268158e-04 1.909145e-01 -6.137471e-02 -1.756853e-01 -1.703398e-01
<VARIANCE> 39
 1.249493e+01 2.493331e+01 3.245275e+01 5.529673e+01 5.286500e+01 3.591740e+01 5.718862e+01 4.638933e+01 4.587805e+01 3.555532e+01 3.879348e+01 2.610906e+01 3.288329e+01 4.533339e-01 1.080752e+00 1.701745e+00 1.140350e+00 1.932172e+00 1.857067e+00 2.242996e+00 2.391191e+00 1.926591e+00 1.759050e+00 1.541309e+00 1.166924e+00 5.890690e-01 8.702505e-02 1.302450e-01 1.857581e-01 2.177399e-01 3.698774e-01 3.501978e-01 3.689167e-01 3.506257e-01 3.259735e-01 3.006557e-01 2.946509e-01 1.982434e-01 7.035640e-02
<GCONST> 1.027454e+02
<TRANSP> 5
 0.000000e+00 1.000000e+00 0.000000e+00 0.000000e+00 0.000000e+00
 0.000000e+00 6.602737e-01 3.397264e-01 0.000000e+00 0.000000e+00
 0.000000e+00 0.000000e+00 7.161154e-01 2.838847e-01 0.000000e+00
 0.000000e+00 0.000000e+00 0.000000e+00 7.240009e-01 2.759991e-01
 0.000000e+00 0.000000e+00 0.000000e+00 0.000000e+00 0.000000e+00
<ENDHMM>
~h "Z"
<BEGINHMM>
<NUMSTATES> 5
<STATE> 2
<MEAN> 39
 -1.404250e+01 1.861899e+00 4.341739e+00 -1.641563e+00 -3.073823e+00 -7.651255e+00 -8.950970e+00 -5.712203e+00 -3.151225e+00 -1.893522e+00 -1.890565e+00 -3.363839e+00 6.748035e+01 -4.011066e+00 2.112158e+00 3.018014e-01 -5.828311e-01 2.717074e+00 7.577788e-01 1.572612e+00 8.831081e-01 2.044275e-01 2.311430e-01 -2.264362e-01 3.746993e-01 -2.016235e-02 -4.529868e-01 -3.526523e-01 -3.290737e-01 -5.471076e-02 -2.253833e-01 4.572539e-01 3.157483e-01 3.491876e-01 2.984227e-01 2.519634e-02 2.022987e-01 1.470645e-01 1.229738e-01
<VARIANCE> 39
 3.650697e+01 3.405030e+01 2.947322e+01 3.448051e+01 4.168830e+01 4.345637e+01 3.368999e+01 3.078584e+01 2.477287e+01 2.338310e+01 2.312927e+01 1.720877e+01 2.477631e+01 2.974895e+00 3.131116e+00 3.096592e+00 4.098331e+00 3.933124e+00 4.172714e+00 4.842110e+00 3.814456e+00 2.966700e+00 2.460969e+00 2.223282e+00 2.063170e+00 9.504970e-01 6.181831e-01 5.278436e-01 3.862201e-01 4.235094e-01 6.826750e-01 5.267739e-01 5.459909e-01 4.525092e-01 3.769249e-01 3.353551e-01 3.288098e-01 2.571329e-01 1.303538e-01
<GCONST> 1.177504e+02
<STATE> 3
<MEAN> 39
 -2.758731e+01 5.302988e+00 2.099521e+00 -2.997316e+00 2.623175e+00 -2.580678e+00 -2.546721e+00 -5.463151e-01 -7.893112e-01 -8.372041e-01 -1.150031e+00 -1.497459e+00 6.817559e+01 -1.902734e+00 -3.663431e-01 -8.104181e-01 -3.256563e-01 2.700198e-01 8.507591e-01 9.613161e-01 9.725203e-01 6.584512e-01 4.010555e-01 3.793038e-01 4.082685e-01 1.799510e-01 1.381475e+00 -6.146760e-01 3.883285e-02 7.072165e-02 -7.463336e-01 -3.809977e-01 -5.561773e-01 -4.346106e-01 -1.202564e-01 -3.584769e-02 5.257513e-02 -1.224663e-01 -9.283657e-02
<VARIANCE> 39
 2.183012e+01 2.562846e+01 3.790350e+01 2.757422e+01 2.371523e+01 3.256280e+01 2.865835e+01 2.569884e+01 1.864552e+01 1.446839e+01 1.384927e+01 1.017931e+01 1.756515e+01 4.852526e+00 2.202070e+00 2.055933e+00 2.065041e+00 2.312810e+00 2.833952e+00 2.898866e+00 2.285198e+00 1.719479e+00 1.491452e+00 1.271968e+00 1.102748e+00 7.385734e-01 4.526744e-01 4.661861e-01 4.975042e-01 5.284731e-01 4.947623e-01 5.887109e-01 6.016465e-01 4.950754e-01 3.883440e-01 3.318681e-01 2.973609e-01 2.534577e-01 1.915362e-01
<GCONST> 1.085590e+02
<STATE> 4
<MEAN> 39
 -2.702328e+01 1.133908e+00 1.375503e+00 -4.013114e+00 8.532426e-01 -1.505888e+00 -2.147952e+00 -3.685653e-04 8.767692e-01 2.795902e-01 2.320476e-01 -5.775934e-01 6.703864e+01 1.488387e+00 -7.078307e-01 5.326081e-02 1.827354e-01 -4.349055e-01 -1.135060e-01 -1.753950e-01 -3.088114e-01 1.290120e-02 5.765179e-02 1.299386e-01 2.217085e-02 -8.600777e-01 5.860668e-01 1.142314e-02 4.207153e-02 1.347512e-01 -7.895683e-02 -7.562546e-02 -7.069451e-02 -9.860341e-02 -8.814077e-02 -5.995574e-02 -1.801746e-02 -4.269341e-02 -2.848432e-01
<VARIANCE> 39
 2.839661e+01 3.042118e+01 3.440838e+01 2.672723e+01 2.491986e+01 3.046631e+01 2.837687e+01 2.533381e+01 1.859192e+01 1.421346e+01 1.217887e+01 9.809096e+00 2.338267e+01 3.989167e+00 2.004913e+00 1.780139e+00 1.964847e+00 2.280493e+00 2.457045e+00 2.467438e+00 1.991344e+00 1.594369e+00 1.319341e+00 1.121182e+00 9.601977e-01 2.704852e+00 4.381168e-01 3.850557e-01 3.337463e-01 3.414258e-01 3.986520e-01 4.128067e-01 4.387282e-01 3.760587e-01 3.274902e-01 2.688468e-01 2.250607e-01 1.905464e-01 3.373578e-01
<GCONST> 1.062198e+02
<TRANSP> 5
 0.000000e+00 1.000000e+00 0.000000e+00 0.000000e+00 0.000000e+00
 0.000000e+00 6.378067e-01 3.621933e-01 0.000000e+00 0.000000e+00
 0.000000e+00 0.000000e+00 6.575362e-01 3.424638e-01 0.000000e+00
 0.000000e+00 0.000000e+00 0.000000e+00 7.386892e-01 2.613108e-01
 0.000000e+00 0.000000e+00 0.000000e+00 0.000000e+00 0.000000e+00
<ENDHMM>
~h "CH"
<BEGINHMM>
<NUMSTATES> 5
<STATE> 2
<MEAN> 39
 -1.498384e+01 -2.290563e+00 5.356546e+00 1.271931e+00 -1.407969e+00 -8.976888e-01 -5.101459e-01 -1.908599e+00 8.006142e-01 -5.544451e-01 4.693502e-01 -6.508339e-01 5.563484e+01 -1.945355e+00 -9.263528e-01 6.800701e-02 -6.756757e-01 5.374030e-01 1.059669e+00 1.369342e+00 3.998616e-01 5.710872e-01 6.342827e-01 3.586683e-01 5.341018e-01 -7.137589e-02 -2.829392e-01 -5.852145e-01 5.375133e-02 -3.920349e-01 -7.147798e-01 -2.938683e-01 -1.694045e-01 -2.354741e-01 -4.699110e-02 -7.089250e-02 -1.654539e-02 -5.524279e-02 1.276280e+00
<VARIANCE> 39
 2.658538e+01 2.841866e+01 3.075741e+01 2.345442e+01 2.526358e+01 2.682687e+01 2.632707e+01 2.285262e+01 2.038671e+01 2.068716e+01 1.745042e+01 1.349027e+01 4.418522e+01 3.880384e+00 5.395004e+00 3.524505e+00 3.181658e+00 5.538075e+00 3.669137e+00 3.303787e+00 3.154006e+00 2.667764e+00 2.338088e+00 1.947260e+00 1.632437e+00 9.566995e+00 5.798265e-01 6.987038e-01 6.595844e-01 4.979363e-01 6.846157e-01 6.374369e-01 5.359278e-01 5.171274e-01 4.256978e-01 4.085329e-01 3.861794e-01 2.994891e-01 9.597686e-01
<GCONST> 1.210808e+02
<STATE> 3
<MEAN> 39
 -2.624802e+01 -9.128232e+00 8.553175e+00 -4.582342e+00 -5.343086e+00 -3.328393e-01 2.556996e+00 -3.566298e+00 2.077073e+00 3.993146e-01 3.606701e-01 2.999221e-01 6.857149e+01 -2.572360e+00 -3.974358e-01 1.227239e+00 -5.677693e-01 -5.204145e-01 -5.258127e-01 4.558978e-01 -4.740414e-02 1.399138e-01 1.012746e-02 -2.249531e-01 -3.519180e-02 2.680540e+00 7.621508e-01 5.326485e-01 -1.138941e-01 5.138379e-01 2.164064e-01 -2.778945e-01 -3.252541e-01 1.642628e-01 -1.388368e-01 -1.565191e-01 -5.527992e-02 -1.339654e-01 -6.696745e-01
<VARIANCE> 39
 2.871123e+01 2.397375e+01 2.728236e+01 2.600396e+01 1.774828e+01 2.055277e+01 1.868961e+01 1.430365e+01 1.426556e+01 1.237291e+01 9.622461e+00 7.322415e+00 2.456587e+01 3.049986e+00 2.829545e+00 2.496074e+00 2.559808e+00 1.847021e+00 1.795201e+00 1.556800e+00 1.647462e+00 1.352908e+00 1.234145e+00 1.018395e+00 8.826789e-01 3.614431e+00 7.686042e-01 5.497938e-01 5.792749e-01 3.985683e-01 4.004839e-01 3.919141e-01 3.727624e-01 3.248487e-01 2.900617e-01 2.565379e-01 2.224724e-01 1.872329e-01 6.075984e-01
<GCONST> 1.041699e+02
<STATE> 4
<MEAN> 39
 -2.752498e+01 -9.656639e+00 1.030526e+01 -2.139981e+00 -5.306945e+00 -3.672404e+00 3.111470e+00 -2.134644e+00 1.683883e+00 2.593019e-01 -3.381249e-02 -4.882241e-01 7.014719e+01 1.402482e+00 3.292602e-03 -5.586605e-01 3.387817e-01 -5.429039e-02 -5.346474e-01 -5.465490e-01 6.345227e-02 -7.043096e-02 -1.358967e-01 -5.156710e-02 -1.572756e-01 -6.002433e-01 6.486605e-01 9.506764e-02 -2.522326e-01 6.008546e-03 -6.130926e-02 5.107868e-02 -2.302566e-01 -8.933587e-02 -5.107981e-02 -3.506976e-02 2.885172e-03 -1.322376e-02 -3.636624e-01
<VARIANCE> 39
 1.822592e+01 1.559585e+01 1.980782e+01 2.236371e+01 1.548204e+01 2.488095e+01 2.099192e+01 1.584832e+01 1.582956e+01 1.327364e+01 1.062396e+01 8.547096e+00 2.047804e+01 3.380689e+00 9.654336e-01 1.433411e+00 1.259528e+00 1.424997e+00 1.783563e+00 1.773600e+00 1.331048e+00 1.189240e+00 1.036719e+00 8.970573e-01 7.897750e-01 1.507142e+00 4.249457e-01 1.946152e-01 2.921517e-01 2.357456e-01 2.773132e-01 2.737252e-01 3.378396e-01 2.662887e-01 2.485290e-01 2.131817e-01 1.818123e-01 1.643124e-01 2.418406e-01
<GCONST> 9.387502e+01
<TRANSP> 5
 0.000000e+00 1.000000e+00 0.000000e+00 0.000000e+00 0.000000e+00
 0.000000e+00 7.585807e-01 2.414193e-01 0.000000e+00 0.000000e+00
 0.000000e+00 0.000000e+00 6.981338e-01 3.018662e-01 0.000000e+00
 0.000000e+00 0.000000e+00 0.000000e+00 8.355618e-01 1.644382e-01
 0.000000e+00 0.000000e+00 0.000000e+00 0.000000e+00 0.000000e+00
<ENDHMM>
~h "DH"
<BEGINHMM>
<NUMSTATES> 5
<STATE> 2
<MEAN> 39
 -9.819482e+00 -8.947590e-02 8.425859e-01 -2.247896e+00 -3.796109e+00 -2.358068e+00 -4.793568e+00 -8.047177e+00 -4.890712e+00 -2.611343e+00 9.235546e-01 -2.343197e+00 6.379095e+01 -2.149365e+00 1.233690e+00 8.816352e-01 1.524904e+00 2.237008e+00 -8.672012e-02 7.269889e-01 8.298289e-01 1.717923e-01 -2.495203e-02 -8.459649e-01 -4.102091e-02 -1.073237e+00 -2.948931e-01 -3.534895e-01 -1.330050e-01 -2.337687e-02 -1.959629e-01 1.367148e-02 5.787673e-02 3.126203e-01 4.551111e-01 5.741888e-02 -3.812923e-02 -1.028254e-01 2.805795e-01
<VARIANCE> 39
 2.327882e+01 1.537792e+01 1.226480e+01 2.213228e+01 2.204028e+01 2.601514e+01 3.995557e+01 3.049755e+01 2.125167e+01 2.521802e+01 2.094965e+01 2.291832e+01 3.332797e+01 2.592759e+00 2.473054e+00 1.607092e+00 3.352657e+00 3.141678e+00 2.570187e+00 3.854802e+00 3.026470e+00 2.452992e+00 2.721065e+00 2.193266e+00 2.005291e+00 2.299072e+00 3.130760e-01 3.170583e-01 2.326056e-01 3.861754e-01 4.002071e-01 3.894720e-01 4.220267e-01 4.541365e-01 3.582000e-01 3.124072e-01 3.028124e-01 2.602348e-01 3.772933e-01
<GCONST> 1.109464e+02
<STATE> 3
<MEAN> 39
 -1.649604e+01 1.998860e+00 3.232789e+00 2.341561e+00 1.459646e+00 -1.820701e+00 -2.461123e+00 -4.375795e+00 -2.285244e+00 -2.738766e+00 -1.606378e+00 -3.347448e+00 6.140955e+01 -1.405427e+00 -1.791121e-01 -1.826449e-01 3.164771e-01 4.442277e-01 4.192052e-02 5.696831e-01 9.044822e-01 7.728624e-01 2.980928e-01 -1.936625e-01 7.865053e-02 -2.001947e-01 4.228680e-01 -4.544102e-01 -3.959455e-01 -5.519318e-01 -6.734709e-01 -1.843280e-01 -2.157414e-01 -1.906019e-01 2.081045e-02 1.382893e-01 2.527718e-01 1.056268e-01 5.015793e-01
<VARIANCE> 39
 2.460879e+01 1.589128e+01 1.143319e+01 1.306529e+01 1.485959e+01 1.991620e+01 2.071186e+01 1.880072e+01 1.439970e+01 1.413889e+01 1.397523e+01 1.251662e+01 3.908578e+01 2.812016e+00 1.958151e+00 1.521830e+00 2.070669e+00 1.959132e+00 1.896585e+00 2.306733e+00 2.265719e+00 1.731724e+00 1.620408e+00 1.518333e+00 1.347529e+00 2.916432e+00 3.842571e-01 4.688232e-01 2.931035e-01 3.915555e-01 3.951670e-01 4.551176e-01 4.665778e-01 3.968758e-01 3.275514e-01 3.293742e-01 2.881216e-01 2.339995e-01 7.627193e-01
<GCONST> 1.046163e+02
<STATE> 4
<MEAN> 39
 -2.084826e+01 -1.620123e+00 -8.033603e-01 -4.222633e-01 -2.144057e-01 -1.940882e+00 4.865329e-02 -6.888080e-01 1.249341e+00 -7.014684e-03 3.442543e-01 -7.412986e-01 6.173869e+01 3.700013e-01 -5.927114e-01 -5.156335e-01 -7.312521e-01 -9.765611e-01 -9.490208e-01 -6.453357e-01 -4.227009e-01 7.030057e-02 1.751155e-01 -2.905482e-02 -2.968660e-02 1.352950e+00 7.703624e-01 -1.404892e-02 1.894692e-01 -7.121333e-02 -4.049343e-01 -2.947888e-01 -5.684161e-01 -4.897509e-01 -2.573737e-01 -1.288381e-01 -7.173507e-02 -2.471985e-01 3.516311e-01
<VARIANCE> 39
 2.527517e+01 1.983408e+01 1.393279e+01 1.529140e+01 1.672892e+01 1.831594e+01 1.817384e+01 1.683169e+01 1.435536e+01 1.224541e+01 1.180554e+01 1.033304e+01 4.641385e+01 3.299711e+00 2.661270e+00 1.808233e+00 2.007220e+00 2.331176e+00 2.642512e+00 2.802020e+00 2.526268e+00 1.800836e+00 1.574771e+00 1.471040e+00 1.472958e+00 6.195347e+00 5.128409e-01 5.636709e-01 3.756983e-01 4.559425e-01 4.865794e-01 5.164609e-01 5.934086e-01 4.829606e-01 3.746892e-01 3.518254e-01 3.434462e-01 3.189513e-01 9.435449e-01
<GCONST> 1.094592e+02
<TRANSP> 5
 0.000000e+00 1.000000e+00 0.000000e+00 0.000000e+00 0.000000e+00
 0.000000e+00 5.321169e-01 4.678831e-01 0.000000e+00 0.000000e+00
 0.000000e+00 0.000000e+00 6.532382e-01 3.467617e-01 0.000000e+00
 0.000000e+00 0.000000e+00 0.000000e+00 6.991761e-01 3.008238e-01
 0.000000e+00 0.000000e+00 0.000000e+00 0.000000e+00 0.000000e+00
<ENDHMM>
~h "HH"
<BEGINHMM>
<NUMSTATES> 5
<STATE> 2
<MEAN> 39
 -1.403836e+01 -7.597077e+00 1.416716e+00 -1.668980e+00 -5.088946e+00 -2.569921e+00 -1.845937e+00 -1.015930e-01 1.404453e+00 -9.621260e-01 -1.023014e+00 -1.791066e+00 6.507300e+01 -2.366307e-01 -4.160610e-01 7.599954e-02 2.317061e-02 2.984158e-01 4.053323e-01 4.873270e-01 2.476991e-01 3.147556e-03 -4.823858e-02 -7.897724e-02 -5.479399e-02 -9.055015e-03 4.841053e-02 5.426841e-02 -4.479977e-02 -1.249842e-03 -1.760397e-02 1.948597e-02 -7.954367e-02 -9.074593e-02 -4.358280e-02 -4.848538e-03 3.930119e-02 1.874593e-02 -2.965354e-02
<VARIANCE> 39
 3.612975e+01 2.854084e+01 3.280919e+01 3.195263e+01 3.803456e+01 3.168005e+01 3.901020e+01 3.389947e+01 3.352259e+01 2.970622e+01 2.356524e+01 2.182562e+01 4.011590e+01 1.554101e+00 1.718654e+00 1.763116e+00 1.623269e+00 2.806411e+00 2.321498e+00 2.726081e+00 2.352079e+00 1.957435e+00 1.709986e+00 1.491459e+00 1.262704e+00 1.238531e+00 1.720235e-01 2.643484e-01 2.040085e-01 2.522411e-01 3.239257e-01 2.886761e-01 3.265235e-01 3.135462e-01 3.242251e-01 2.900276e-01 2.578220e-01 2.145955e-01 1.299584e-01
<GCONST> 1.065061e+02
<STATE> 3
<MEAN> 39
 -1.349994e+01 -8.028197e+00 1.804052e+00 -2.154375e+00 -4.913955e+00 -5.316591e-01 3.635484e-02 -2.911663e-02 -1.315753e-01 -2.757388e+00 -1.834828e+00 -3.388720e+00 6.747570e+01 -4.958702e-01 -7.138616e-01 -8.104719e-02 -1.205640e-01 5.054711e-01 6.915833e-01 6.540496e-01 2.714389e-01 1.319793e-01 5.257532e-02 8.092528e-02 1.540314e-01 -1.365428e-02 2.648826e-01 2.202399e-01 -1.312939e-01 -5.874903e-02 -2.952325e-01 -3.055888e-01 -4.270556e-01 -2.957945e-01 -6.913465e-02 -9.262138e-03 6.147154e-02 3.213233e-02 5.124488e-02
<VARIANCE> 39
 3.287653e+01 3.420688e+01 4.238290e+01 4.169669e+01 5.707594e+01 4.382739e+01 5.716934e+01 4.332620e+01 3.868677e+01 3.739979e+01 3.162588e+01 2.422018e+01 3.392376e+01 2.531392e+00 2.130205e+00 2.100358e+00 2.216840e+00 3.415189e+00 2.695576e+00 3.158652e+00 2.704546e+00 2.532212e+00 2.305267e+00 1.988169e+00 1.777939e+00 9.676931e-01 2.861984e-01 3.957545e-01 3.492374e-01 3.983066e-01 6.061372e-01 4.789698e-01 5.182939e-01 5.126763e-01 4.975278e-01 4.623236e-01 3.768169e-01 2.958900e-01 1.553009e-01
<GCONST> 1.176052e+02
<STATE> 4
<MEAN> 39
 -1.470333e+01 -1.065996e+01 -2.495039e-01 -4.253312e+00 -3.427963e+00 9.653980e-01 2.094608e+00 9.634261e-02 4.706872e-01 -2.005091e+00 -1.295767e+00 -2.713271e+00 6.749569e+01 8.183734e-01 5.256510e-01 -1.446694e-01 8.987528e-02 -4.739713e-01 -4.409105e-01 -6.146581e-01 -5.566760e-01 -4.232115e-01 -3.615699e-01 -1.386379e-01 -1.487186e-01 5.924022e-02 4.444770e-01 2.943193e-01 -3.434291e-02 1.067089e-02 -3.442785e-01 -2.781453e-01 -3.367410e-01 -2.300687e-01 -1.410490e-01 -1.406343e-01 -6.623830e-02 -9.544628e-02 1.206148e-01
<VARIANCE> 39
 2.919512e+01 4.718801e+01 4.216094e+01 4.200549e+01 4.818184e+01 4.158671e+01 5.453194e+01 3.847433e+01 3.331361e+01 3.068306e+01 2.610875e+01 2.111015e+01 2.713313e+01 2.022544e+00 1.708699e+00 1.446136e+00 1.564884e+00 2.081344e+00 1.901959e+00 2.205741e+00 2.018959e+00 2.023080e+00 1.809052e+00 1.535410e+00 1.385526e+00 4.932502e-01 1.968009e-01 2.968576e-01 2.546442e-01 3.037718e-01 3.993535e-01 3.457674e-01 3.807479e-01 3.689197e-01 3.628499e-01 3.474739e-01 2.916585e-01 2.586914e-01 9.907174e-02
<GCONST> 1.081414e+02
<TRANSP> 5
 0.000000e+00 1.000000e+00 0.000000e+00 0.000000e+00 0.000000e+00
 0.000000e+00 5.745289e-01 4.254712e-01 0.000000e+00 0.000000e+00
 0.000000e+00 0.000000e+00 3.767454e-01 6.232547e-01 0.000000e+00
 0.000000e+00 0.000000e+00 0.000000e+00 6.565486e-01 3.434514e-01
 0.000000e+00 0.000000e+00 0.000000e+00 0.000000e+00 0.000000e+00
<ENDHMM>
~h "JH"
<BEGINHMM>
<NUMSTATES> 5
<STATE> 2
<MEAN> 39
 -1.219440e+01 -1.425785e+00 7.998952e+00 3.290238e+00 -2.831892e+00 -2.018671e+00 -1.834612e+00 -3.652779e+00 -1.241991e+00 -1.912582e+00 -1.958990e+00 -2.610132e+00 5.807865e+01 -2.337223e+00 -1.001613e+00 3.190256e-01 -6.769357e-01 5.999814e-01 9.245931e-01 1.592224e+00 1.719786e-01 2.486860e-01 5.300041e-01 1.715684e-01 3.599021e-01 4.782536e-01 -5.016723e-01 -6.382080e-01 -6.527308e-02 -4.635228e-01 -5.621055e-01 -3.180737e-01 -1.470549e-01 -2.925310e-02 1.174207e-01 7.078189e-02 1.098898e-01 1.096494e-01 1.081261e+00
<VARIANCE> 39
 3.097314e+01 4.630244e+01 2.692718e+01 2.916433e+01 3.428722e+01 3.227235e+01 3.125108e+01 2.443270e+01 2.150059e+01 2.182395e+01 1.691924e+01 1.398074e+01 4.547346e+01 4.292853e+00 8.289755e+00 3.262682e+00 4.065933e+00 5.743042e+00 3.607156e+00 3.133011e+00 3.074035e+00 2.715889e+00 2.274845e+00 1.875368e+00 1.564050e+00 9.632500e+00 5.742289e-01 1.167507e+00 6.061164e-01 5.860857e-01 7.196787e-01 6.228589e-01 5.560057e-01 5.082266e-01 4.214749e-01 3.637070e-01 3.297471e-01 2.682457e-01 9.402933e-01
<GCONST> 1.234450e+02
<STATE> 3
<MEAN> 39
 -2.678409e+01 -9.128300e+00 1.080145e+01 -2.484757e+00 -5.398612e+00 -2.313698e+00 3.217100e+00 -3.290286e+00 9.232724e-01 4.981695e-01 -6.028056e-01 -5.485734e-01 6.924933e+01 -6.793766e-01 -2.123757e-01 4.486209e-01 -1.528591e-01 -4.252900e-01 -1.062312e+00 -3.189720e-01 6.549722e-03 9.962858e-02 -2.738275e-02 -9.554397e-02 3.747159e-02 1.174182e+00 1.369770e+00 4.251678e-01 -3.324730e-01 3.770293e-01 -1.376993e-02 -3.344306e-01 -6.480642e-01 -7.578301e-02 -1.124614e-01 -1.909607e-01 -1.000695e-01 -1.414879e-01 -6.352813e-01
<VARIANCE> 39
 2.140641e+01 2.043903e+01 2.503504e+01 3.034145e+01 1.718784e+01 2.582991e+01 2.025212e+01 1.870750e+01 1.694699e+01 1.347382e+01 1.108906e+01 8.584513e+00 1.942150e+01 7.660594e+00 2.027619e+00 2.329076e+00 2.378318e+00 1.706764e+00 2.569683e+00 2.582097e+00 1.571042e+00 1.332036e+00 1.241220e+00 1.007762e+00 8.724523e-01 4.013343e+00 1.067778e+00 5.323430e-01 5.625669e-01 4.931627e-01 4.191515e-01 4.812170e-01 5.625725e-01 3.983100e-01 3.144332e-01 2.807209e-01 2.355743e-01 2.051185e-01 3.844643e-01
<GCONST> 1.071175e+02
<STATE> 4
<MEAN> 39
 -1.599510e+01 -7.637031e+00 9.134308e+00 3.009614e-02 -7.698933e+00 -1.050229e+01 -4.763908e+00 -5.151853e+00 -6.542669e-01 -1.488647e+00 -2.450375e+00 -1.444422e+00 7.027712e+01 4.774269e+00 -4.181998e-01 -2.182759e+00 3.072217e-01 -1.270622e+00 -1.409062e+00 -2.892688e+00 -4.543597e-01 3.160338e-01 -1.657474e-01 -1.278666e-01 -2.488803e-01 -1.888413e-01 6.981347e-02 -3.040094e-01 -6.097916e-01 -2.410434e-01 2.580458e-02 8.522537e-01 2.103041e-01 1.937510e-01 2.725627e-01 1.799772e-01 1.810786e-01 -2.628790e-02 -1.162980e-01
<VARIANCE> 39
 5.279333e+01 1.785872e+01 2.487580e+01 2.831326e+01 3.533947e+01 3.373096e+01 3.603255e+01 2.482467e+01 1.816636e+01 2.107459e+01 1.305938e+01 1.047408e+01 2.612875e+01 3.606222e+00 2.551546e+00 2.844974e+00 2.260892e+00 3.631105e+00 4.382835e+00 4.063635e+00 3.831047e+00 2.499363e+00 2.274252e+00 1.810001e+00 1.774578e+00 1.341487e+00 1.316223e+00 3.143905e-01 4.271758e-01 3.451635e-01 5.243502e-01 5.375215e-01 7.820517e-01 4.927630e-01 3.522615e-01 2.977997e-01 2.650241e-01 2.314377e-01 2.253149e-01
<GCONST> 1.143306e+02
<TRANSP> 5
 0.000000e+00 1.000000e+00 0.000000e+00 0.000000e+00 0.000000e+00
 0.000000e+00 7.442865e-01 2.557134e-01 0.000000e+00 0.000000e+00
 0.000000e+00 0.000000e+00 7.827583e-01 2.172417e-01 0.000000e+00
 0.000000e+00 0.000000e+00 0.000000e+00 5.536305e-01 4.463695e-01
 0.000000e+00 0.000000e+00 0.000000e+00 0.000000e+00 0.000000e+00
<ENDHMM>
~h "NG"
<BEGINHMM>
<NUMSTATES> 5
<STATE> 2
<MEAN> 39
 -9.193893e+00 -5.378407e+00 6.399626e+00 -1.113426e+00 -1.870181e+01 -6.274246e+00 -1.077519e+00 -9.492244e-01 -4.038952e+00 -7.932271e+00 2.329029e+00 -1.579510e+00 6.884876e+01 2.870118e-01 1.246666e+00 -2.827449e-01 2.100697e-02 1.096141e+00 2.356025e-01 1.798167e-01 -1.857653e-01 -1.090987e+00 -1.919522e-01 6.439992e-01 -2.018456e-01 -1.032826e+00 1.612560e-01 9.125341e-02 -4.044455e-01 1.279251e-02 7.303408e-01 -1.103324e-01 -3.442791e-01 -9.014941e-02 1.425638e-01 2.253256e-01 -1.859668e-01 -1.515785e-01 -1.623311e-01
<VARIANCE> 39
 1.036071e+01 2.539412e+01 2.891712e+01 3.465932e+01 6.171875e+01 4.759681e+01 5.122144e+01 4.738120e+01 5.337962e+01 3.761351e+01 3.714683e+01 4.123448e+01 2.417267e+01 5.604441e-01 1.322459e+00 2.097693e+00 1.715573e+00 4.364196e+00 2.430336e+00 2.907598e+00 2.211728e+00 2.454667e+00 2.118886e+00 1.914930e+00 1.499581e+00 6.774242e-01 9.091399e-02 1.630111e-01 2.532383e-01 2.302418e-01 6.027318e-01 3.850379e-01 5.042226e-01 3.944539e-01 4.142909e-01 3.705511e-01 3.385192e-01 2.779733e-01 7.651246e-02
<GCONST> 1.086444e+02
<STATE> 3
<MEAN> 39
 -6.011043e+00 -5.908811e-01 8.036433e-01 -1.205590e+00 -8.762364e+00 -7.628741e+00 -4.297407e+00 -2.044888e+00 -6.691251e+00 -6.985192e+00 2.741729e+00 -3.935544e+00 6.476464e+01 4.230469e-01 8.883733e-01 -5.899429e-01 2.123854e-01 1.690995e+00 -3.859679e-01 -1.764554e-01 -1.376722e-01 -3.212880e-01 2.403912e-01 -1.502145e-01 -3.345487e-01 -9.265684e-01 -2.722008e-01 -3.120861e-01 3.393616e-01 2.599371e-02 -4.005462e-01 1.299199e-01 1.210345e-01 1.742941e-02 3.065028e-01 3.902324e-02 -1.885349e-01 1.318693e-01 1.880817e-01
<VARIANCE> 39
 8.777799e+00 2.242111e+01 2.315456e+01 2.997185e+01 4.345295e+01 4.107162e+01 5.624784e+01 5.156390e+01 4.952161e+01 4.246877e+01 3.867866e+01 4.505654e+01 1.860850e+01 7.145407e-01 1.410211e+00 2.248665e+00 1.827145e+00 4.354014e+00 2.391061e+00 3.326710e+00 2.743627e+00 2.753048e+00 2.432998e+00 2.114298e+00 1.836619e+00 6.711150e-01 1.308162e-01 2.310628e-01 2.922645e-01 3.142925e-01 6.732734e-01 4.827269e-01 5.916424e-01 4.721860e-01 5.053813e-01 4.545616e-01 3.912631e-01 3.237364e-01 1.078886e-01
<GCONST> 1.117845e+02
<STATE> 4
<MEAN> 39
 -7.443226e+00 2.280242e-01 2.195029e+00 7.047581e-01 -5.426738e+00 -6.472848e+00 -2.465050e+00 -1.874749e+00 -4.533447e+00 -6.185738e+00 6.061478e-01 -2.956769e+00 6.152488e+01 -6.102915e-01 -1.423819e-01 2.481553e-01 6.222159e-02 5.903838e-01 4.669297e-01 7.063993e-02 1.537806e-01 5.695531e-01 2.318934e-01 -2.964880e-01 1.273439e-01 -4.418897e-01 -2.124665e-01 -2.934391e-01 -5.126280e-02 -1.119023e-01 -9.981147e-02 1.725485e-01 -4.281209e-02 4.659579e-02 2.552310e-01 1.447731e-01 8.544896e-03 7.910769e-02 1.227845e-01
<VARIANCE> 39
 1.512555e+01 2.592300e+01 2.209912e+01 2.799531e+01 4.486588e+01 3.821992e+01 4.901984e+01 4.482271e+01 4.400871e+01 3.785791e+01 3.160557e+01 3.423824e+01 2.566671e+01 1.023930e+00 1.712634e+00 1.558179e+00 1.576919e+00 2.798435e+00 2.184734e+00 2.642081e+00 2.386089e+00 2.454093e+00 2.215859e+00 1.919334e+00 1.605064e+00 1.126392e+00 2.104354e-01 3.843120e-01 2.867280e-01 3.291341e-01 5.236318e-01 4.273857e-01 4.912066e-01 4.578930e-01 4.756334e-01 4.355400e-01 3.601100e-01 2.955189e-01 1.946069e-01
<GCONST> 1.116025e+02
<TRANSP> 5
 0.000000e+00 1.000000e+00 0.000000e+00 0.000000e+00 0.000000e+00
 0.000000e+00 6.572042e-01 3.427958e-01 0.000000e+00 0.000000e+00
 0.000000e+00 0.000000e+00 6.475804e-01 3.524197e-01 0.000000e+00
 0.000000e+00 0.000000e+00 0.000000e+00 6.858823e-01 3.141177e-01
 0.000000e+00 0.000000e+00 0.000000e+00 0.000000e+00 0.000000e+00
<ENDHMM>
~h "SH"
<BEGINHMM>
<NUMSTATES> 5
<STATE> 2
<MEAN> 39
 -1.879927e+01 -7.665913e+00 8.338579e+00 -1.303403e-01 -5.849373e+00 -4.252416e+00 -8.602742e-01 -2.082390e+00 1.392344e+00 -1.629779e+00 -1.899716e+00 -1.803147e+00 6.903741e+01 -3.965979e+00 -4.810694e-01 1.165856e+00 -5.276206e-01 9.750694e-01 7.173170e-01 1.702506e+00 2.426384e-01 4.425232e-01 5.398819e-01 2.404407e-01 5.544739e-01 8.013738e-01 8.840776e-02 -7.852879e-02 -2.959348e-01 -1.701063e-01 -2.719158e-01 -3.101371e-02 -1.879972e-01 -7.853140e-02 -6.484867e-02 3.262388e-02 1.394506e-01 1.268675e-02 1.472452e-01
<VARIANCE> 39
 6.169255e+01 2.202002e+01 3.358853e+01 2.911416e+01 3.173180e+01 3.073896e+01 3.240311e+01 2.463548e+01 2.438396e+01 2.610647e+01 1.769552e+01 1.603444e+01 2.519671e+01 2.709061e+00 2.380184e+00 3.465132e+00 2.419124e+00 3.844550e+00 3.223380e+00 3.522370e+00 3.177903e+00 2.878318e+00 2.339585e+00 2.077218e+00 1.746040e+00 1.400329e+00 1.022099e+00 4.132652e-01 3.971752e-01 3.865083e-01 5.503066e-01 4.781587e-01 5.581579e-01 4.576627e-01 4.265506e-01 3.619424e-01 3.262973e-01 2.640858e-01 2.214447e-01
<GCONST> 1.158646e+02
<STATE> 3
<MEAN> 39
 -2.933006e+01 -8.961157e+00 1.115162e+01 -2.368098e+00 -4.989140e+00 -2.776351e+00 3.059877e+00 -2.223785e+00 1.625801e+00 1.086433e-01 -4.901720e-01 -1.886345e-01 7.173439e+01 -1.602276e-01 -9.684925e-02 3.260049e-02 -9.096635e-03 -1.983676e-02 -8.577640e-02 8.689266e-02 2.534343e-02 -3.497167e-02 5.421472e-02 7.039016e-02 3.569248e-02 -2.063676e-02 5.930172e-01 5.539644e-02 -1.259797e-01 1.072770e-01 -5.227892e-02 -1.431365e-01 -2.087950e-01 -3.027640e-02 -2.994125e-02 -8.750277e-02 -5.453118e-02 -8.374485e-02 -2.247698e-01
<VARIANCE> 39
 1.003179e+01 1.897948e+01 2.033655e+01 2.153889e+01 1.490156e+01 2.450957e+01 1.854040e+01 1.505696e+01 1.473135e+01 1.258735e+01 9.540643e+00 8.020532e+00 1.471751e+01 9.878338e-01 5.337922e-01 7.553632e-01 6.813229e-01 6.346482e-01 8.385479e-01 8.518852e-01 8.272646e-01 8.195965e-01 7.321262e-01 6.647846e-01 5.695696e-01 4.078505e-01 2.788698e-01 1.262059e-01 1.658626e-01 1.365116e-01 1.562765e-01 1.921836e-01 2.080500e-01 1.882565e-01 1.909607e-01 1.604158e-01 1.461212e-01 1.266868e-01 6.199632e-02
<GCONST> 7.799062e+01
<STATE> 4
<MEAN> 39
 -2.492080e+01 -9.307446e+00 9.542666e+00 -1.075288e+00 -5.036271e+00 -4.465492e+00 1.516376e+00 -2.053046e+00 1.779438e+00 -1.659967e-01 -5.796682e-01 -7.377494e-01 6.920160e+01 3.805680e+00 6.143825e-01 -8.323233e-01 4.035072e-01 -8.426377e-01 -1.088951e+00 -1.719509e+00 -7.287472e-01 -5.798803e-01 -6.015442e-01 -3.293321e-01 -5.195835e-01 -1.122989e+00 8.819653e-01 1.586637e-01 -2.380172e-01 2.339315e-02 -4.576333e-01 -7.772147e-02 -5.038102e-01 -2.164165e-01 -2.003321e-01 -1.784148e-01 -2.605026e-02 -6.716467e-02 3.843869e-02
<VARIANCE> 39
 2.713686e+01 1.752177e+01 2.295301e+01 2.347096e+01 1.925220e+01 2.753979e+01 2.223640e+01 2.026793e+01 1.826338e+01 1.803245e+01 1.355262e+01 1.041715e+01 2.273951e+01 3.849598e+00 1.508269e+00 2.863142e+00 1.932384e+00 2.834538e+00 2.820288e+00 2.958622e+00 2.249769e+00 2.302510e+00 1.850132e+00 1.395217e+00 1.233523e+00 9.434386e-01 5.144348e-01 2.874842e-01 3.613257e-01 3.207031e-01 4.673084e-01 4.455794e-01 4.770129e-01 4.127195e-01 3.814549e-01 3.161992e-01 2.810909e-01 2.383945e-01 2.306344e-01
<GCONST> 1.062180e+02
<TRANSP> 5
 0.000000e+00 1.000000e+00 0.000000e+00 0.000000e+00 0.000000e+00
 0.000000e+00 7.292674e-01 2.707326e-01 0.000000e+00 0.000000e+00
 0.000000e+00 0.000000e+00 8.600025e-01 1.399975e-01 0.000000e+00
 0.000000e+00 0.000000e+00 0.000000e+00 6.288986e-01 3.711014e-01
 0.000000e+00 0.000000e+00 0.000000e+00 0.000000e+00 0.000000e+00
<ENDHMM>
~h "TH"
<BEGINHMM>
<NUMSTATES> 5
<STATE> 2
<MEAN> 39
 -1.419242e+01 5.493478e-01 2.721262e+00 7.805125e-01 -1.526289e+00 -4.455487e+00 -3.561450e+00 -1.585391e+00 -1.221260e+00 -9.460800e-01 -2.150674e+00 -3.004661e+00 6.350344e+01 -2.442120e+00 6.160321e-01 -2.430601e-01 2.191143e-01 1.872823e+00 1.602530e+00 1.801839e+00 1.099697e+00 5.246276e-01 5.621617e-01 3.653143e-01 9.328904e-01 -1.745636e+00 -2.584245e-02 -5.287225e-01 -3.832804e-01 -2.285833e-01 -5.187142e-01 1.230410e-01 -9.075789e-02 3.084902e-02 1.773417e-01 6.045267e-02 2.689688e-01 2.256992e-01 1.847583e-01
<VARIANCE> 39
 3.298870e+01 2.401384e+01 2.530677e+01 2.083519e+01 2.655418e+01 3.295337e+01 3.151319e+01 2.654071e+01 2.346656e+01 2.333970e+01 2.070355e+01 1.790862e+01 3.988970e+01 3.515328e+00 2.621397e+00 2.687411e+00 3.151899e+00 3.338991e+00 3.215400e+00 4.093781e+00 3.426340e+00 2.870134e+00 2.791618e+00 2.502774e+00 2.434224e+00 3.341103e+00 4.618583e-01 4.371588e-01 3.818811e-01 4.030761e-01 4.837011e-01 5.452374e-01 5.321957e-01 4.428152e-01 3.777032e-01 3.826286e-01 3.833050e-01 3.151171e-01 4.847118e-01
<GCONST> 1.174751e+02
<STATE> 3
<MEAN> 39
 -1.950269e+01 4.794126e-01 6.388869e-01 8.486573e-01 4.769861e-01 3.953900e-01 6.106761e-01 1.678769e+00 1.139432e+00 1.335956e+00 8.758411e-01 8.485733e-01 5.827732e+01 -1.000497e+00 -6.664775e-01 -7.913429e-01 -4.012192e-01 -1.676885e-01 3.647687e-01 5.603131e-01 4.707503e-01 3.841891e-01 3.483135e-01 3.508817e-01 5.890777e-01 -7.209443e-04 5.850033e-01 -2.963836e-01 -2.296125e-02 -2.335282e-01 -6.361967e-01 -6.166025e-01 -5.644475e-01 -4.036750e-01 -2.148218e-01 -2.193045e-01 -2.086447e-01 -3.215329e-01 8.695139e-01
<VARIANCE> 39
 3.212741e+01 1.730126e+01 1.429430e+01 1.320942e+01 1.413037e+01 1.510936e+01 1.433874e+01 1.321287e+01 1.328906e+01 1.204236e+01 1.007669e+01 8.991222e+00 4.742498e+01 3.131419e+00 2.095212e+00 1.714928e+00 1.845317e+00 2.002614e+00 2.537704e+00 2.174648e+00 1.946381e+00 1.704669e+00 1.602728e+00 1.569235e+00 1.500763e+00 5.317673e+00 6.108444e-01 3.847119e-01 3.572140e-01 3.953632e-01 4.171494e-01 4.351537e-01 4.405119e-01 3.616893e-01 3.405027e-01 3.361392e-01 2.903584e-01 2.711567e-01 7.531535e-01
<GCONST> 1.049802e+02
<STATE> 4
<MEAN> 39
 -2.167401e+01 -2.926758e+00 -1.818675e+00 -1.603024e+00 -2.062734e+00 -1.830635e+00 -7.523096e-01 5.482734e-01 7.172157e-01 9.602436e-01 -9.604023e-02 1.114691e-01 6.406767e+01 7.157826e-01 -2.898357e-01 -1.301151e-02 -2.458897e-01 -5.090594e-01 -4.103516e-01 -3.886200e-01 -2.734847e-01 -5.982031e-02 -1.092654e-01 -8.606631e-02 -2.156768e-01 3.633535e-01 5.062757e-01 6.429058e-02 1.616900e-01 6.920423e-02 -1.132827e-01 -8.487631e-02 -1.601063e-01 -1.119955e-01 -3.559380e-02 -8.124863e-02 -3.935472e-02 -1.241337e-01 -5.692352e-02
<VARIANCE> 39
 2.832047e+01 1.866033e+01 1.375332e+01 1.378802e+01 1.547700e+01 1.673678e+01 1.448421e+01 1.244216e+01 1.223927e+01 1.081065e+01 1.001739e+01 9.173031e+00 3.514960e+01 3.633716e+00 1.762711e+00 1.624336e+00 1.751321e+00 2.282698e+00 2.482148e+00 2.104986e+00 1.659655e+00 1.414100e+00 1.355250e+00 1.226352e+00 1.260397e+00 4.211786e+00 4.744553e-01 3.409751e-01 3.286091e-01 3.540600e-01 4.376624e-01 4.180352e-01 4.183786e-01 3.155547e-01 2.971427e-01 2.651345e-01 2.475067e-01 2.458440e-01 5.979170e-01
<GCONST> 1.017699e+02
<TRANSP> 5
 0.000000e+00 1.000000e+00 0.000000e+00 0.000000e+00 0.000000e+00
 0.000000e+00 5.097632e-01 4.902367e-01 0.000000e+00 0.000000e+00
 0.000000e+00 0.000000e+00 5.680560e-01 4.319440e-01 0.000000e+00
 0.000000e+00 0.000000e+00 0.000000e+00 7.759785e-01 2.240215e-01
 0.000000e+00 0.000000e+00 0.000000e+00 0.000000e+00 0.000000e+00
<ENDHMM>
~h "ZH"
<BEGINHMM>
<NUMSTATES> 5
<STATE> 2
<MEAN> 39
 -1.425899e+01 -4.062441e+00 1.079879e+01 -1.880523e+00 -8.869546e+00 -9.037148e+00 -8.298438e+00 -7.131051e+00 -1.500527e+00 -2.795026e+00 -3.393828e+00 -1.633502e+00 6.910194e+01 -3.914676e+00 9.034492e-01 2.298781e+00 -6.127789e-01 1.793273e+00 1.343697e+00 2.496466e+00 3.676103e-01 -1.865692e-01 2.321866e-01 4.632628e-02 2.168583e-01 3.048256e-02 -3.870622e-01 -3.102695e-01 -3.009805e-01 -1.885996e-02 -1.841286e-01 3.934227e-01 2.651351e-01 1.945182e-01 2.966250e-01 1.945017e-01 1.791441e-01 -9.764848e-02 1.642466e-01
<VARIANCE> 39
 3.467335e+01 1.912814e+01 2.857886e+01 2.928658e+01 3.234441e+01 2.009097e+01 2.997705e+01 2.204847e+01 1.622934e+01 2.344568e+01 1.166021e+01 1.184657e+01 3.467217e+01 1.742277e+00 1.258672e+00 1.517227e+00 1.747718e+00 2.092999e+00 4.045198e+00 3.140844e+00 3.150471e+00 2.409202e+00 1.347391e+00 1.557828e+00 1.495034e+00 3.340374e-01 5.735111e-01 1.958382e-01 3.410062e-01 3.173233e-01 4.542524e-01 3.340975e-01 3.818602e-01 3.408197e-01 3.639304e-01 1.957063e-01 2.265072e-01 1.698885e-01 5.696694e-02
<GCONST> 1.023057e+02
<STATE> 3
<MEAN> 39
 -2.556330e+01 -4.657912e+00 1.407441e+01 -2.630239e+00 -6.812488e+00 -3.382547e+00 -4.871596e-01 -5.661196e+00 2.338496e-01 -1.175235e+00 -2.646547e+00 -1.325762e+00 7.043539e+01 5.916579e-01 -3.138753e-01 -4.339169e-01 1.129003e-02 -4.071493e-01 -1.544112e-01 1.753332e-02 -6.900901e-02 1.642087e-01 2.297470e-01 -9.278458e-02 -8.133586e-02 -1.398430e-01 1.325293e+00 -6.160503e-02 -5.181730e-01 1.158773e-01 -3.951863e-01 -4.968742e-01 -7.282959e-01 -1.086287e-01 -2.470172e-02 -1.070996e-01 -7.286876e-02 -8.855984e-02 -1.259322e-01
<VARIANCE> 39
 2.848786e+01 2.423634e+01 1.977938e+01 1.675059e+01 1.429953e+01 2.771620e+01 3.687498e+01 1.905659e+01 1.368565e+01 2.079912e+01 1.116701e+01 8.949776e+00 2.143007e+01 8.887388e+00 8.888108e-01 1.522562e+00 9.402640e-01 1.505671e+00 3.587950e+00 4.147340e+00 1.699226e+00 1.018446e+00 9.952620e-01 9.749265e-01 1.011680e+00 3.444779e-01 3.524878e-01 2.426842e-01 2.859526e-01 2.021535e-01 2.601152e-01 6.042683e-01 5.148441e-01 3.681621e-01 2.252723e-01 2.135345e-01 2.253662e-01 2.295141e-01 6.477087e-02
<GCONST> 9.731849e+01
<STATE> 4
<MEAN> 39
 4.582914e+00 -1.374613e+01 5.604023e+00 -3.616409e+00 -8.123043e+00 -4.292852e+00 -2.266357e+00 -1.588949e+00 -4.271964e+00 6.037652e+00 -6.916842e+00 -4.028390e-02 5.917235e+01 4.989151e-01 -5.889251e-02 -2.457085e-01 7.308854e-02 -1.195356e-01 -6.789282e-02 -2.193989e-01 4.395586e-02 3.199659e-02 -9.481641e-03 -6.779797e-02 -5.129506e-02 -5.980150e-02 -5.216162e-02 1.741973e-02 -2.343717e-02 1.554782e-02 2.666704e-02 6.070983e-02 2.184382e-02 3.248950e-02 -1.738112e-03 -3.009025e-02 3.448832e-02 -1.253158e-02 9.129418e-04
<VARIANCE> 39
 8.223521e+01 2.309766e+01 9.719866e+01 3.157582e+01 6.390642e+01 5.814187e+01 2.685303e+01 3.591746e+01 2.352493e+01 2.832558e+01 2.044175e+01 1.711310e+01 3.598440e+01 3.337041e+00 9.956648e-01 2.790460e+00 1.578149e+00 2.812011e+00 2.928111e+00 2.272622e+00 2.085268e+00 1.749909e+00 1.381744e+00 1.376381e+00 1.181017e+00 6.050677e-01 2.306487e-01 1.617162e-01 3.112063e-01 2.381570e-01 3.800756e-01 4.042787e-01 3.299975e-01 3.618190e-01 2.810863e-01 2.407501e-01 2.406584e-01 1.915951e-01 8.594373e-02
<GCONST> 1.073904e+02
<TRANSP> 5
 0.000000e+00 1.000000e+00 0.000000e+00 0.000000e+00 0.000000e+00
 0.000000e+00 6.323981e-01 3.676020e-01 0.000000e+00 0.000000e+00
 0.000000e+00 0.000000e+00 8.135052e-01 1.864948e-01 0.000000e+00
 0.000000e+00 0.000000e+00 0.000000e+00 8.933040e-01 1.066960e-01
 0.000000e+00 0.000000e+00 0.000000e+00 0.000000e+00 0.000000e+00
<ENDHMM>
~h "sp"
<BEGINHMM>
<NUMSTATES> 3
<STATE> 2
~s "silst"
<TRANSP> 3
 0.000000e+00 1.552244e-01 8.447756e-01
 0.000000e+00 9.251570e-01 7.484303e-02
 0.000000e+00 0.000000e+00 0.000000e+00
<ENDHMM>
~h "AA0"
<BEGINHMM>
<NUMSTATES> 5
<STATE> 2
<MEAN> 39
 -6.069452e+00 -4.681665e+00 -5.051126e+00 -4.594171e+00 -5.961647e+00 9.145892e-01 -3.999304e+00 -3.672987e+00 -1.444732e+00 -6.200644e-01 4.048842e-02 -1.244916e-01 6.609203e+01 1.141953e+00 -1.269264e+00 -1.471261e+00 -1.276742e+00 -1.494866e+00 2.114424e-01 -2.168428e-01 -2.556055e-01 4.690028e-01 1.870079e-01 -2.385731e-01 -4.351615e-01 1.740741e+00 -1.235995e-01 -6.627655e-02 1.442773e-01 2.296291e-01 3.599624e-01 1.008696e-01 1.817597e-01 1.147886e-01 1.048446e-01 -1.034060e-01 -7.135008e-02 -1.014555e-02 -2.257437e-01
<VARIANCE> 39
 2.994253e+01 3.780360e+01 3.538439e+01 7.775586e+01 8.215753e+01 4.190074e+01 8.411786e+01 4.491824e+01 4.211775e+01 3.584655e+01 2.338997e+01 2.177769e+01 6.299770e+01 2.957791e+00 3.901256e+00 3.017859e+00 6.429278e+00 4.870701e+00 4.977495e+00 6.364571e+00 3.223341e+00 3.675946e+00 3.052178e+00 2.361882e+00 2.089336e+00 3.135606e+00 5.422997e-01 5.853204e-01 5.858805e-01 9.155224e-01 1.050636e+00 8.372190e-01 9.272797e-01 5.706786e-01 5.378789e-01 5.155331e-01 3.898070e-01 3.350329e-01 6.793187e-01
<GCONST> 1.312429e+02
<STATE> 3
<MEAN> 39
 -3.427969e+00 -1.249860e+01 -9.605954e+00 -8.556865e+00 -8.436265e+00 2.512649e+00 -5.570228e-01 -5.690486e+00 -5.360042e-01 -1.215019e+00 -1.840940e+00 -2.689179e+00 7.436823e+01 -1.156621e-01 -9.921642e-02 -5.634467e-02 -1.355763e-01 3.377235e-01 8.930985e-02 4.924086e-01 -1.393302e-01 1.064611e-01 -9.103533e-02 -3.369546e-01 1.001965e-02 8.299442e-02 -9.157964e-02 3.884901e-01 2.763916e-01 2.419212e-01 1.263764e-01 -1.352084e-01 -2.311564e-01 2.184728e-02 -1.376060e-01 -1.072027e-01 7.542601e-02 1.594566e-01 -3.262270e-01
<VARIANCE> 39
 9.612240e+00 3.905606e+01 1.708776e+01 8.581107e+01 4.835378e+01 4.839750e+01 8.127441e+01 3.313229e+01 5.045842e+01 5.106187e+01 3.459465e+01 2.299056e+01 2.136689e+01 4.642922e-01 1.391936e+00 1.100611e+00 1.466462e+00 2.252041e+00 2.078040e+00 2.406398e+00 1.751540e+00 1.780835e+00 1.663172e+00 1.072538e+00 1.204770e+00 5.617350e-01 1.517995e-01 1.580421e-01 1.902238e-01 3.265536e-01 4.763517e-01 3.880848e-01 3.684202e-01 3.145023e-01 3.361180e-01 3.959457e-01 2.523105e-01 2.447964e-01 1.035826e-01
<GCONST> 1.045156e+02
<STATE> 4
<MEAN> 39
 -3.714166e+00 -6.979226e+00 -7.435910e+00 -7.798292e+00 -6.889302e+00 2.036869e+00 -6.427769e-01 -6.230331e+00 -7.168632e-01 -4.911546e+00 -1.737482e+00 4.655165e-01 7.046342e+01 -2.877805e-01 7.864723e-01 1.005756e+00 8.264076e-01 3.247763e-01 -4.277788e-01 -4.463246e-01 3.334690e-01 -3.440976e-01 -6.231689e-01 1.437133e-01 2.732165e-01 -8.608122e-01 -1.236416e-01 -4.873393e-02 1.399222e-01 1.456119e-01 1.010743e-01 5.343272e-02 -4.240923e-03 -4.437358e-02 -1.415932e-01 8.072492e-02 1.168929e-01 -4.934560e-02 -4.026392e-02
<VARIANCE> 39
 9.534839e+00 3.166891e+01 3.393597e+01 8.458061e+01 4.163306e+01 5.066800e+01 6.612180e+01 3.617263e+01 4.199614e+01 5.550093e+01 3.144287e+01 2.641916e+01 2.467054e+01 5.296213e-01 1.401481e+00 2.502157e+00 4.236460e+00 3.086834e+00 2.528288e+00 2.702481e+00 1.616720e+00 2.922969e+00 3.769718e+00 1.269830e+00 1.370795e+00 1.678341e+00 8.038483e-02 1.608454e-01 3.488519e-01 6.053644e-01 5.473730e-01 3.832704e-01 3.473610e-01 3.071997e-01 4.949024e-01 6.215696e-01 2.072943e-01 2.547537e-01 2.531388e-01
<GCONST> 1.123329e+02
<TRANSP> 5
 0.000000e+00 1.000000e+00 0.000000e+00 0.000000e+00 0.000000e+00
 0.000000e+00 7.017832e-01 2.982168e-01 0.000000e+00 0.000000e+00
 0.000000e+00 0.000000e+00 7.842287e-01 2.157713e-01 0.000000e+00
 0.000000e+00 0.000000e+00 0.000000e+00 7.359381e-01 2.640619e-01
 0.000000e+00 0.000000e+00 0.000000e+00 0.000000e+00 0.000000e+00
<ENDHMM>
~h "AA1"
<BEGINHMM>
<NUMSTATES> 5
<STATE> 2
<MEAN> 39
 -4.342964e+00 -1.031731e+01 -6.712325e+00 -1.006998e+01 -9.649629e+00 -2.706474e-01 -1.092655e+00 -4.284899e+00 -3.750315e-01 -1.728301e+00 -2.605870e-01 -3.185102e+00 7.156199e+01 1.395175e+00 -1.030303e+00 -1.405360e+00 -1.339701e+00 -5.163934e-01 8.165544e-01 8.320279e-01 -7.379127e-02 -4.119605e-02 -1.404180e-02 -9.698541e-02 -4.237761e-02 7.413560e-01 -5.404617e-01 1.006951e-01 2.706612e-01 2.389489e-01 4.650317e-01 1.166086e-01 1.016490e-01 9.285732e-02 1.299984e-02 -1.508638e-02 -2.759089e-02 1.532018e-01 -2.882456e-01
<VARIANCE> 39
 1.519328e+01 3.581371e+01 2.987204e+01 5.231577e+01 5.191589e+01 4.643950e+01 6.863213e+01 4.479696e+01 4.293871e+01 3.993531e+01 3.167229e+01 3.650672e+01 2.543868e+01 2.942286e+00 2.239779e+00 2.354883e+00 3.011663e+00 4.417672e+00 3.749849e+00 4.386792e+00 3.199983e+00 3.270077e+00 2.777554e+00 2.163980e+00 2.029042e+00 1.208832e+00 4.024212e-01 3.909774e-01 3.415333e-01 4.732601e-01 6.081679e-01 5.458458e-01 7.072369e-01 5.378852e-01 5.472907e-01 4.631977e-01 3.694130e-01 3.499025e-01 2.450735e-01
<GCONST> 1.214892e+02
<STATE> 3
<MEAN> 39
 -2.916837e+00 -1.218081e+01 -9.011181e+00 -1.277249e+01 -8.247785e+00 2.262686e+00 1.675181e+00 -4.419734e+00 -6.316609e-01 -2.053838e+00 -1.017305e+00 -2.457925e+00 7.192131e+01 -7.340249e-03 3.136246e-02 -4.177790e-02 1.113137e-01 2.454484e-01 -5.460881e-02 -2.811074e-01 -6.869099e-02 1.723690e-01 8.976556e-02 -8.474362e-02 -3.941692e-02 -9.021730e-02 -5.374909e-02 1.720257e-01 1.284086e-01 1.710203e-01 -4.640109e-02 -1.730602e-01 -2.233195e-01 -5.074576e-03 5.453088e-02 3.718309e-02 3.238049e-02 -3.793240e-02 -9.266613e-02
<VARIANCE> 39
 9.903597e+00 3.158221e+01 2.647751e+01 5.646607e+01 5.575377e+01 5.553850e+01 8.018570e+01 5.231169e+01 4.882282e+01 3.830180e+01 3.011241e+01 3.446323e+01 2.266317e+01 2.064807e-01 6.434687e-01 5.885687e-01 9.119014e-01 1.045796e+00 1.112905e+00 1.662690e+00 1.186919e+00 1.251478e+00 9.593579e-01 8.540706e-01 7.869278e-01 2.120167e-01 4.845279e-02 1.120719e-01 1.078403e-01 1.342368e-01 1.757006e-01 1.800457e-01 2.077631e-01 1.935510e-01 1.869435e-01 1.574660e-01 1.444228e-01 1.314903e-01 4.173958e-02
<GCONST> 8.835296e+01
<STATE> 4
<MEAN> 39
 -3.887812e+00 -1.086471e+01 -7.765888e+00 -1.045312e+01 -7.373326e+00 5.879239e-01 -1.477097e+00 -4.914635e+00 2.620578e-01 -8.193690e-01 -5.962070e-01 -3.415719e+00 7.052617e+01 -4.134202e-01 1.310632e+00 9.917828e-01 1.460316e+00 4.236158e-01 -8.032411e-01 -1.114577e+00 1.461371e-02 1.286371e-01 2.559851e-02 1.862021e-01 -1.055573e-02 -1.277106e+00 -2.213342e-01 3.187581e-01 2.948576e-01 3.458579e-01 2.738833e-01 -1.054785e-02 8.815077e-02 6.741025e-02 -1.601225e-01 -1.362105e-01 1.705368e-02 1.053613e-01 -4.153185e-01
<VARIANCE> 39
