~o
<STREAMINFO> 1 39
<VECSIZE> 39<NULLD><MFCC_D_A_0><DIAGC>
~s "silst"
<MEAN> 39
 -1.197725e+01 3.283308e-01 -8.966440e-01 -1.150240e-01 4.965943e-01 2.645463e+00 3.924310e-01 1.472762e+00 2.695648e+00 1.064110e+00 1.212512e+00 1.173463e+00 4.215487e+01 3.496602e-02 4.781283e-02 2.517015e-02 3.654522e-02 1.366530e-02 -2.188913e-02 3.296539e-02 3.948006e-02 3.915778e-04 3.390868e-02 4.080264e-02 2.173480e-02 -1.331056e-01 2.976345e-02 -2.498366e-03 -2.985188e-02 -6.085898e-02 -3.827919e-02 -5.940018e-02 -3.535252e-02 -4.884307e-02 -4.018303e-02 -3.785941e-02 -2.745583e-02 -1.901491e-02 7.684015e-02
<VARIANCE> 39
 1.791638e+01 1.469864e+01 1.286650e+01 1.900411e+01 1.898993e+01 2.278367e+01 2.300125e+01 2.219761e+01 2.157692e+01 1.911048e+01 1.590728e+01 1.289288e+01 2.889308e+01 1.149684e+00 9.328434e-01 1.021930e+00 1.452756e+00 1.538381e+00 1.813648e+00 1.893124e+00 1.915725e+00 1.863954e+00 1.714300e+00 1.494534e+00 1.267450e+00 1.350976e+00 2.119246e-01 1.767488e-01 2.041914e-01 2.862877e-01 3.091929e-01 3.546016e-01 3.736229e-01 3.786058e-01 3.732099e-01 3.446905e-01 3.011784e-01 2.573189e-01 2.405624e-01
<GCONST> 9.832193e+01
~h "B"
<BEGINHMM>
<NUMSTATES> 5
<STATE> 2
<MEAN> 39
 -1.496603e+00 2.566650e+00 -1.152780e+00 -2.295638e+00 -8.272756e+00 -1.009485e+01 -3.729021e+00 -4.882370e+00 -7.248155e+00 -4.534718e+00 -4.084167e+00 -2.718079e+00 4.758808e+01 7.356561e-01 1.918446e+00 1.874355e+00 1.337501e+00 8.660792e-01 -4.570290e-02 -1.274180e+00 -3.280331e-02 -3.764519e-01 -2.697849e-01 2.833590e-01 1.354648e-01 -3.146070e+00 -8.682949e-01 -5.761912e-01 -6.426868e-01 -3.880260e-01 2.740711e-01 8.012834e-01 3.945038e-01 -2.766000e-03 5.289851e-01 1.688454e-01 1.392570e-01 1.132902e-01 9.353870e-01
<VARIANCE> 39
 1.117610e+01 1.547826e+01 2.003145e+01 2.566774e+01 3.782050e+01 3.277293e+01 3.035303e+01 4.995875e+01 3.736632e+01 2.857626e+01 2.842523e+01 2.308264e+01 2.114700e+01 1.509806e+00 2.062541e+00 2.832929e+00 2.423180e+00 2.156250e+00 2.883163e+00 2.804833e+00 2.590292e+00 2.745984e+00 2.302777e+00 2.004087e+00 1.670234e+00 3.388979e+00 2.249830e-01 3.505192e-01 3.611791e-01 3.983949e-01 5.171119e-01 5.654414e-01 5.883867e-01 5.920084e-01 5.889811e-01 4.910756e-01 4.045871e-01 3.298499e-01 5.590813e-01
<GCONST> 1.145773e+02
<STATE> 3
<MEAN> 39
 -3.151614e+00 5.151624e+00 1.033163e+00 -2.546782e-01 -4.636437e+00 -6.498493e+00 -4.757424e+00 -4.361880e+00 -5.279529e+00 -3.914679e+00 -2.806480e+00 -1.818162e+00 4.280957e+01 -1.841562e+00 -6.462957e-01 -5.057104e-01 -3.866240e-02 1.059314e+00 1.674214e+00 8.305796e-01 6.398019e-01 1.140750e+00 6.051912e-01 5.560499e-01 3.595700e-01 5.660855e-01 -4.768742e-01 -1.070754e+00 -1.099059e+00 -6.647642e-01 -2.926221e-01 7.672371e-02 7.355688e-01 1.177159e-01 1.935629e-01 1.213994e-01 -5.829426e-02 -2.135492e-02 1.789377e+00
<VARIANCE> 39
 1.282611e+01 1.121220e+01 1.333502e+01 1.814197e+01 2.781143e+01 2.968651e+01 2.574460e+01 3.344643e+01 2.757001e+01 2.325089e+01 2.136812e+01 1.932933e+01 1.833794e+01 1.605050e+00 2.042891e+00 2.523797e+00 2.302597e+00 2.934469e+00 2.658635e+00 2.917872e+00 3.490767e+00 2.637873e+00 2.246578e+00 2.024259e+00 1.689604e+00 5.805568e+00 3.394356e-01 4.340340e-01 4.830235e-01 4.524586e-01 4.616456e-01 6.262590e-01 6.072958e-01 5.836189e-01 5.436442e-01 4.578594e-01 3.813629e-01 3.421826e-01 6.579310e-01
<GCONST> 1.135349e+02
<STATE> 4
<MEAN> 39
 -1.070141e+01 8.648083e-02 -2.856440e+00 -2.568987e+00 -2.883039e+00 -1.194137e+00 1.578672e-01 -1.166844e+00 -5.478176e-01 -8.326562e-01 -5.277949e-01 -4.742926e-01 4.934245e+01 -8.230237e-01 -2.261030e+00 -2.586929e+00 -1.623885e+00 -7.029115e-01 -1.311795e-01 1.091359e+00 -1.968992e-01 6.987650e-03 -1.604363e-01 -3.004348e-01 -1.140006e-01 4.556880e+00 6.293191e-01 -2.838392e-01 -4.814430e-01 -2.000213e-01 -3.517653e-01 -5.881665e-01 -1.129621e-01 -4.618023e-01 -5.330473e-01 -3.439766e-01 -3.266755e-01 -1.510027e-01 5.854124e-01
<VARIANCE> 39
 1.631432e+01 1.499054e+01 2.000813e+01 2.310439e+01 2.390650e+01 2.564279e+01 2.201189e+01 2.550169e+01 2.164850e+01 2.021605e+01 1.704072e+01 1.464742e+01 7.836464e+01 2.702024e+00 3.399752e+00 4.100916e+00 3.357736e+00 3.333833e+00 4.327096e+00 4.138296e+00 4.229921e+00 3.622164e+00 2.784405e+00 2.332870e+00 1.883667e+00 6.092204e+00 4.219597e-01 4.842139e-01 5.520418e-01 6.702833e-01 6.843720e-01 6.870669e-01 6.283071e-01 8.113104e-01 6.137629e-01 4.845191e-01 4.290698e-01 3.854371e-01 1.332979e+00
<GCONST> 1.212588e+02
<TRANSP> 5
 0.000000e+00 1.000000e+00 0.000000e+00 0.000000e+00 0.000000e+00
 0.000000e+00 5.406782e-01 4.593218e-01 0.000000e+00 0.000000e+00
 0.000000e+00 0.000000e+00 5.470793e-01 4.529207e-01 0.000000e+00
 0.000000e+00 0.000000e+00 0.000000e+00 5.738313e-01 4.261687e-01
 0.000000e+00 0.000000e+00 0.000000e+00 0.000000e+00 0.000000e+00
<ENDHMM>
~h "D"
<BEGINHMM>
<NUMSTATES> 5
<STATE> 2
<MEAN> 39
 -5.684750e+00 4.723455e+00 -1.293893e+00 -9.114647e+00 -6.676740e+00 -5.809143e+00 -4.086549e+00 -6.440555e+00 -2.064266e+00 -3.605520e+00 -3.828262e+00 -2.249664e+00 5.082640e+01 2.473291e-01 8.626096e-01 1.166950e+00 2.013870e+00 6.656188e-01 2.156566e-01 -2.809756e-01 8.650298e-02 -6.698222e-01 1.904159e-01 2.080126e-01 2.956838e-01 -2.398637e+00 -5.938519e-01 -6.121638e-01 -5.824389e-01 -3.455701e-02 1.458036e-01 3.140271e-01 2.290596e-01 3.479064e-01 1.348899e-01 4.562837e-02 1.574140e-01 1.741024e-02 8.037043e-01
<VARIANCE> 39
 2.303384e+01 2.560651e+01 3.257104e+01 5.139862e+01 3.199018e+01 3.861508e+01 3.975336e+01 3.640556e+01 3.547665e+01 4.733846e+01 2.867718e+01 2.564091e+01 4.256225e+01 2.890129e+00 2.535694e+00 3.015134e+00 4.107574e+00 3.133968e+00 3.407753e+00 2.875521e+00 3.082798e+00 2.990628e+00 2.809796e+00 2.341652e+00 1.911758e+00 4.441639e+00 4.326360e-01 3.870769e-01 4.934096e-01 6.066954e-01 5.354272e-01 6.159602e-01 5.606046e-01 5.400906e-01 6.003172e-01 5.382312e-01 4.210979e-01 3.482379e-01 7.504466e-01
<GCONST> 1.231974e+02
<STATE> 3
<MEAN> 39
 -7.228388e+00 4.714638e+00 -3.560091e-01 -3.891271e+00 -4.234329e+00 -4.330636e+00 -3.684719e+00 -4.348120e+00 -2.665758e+00 -2.406530e+00 -2.394066e+00 -1.307929e+00 4.697361e+01 -1.753869e+00 -9.680662e-01 -7.705753e-01 8.322939e-01 6.634371e-01 8.760303e-01 5.782065e-01 9.948430e-01 3.631634e-01 3.531107e-01 6.392998e-01 2.515031e-01 8.006058e-01 -4.123325e-01 -5.137536e-01 -7.464222e-01 -8.159409e-01 -2.489233e-01 8.756850e-02 2.151336e-01 6.885919e-02 3.303569e-01 -7.585442e-02 -4.471210e-02 -9.705986e-02 1.344859e+00
<VARIANCE> 39
 2.531148e+01 2.185958e+01 2.414945e+01 4.110555e+01 2.793125e+01 3.177787e+01 3.082951e+01 3.114160e+01 2.733714e+01 3.135655e+01 2.310817e+01 2.008540e+01 5.645788e+01 3.426522e+00 2.616350e+00 3.058986e+00 3.996036e+00 3.315528e+00 3.618406e+00 3.312665e+00 3.205498e+00 3.115985e+00 3.304715e+00 2.402324e+00 1.992552e+00 5.475188e+00 5.178414e-01 4.741490e-01 5.012954e-01 7.280397e-01 5.860178e-01 5.997998e-01 6.060113e-01 5.816401e-01 5.699008e-01 5.524541e-01 4.410173e-01 3.605772e-01 8.733418e-01
<GCONST> 1.229879e+02
<STATE> 4
<MEAN> 39
 -1.384527e+01 5.426967e-01 -5.461573e+00 -6.056161e+00 -3.741776e+00 -1.678455e+00 -1.514451e+00 -2.132827e+00 1.227847e-01 -2.156630e+00 -1.174878e+00 -1.007362e+00 5.485731e+01 -5.721009e-01 -7.293324e-01 -9.363810e-01 -9.657652e-01 -3.445389e-01 4.265298e-01 3.146672e-01 5.423921e-02 3.859576e-01 -1.164139e-01 -1.071309e-01 -3.881558e-02 1.721196e+00 5.689233e-01 4.923671e-02 1.391377e-01 -2.849770e-01 -1.581394e-01 -1.711474e-01 -8.769425e-02 -2.957131e-01 -1.049634e-01 -8.254293e-02 -1.891357e-01 -7.859100e-02 -1.634049e-01
<VARIANCE> 39
 3.382502e+01 2.857615e+01 3.043570e+01 4.559180e+01 3.306940e+01 3.417780e+01 3.077688e+01 3.217903e+01 2.833925e+01 3.233829e+01 2.470554e+01 1.987414e+01 5.485490e+01 3.894825e+00 2.752719e+00 3.357217e+00 5.508557e+00 3.853811e+00 3.913948e+00 3.608074e+00 3.857987e+00 3.169592e+00 3.359236e+00 2.759396e+00 2.098633e+00 7.154899e+00 6.849869e-01 5.978758e-01 6.517491e-01 1.017016e+00 7.289199e-01 6.665580e-01 6.490233e-01 7.229880e-01 6.433585e-01 6.980792e-01 5.425502e-01 4.148070e-01 1.047285e+00
<GCONST> 1.284341e+02
<TRANSP> 5
 0.000000e+00 1.000000e+00 0.000000e+00 0.000000e+00 0.000000e+00
 0.000000e+00 3.989358e-01 6.010643e-01 0.000000e+00 0.000000e+00
 0.000000e+00 0.000000e+00 3.449022e-01 6.550978e-01 0.000000e+00
 0.000000e+00 0.000000e+00 0.000000e+00 5.500543e-01 4.499457e-01
 0.000000e+00 0.000000e+00 0.000000e+00 0.000000e+00 0.000000e+00
<ENDHMM>
~h "F"
<BEGINHMM>
<NUMSTATES> 5
<STATE> 2
<MEAN> 39
 -1.509223e+01 2.273778e-01 -1.809126e+00 -1.745837e+00 -2.394577e+00 -9.447470e-01 -1.974381e+00 -3.249798e+00 -1.015976e+00 -1.479635e+00 -1.794008e+00 -1.442425e+00 5.362415e+01 -2.598901e+00 4.258360e-01 7.249036e-01 1.049057e+00 1.228869e+00 1.368329e+00 9.767755e-01 1.460337e+00 1.075792e+00 1.046497e+00 1.181193e+00 7.822369e-01 -1.301056e+00 2.155692e-01 -5.162137e-01 -5.081237e-01 -4.616210e-01 -2.919775e-01 -5.596582e-02 1.828750e-01 4.301187e-03 4.924086e-02 -1.292515e-02 -3.743807e-03 4.916207e-02 3.913353e-01
<VARIANCE> 39
 2.402704e+01 1.375591e+01 1.361422e+01 1.973339e+01 2.011146e+01 2.251317e+01 2.604237e+01 2.646389e+01 2.131446e+01 2.131889e+01 2.058107e+01 1.627544e+01 2.216274e+01 2.168323e+00 2.863275e+00 2.763374e+00 3.142570e+00 3.074606e+00 2.903224e+00 3.268919e+00 3.522170e+00 2.655680e+00 2.554116e+00 2.518061e+00 2.102508e+00 1.978528e+00 5.028409e-01 3.727497e-01 3.906807e-01 4.157481e-01 4.481793e-01 5.515963e-01 5.370110e-01 5.518181e-01 4.566274e-01 4.240596e-01 4.307242e-01 3.388816e-01 2.959977e-01
<GCONST> 1.127477e+02
<STATE> 3
<MEAN> 39
 -1.993287e+01 -1.463004e+00 -2.991351e+00 -1.660810e+00 -1.485922e+00 1.244882e+00 8.538103e-01 1.707731e-01 1.507274e+00 8.346317e-01 7.522782e-01 4.403157e-01 5.252825e+01 -6.526359e-02 -2.237998e-01 -8.246516e-02 -4.221777e-02 -2.060011e-02 4.475147e-02 1.530997e-01 1.264998e-01 5.554030e-02 8.575232e-02 1.195752e-01 8.334149e-02 -6.745674e-02 5.417125e-01 -7.566973e-02 -1.062024e-01 -1.880572e-01 -1.980260e-01 -2.304393e-01 -2.022243e-01 -2.660385e-01 -2.147983e-01 -2.079700e-01 -1.982314e-01 -1.281329e-01 2.230241e-01
<VARIANCE> 39
 8.492858e+00 1.058047e+01 1.042879e+01 1.274485e+01 1.394414e+01 1.479551e+01 1.597848e+01 1.558312e+01 1.630696e+01 1.528336e+01 1.356580e+01 1.148408e+01 1.857884e+01 9.365265e-01 8.190588e-01 8.955733e-01 1.120532e+00 1.247674e+00 1.426524e+00 1.572260e+00 1.699249e+00 1.651935e+00 1.577850e+00 1.451655e+00 1.242686e+00 9.252661e-01 2.794953e-01 2.221843e-01 2.582605e-01 3.069717e-01 3.366755e-01 3.609356e-01 3.710045e-01 3.985828e-01 3.762854e-01 3.568015e-01 3.284095e-01 2.767693e-01 2.338479e-01
<GCONST> 9.297671e+01
<STATE> 4
<MEAN> 39
 -1.668669e+01 -2.160884e+00 -3.194164e+00 -2.332413e+00 -1.965599e+00 4.275672e-01 2.561872e-01 -1.103772e+00 3.770019e-01 2.694365e-02 3.880282e-02 1.332185e-01 5.287318e+01 2.895707e+00 -1.185279e+00 -1.453862e+00 -1.575604e+00 -1.236636e+00 -1.185519e+00 -8.973724e-01 -1.103220e+00 -1.037783e+00 -1.000679e+00 -8.484949e-01 -4.485314e-01 1.679612e+00 4.913205e-01 -3.753819e-01 -5.041992e-01 -4.005762e-01 -2.468093e-01 -2.179553e-01 -1.503223e-01 -1.505120e-01 -1.940369e-01 -2.447848e-01 -2.116255e-01 -1.725407e-01 6.164437e-01
<VARIANCE> 39
 2.061427e+01 1.407309e+01 1.520430e+01 1.915469e+01 1.779029e+01 1.958801e+01 1.982727e+01 1.992550e+01 1.907242e+01 1.711576e+01 1.550141e+01 1.314935e+01 2.222655e+01 2.588851e+00 3.142534e+00 3.427589e+00 3.537488e+00 3.256361e+00 2.886196e+00 2.662247e+00 2.872593e+00 2.748113e+00 2.341918e+00 1.955729e+00 1.813637e+00 3.172836e+00 4.810504e-01 3.775344e-01 4.150268e-01 4.870483e-01 4.865032e-01 5.020027e-01 4.946229e-01 5.017539e-01 4.885404e-01 4.131150e-01 3.745930e-01 3.364459e-01 3.507710e-01
<GCONST> 1.113829e+02
<TRANSP> 5
 0.000000e+00 1.000000e+00 0.000000e+00 0.000000e+00 0.000000e+00
 0.000000e+00 5.468249e-01 4.531752e-01 0.000000e+00 0.000000e+00
 0.000000e+00 0.000000e+00 8.105417e-01 1.894582e-01 0.000000e+00
 0.000000e+00 0.000000e+00 0.000000e+00 5.530952e-01 4.469048e-01
 0.000000e+00 0.000000e+00 0.000000e+00 0.000000e+00 0.000000e+00
<ENDHMM>
~h "G"
<BEGINHMM>
<NUMSTATES> 5
<STATE> 2
<MEAN> 39
 -4.920361e+00 5.378818e+00 -5.807738e-01 -9.677476e+00 -5.462286e+00 -6.775193e+00 -5.071580e+00 -3.153441e+00 -3.830398e+00 -1.995849e+00 -3.070463e+00 -2.555993e+00 4.839429e+01 1.519939e-01 3.553260e-01 1.152094e+00 2.281882e+00 4.712394e-01 6.331437e-01 9.533060e-02 8.768610e-02 7.488557e-02 1.785045e-01 4.701789e-01 4.399406e-01 -2.518927e+00 -7.894342e-01 -8.713045e-01 -5.249342e-01 2.914417e-02 3.358545e-02 4.216382e-01 4.216080e-01 7.851838e-02 2.954780e-01 -5.876696e-03 1.242397e-01 1.077627e-01 1.086270e+00
<VARIANCE> 39
 1.698060e+01 3.122822e+01 3.037062e+01 5.141545e+01 3.820158e+01 5.066665e+01 4.604757e+01 4.510308e+01 3.434314e+01 3.092032e+01 3.699311e+01 2.195975e+01 3.261219e+01 2.739055e+00 3.409771e+00 2.664584e+00 4.155716e+00 3.201086e+00 4.153773e+00 3.683418e+00 3.404149e+00 2.911309e+00 2.442863e+00 2.347969e+00 1.767974e+00 4.551730e+00 4.094068e-01 5.393082e-01 4.483471e-01 7.405866e-01 5.984652e-01 7.144030e-01 6.818056e-01 6.320711e-01 5.638197e-01 4.955322e-01 4.899461e-01 3.598855e-01 8.434625e-01
<GCONST> 1.248337e+02
<STATE> 3
<MEAN> 39
 -8.284928e+00 2.924669e+00 8.920110e-01 -2.284826e+00 -2.833157e+00 -2.118408e+00 -1.875487e+00 -1.233936e+00 -1.167571e+00 -3.951460e-01 -4.164822e-01 -2.223297e-01 4.399553e+01 -2.148062e+00 -2.412585e+00 -7.890727e-01 6.812467e-01 2.073174e-01 1.020368e+00 1.086735e+00 4.345608e-01 7.603746e-01 2.712859e-01 4.856637e-01 3.419046e-01 2.082479e+00 -1.821081e-01 -3.940262e-01 -6.987408e-01 -1.083710e+00 -4.594193e-01 -3.433502e-01 -2.729698e-02 -1.505379e-01 -5.757368e-02 -1.902255e-01 -2.728802e-01 -2.408855e-01 1.590474e+00
<VARIANCE> 39
 1.863377e+01 2.810607e+01 2.140318e+01 3.586721e+01 3.015830e+01 3.347232e+01 3.254959e+01 2.894683e+01 2.474952e+01 2.175236e+01 1.989670e+01 1.573254e+01 3.941399e+01 3.162945e+00 4.504598e+00 3.133356e+00 4.631992e+00 3.953602e+00 4.504387e+00 3.652153e+00 3.545094e+00 3.014797e+00 2.681714e+00 2.708207e+00 1.892743e+00 6.013763e+00 5.184957e-01 7.107622e-01 5.274897e-01 6.930010e-01 5.843585e-01 6.650094e-01 6.286720e-01 6.480446e-01 5.198860e-01 4.666936e-01 4.260538e-01 3.137936e-01 7.749323e-01
<GCONST> 1.228153e+02
<STATE> 4
<MEAN> 39
 -1.437612e+01 -4.996281e+00 -3.636117e+00 -5.259322e+00 -5.154275e+00 -1.814042e+00 3.154059e-01 -1.353499e+00 1.325734e-01 -8.629361e-01 -6.027243e-01 -6.321960e-01 5.652930e+01 -6.636609e-03 -4.960504e-01 -1.425480e+00 -1.819867e+00 -1.008628e+00 -4.258848e-01 3.336789e-02 -2.544073e-01 -1.144191e-01 -4.903419e-01 -5.303479e-01 -3.978951e-01 2.742496e+00 9.029492e-01 7.170072e-01 -5.226885e-03 -5.295069e-01 -5.210397e-02 -2.849330e-01 -3.883919e-01 -1.347042e-01 -3.251759e-01 -1.759094e-01 -2.718740e-01 -1.844543e-01 -4.207212e-01
<VARIANCE> 39
 2.561876e+01 6.277276e+01 3.334822e+01 5.647893e+01 4.080744e+01 4.062754e+01 3.564645e+01 3.033709e+01 2.479323e+01 2.336267e+01 2.065517e+01 1.557027e+01 3.449854e+01 4.120249e+00 5.500204e+00 3.553206e+00 5.024827e+00 3.495073e+00 4.320730e+00 3.954999e+00 3.495084e+00 3.339139e+00 2.592741e+00 2.519743e+00 1.960493e+00 5.749829e+00 5.724247e-01 9.999777e-01 6.519910e-01 1.109956e+00 7.817301e-01 8.590561e-01 8.252715e-01 7.408844e-01 6.644369e-01 5.750352e-01 5.899853e-01 4.288038e-01 8.000423e-01
<GCONST> 1.291942e+02
<TRANSP> 5
 0.000000e+00 1.000000e+00 0.000000e+00 0.000000e+00 0.000000e+00
 0.000000e+00 5.823232e-01 4.176768e-01 0.000000e+00 0.000000e+00
 0.000000e+00 0.000000e+00 4.699526e-01 5.300475e-01 0.000000e+00
 0.000000e+00 0.000000e+00 0.000000e+00 6.008953e-01 3.991047e-01
 0.000000e+00 0.000000e+00 0.000000e+00 0.000000e+00 0.000000e+00
<ENDHMM>
~h "K"
<BEGINHMM>
<NUMSTATES> 5
<STATE> 2
<MEAN> 39
 -9.973436e+00 2.313410e+00 -8.090366e-01 -7.708110e+00 -3.507850e+00 -3.505799e+00 -3.388739e+00 -1.694598e+00 -1.714488e+00 -9.663961e-01 -2.368103e+00 -1.423688e+00 5.009106e+01 -2.991319e-01 3.351872e-01 1.448846e+00 2.810602e+00 1.068297e+00 1.454609e+00 1.146658e+00 1.211385e+00 7.848818e-01 9.524676e-01 1.186697e+00 8.787805e-01 -4.019270e+00 -3.425967e-01 -6.408373e-01 -5.597474e-01 6.820217e-02 8.087599e-02 2.801231e-01 3.650679e-01 1.359267e-03 1.971960e-01 -4.458866e-02 1.294953e-01 1.045723e-01 5.795591e-01
<VARIANCE> 39
 2.200364e+01 4.582680e+01 3.138140e+01 7.083824e+01 4.051826e+01 6.237305e+01 4.538503e+01 3.976399e+01 3.221247e+01 2.893747e+01 2.913004e+01 2.066170e+01 4.023060e+01 2.543953e+00 3.398293e+00 2.930462e+00 4.223328e+00 3.101402e+00 4.560583e+00 3.509433e+00 3.612677e+00 2.937359e+00 2.839134e+00 2.680991e+00 2.067358e+00 3.690627e+00 4.421845e-01 5.672491e-01 5.032504e-01 9.631116e-01 6.274388e-01 9.385211e-01 8.049777e-01 6.963515e-01 6.160182e-01 5.360450e-01 5.364282e-01 3.992023e-01 1.066661e+00
<GCONST> 1.277661e+02
<STATE> 3
<MEAN> 39
 -1.057979e+01 1.235093e+00 -1.065407e-01 -9.394145e-01 -4.139753e-01 1.196375e+00 1.223111e+00 1.760536e+00 1.464485e+00 1.551750e+00 1.087004e+00 1.148005e+00 4.102483e+01 -1.093045e+00 -1.257552e+00 -5.530901e-01 5.727608e-01 3.140734e-01 4.125020e-01 6.967791e-01 2.345504e-01 3.212677e-01 5.686881e-02 2.989442e-01 1.502706e-01 8.040485e-01 -3.245587e-01 -3.774977e-01 -5.563580e-01 -7.887874e-01 -4.039956e-01 -4.244964e-01 -2.618659e-01 -4.243633e-01 -2.566035e-01 -3.706293e-01 -3.901112e-01 -2.937779e-01 1.789701e+00
<VARIANCE> 39
 1.188699e+01 1.604805e+01 1.433841e+01 2.332038e+01 2.117780e+01 2.369207e+01 2.183731e+01 2.066336e+01 1.924242e+01 1.658281e+01 1.462470e+01 1.219478e+01 1.941597e+01 3.043277e+00 4.164153e+00 2.852794e+00 4.812411e+00 3.391617e+00 4.240233e+00 3.406802e+00 3.281193e+00 2.794003e+00 2.507153e+00 2.362710e+00 1.765212e+00 9.884239e+00 4.029406e-01 5.656901e-01 4.468734e-01 5.780722e-01 5.017620e-01 5.584952e-01 5.199693e-01 5.484781e-01 4.616878e-01 4.558868e-01 3.834927e-01 3.079320e-01 8.374148e-01
<GCONST> 1.156593e+02
<STATE> 4
<MEAN> 39
 -1.677293e+01 -3.843987e+00 -5.012218e+00 -3.267320e+00 -1.355825e+00 -7.478672e-01 8.749638e-01 -1.193040e+00 2.471805e-01 -8.360677e-01 -9.819273e-01 -4.160108e-01 5.607227e+01 1.001505e-01 -1.760258e-02 -6.928742e-01 -5.736710e-01 -1.664418e-01 -5.332741e-01 -5.554549e-01 -6.705581e-01 -3.806601e-01 -4.020664e-01 -4.381031e-01 -2.195702e-01 1.474738e+00 5.238187e-01 2.899527e-01 5.261833e-02 -1.803617e-01 -8.283667e-02 -1.619979e-01 -2.416001e-01 -8.825516e-02 -1.227223e-01 -2.819787e-02 -5.486849e-02 -2.193363e-02 -3.509866e-01
<VARIANCE> 39
 1.894991e+01 5.386595e+01 3.397321e+01 4.543791e+01 4.138172e+01 3.341649e+01 3.107550e+01 2.899075e+01 2.351567e+01 2.215290e+01 1.842953e+01 1.451554e+01 3.201480e+01 3.291347e+00 3.932331e+00 2.897869e+00 4.090853e+00 3.527526e+00 3.596699e+00 3.458637e+00 3.086611e+00 2.745411e+00 2.622443e+00 2.189804e+00 1.798274e+00 6.084325e+00 4.434940e-01 8.599091e-01 5.578378e-01 7.597563e-01 7.121793e-01 6.682753e-01 6.474749e-01 6.186830e-01 5.645025e-01 5.614322e-01 4.618830e-01 3.790371e-01 1.035848e+00
<GCONST> 1.240497e+02
<TRANSP> 5
 0.000000e+00 1.000000e+00 0.000000e+00 0.000000e+00 0.000000e+00
 0.000000e+00 4.966362e-01 5.033638e-01 0.000000e+00 0.000000e+00
 0.000000e+00 0.000000e+00 6.479586e-01 3.520413e-01 0.000000e+00
 0.000000e+00 0.000000e+00 0.000000e+00 8.003588e-01 1.996412e-01
 0.000000e+00 0.000000e+00 0.000000e+00 0.000000e+00 0.000000e+00
<ENDHMM>
~h "L"
<BEGINHMM>
<NUMSTATES> 5
<STATE> 2
<MEAN> 39
 -4.342874e+00 -6.868668e+00 -1.888075e+01 -5.242854e-01 -6.263480e+00 -6.529833e+00 -1.437210e+00 -3.038153e+00 -2.256847e+00 -5.475671e+00 -2.842006e+00 -2.593771e+00 6.010453e+01 5.355876e-01 1.941902e-01 -4.386391e-01 2.265717e-01 -1.088516e-01 -3.117281e-01 -4.619876e-01 2.923105e-01 1.093242e-01 -1.565413e-01 -6.997807e-02 -1.186523e-02 -3.435991e-01 -1.507213e-01 3.878945e-02 3.180560e-01 -1.530221e-01 -2.095101e-02 1.193046e-01 2.663874e-02 -9.423447e-02 -1.360864e-02 7.206193e-02 -1.432363e-02 9.451666e-04 -1.416507e-02
<VARIANCE> 39
 1.511929e+01 3.314667e+01 4.705855e+01 2.940990e+01 4.372432e+01 3.438388e+01 4.393188e+01 3.721108e+01 3.856922e+01 3.142127e+01 2.424363e+01 2.386341e+01 3.316402e+01 8.876137e-01 9.368331e-01 2.055221e+00 1.559147e+00 1.618434e+00 1.931638e+00 2.091006e+00 2.242628e+00 2.000036e+00 1.755633e+00 1.454420e+00 1.268271e+00 1.097995e+00 1.192447e-01 1.569656e-01 2.555246e-01 2.425385e-01 2.358261e-01 3.139505e-01 3.682001e-01 3.412411e-01 3.380595e-01 2.959718e-01 2.577398e-01 2.180417e-01 1.473285e-01
<GCONST> 1.038976e+02
<STATE> 3
<MEAN> 39
 -3.462652e+00 -5.322586e+00 -1.672980e+01 -1.187293e+00 -7.267364e+00 -8.508195e+00 -2.406467e+00 -1.735022e+00 -2.003389e+00 -5.247151e+00 -3.110124e+00 -2.198930e+00 5.848483e+01 -3.428723e-01 -2.739363e-01 6.852261e-01 -3.324530e-02 -4.425684e-01 2.846281e-01 6.155464e-01 -4.172726e-01 -6.182400e-01 3.367469e-02 1.703554e-01 -9.949471e-02 3.430005e-01 -5.041200e-01 5.188226e-03 5.335222e-01 -1.637334e-01 1.259457e-01 5.393187e-01 1.940544e-01 -3.040157e-01 2.088262e-03 2.522373e-01 9.666690e-02 2.273713e-03 4.327727e-02
<VARIANCE> 39
 1.424377e+01 3.263454e+01 4.681404e+01 2.973572e+01 4.956299e+01 3.807117e+01 4.953950e+01 4.048988e+01 4.018762e+01 3.544561e+01 2.855641e+01 3.097667e+01 3.882552e+01 1.657826e+00 2.768800e+00 4.769010e+00 2.617568e+00 2.857280e+00 3.330427e+00 4.450139e+00 3.425197e+00 3.115495e+00 2.730930e+00 2.399571e+00 2.075846e+00 3.720072e+00 3.050033e-01 3.320407e-01 6.209917e-01 5.171705e-01 5.447939e-01 6.472239e-01 7.021714e-01 6.731005e-01 6.541369e-01 5.615473e-01 4.398002e-01 3.843393e-01 3.637580e-01
<GCONST> 1.229875e+02
<STATE> 4
<MEAN> 39
 -7.280426e+00 -7.359834e+00 -1.199898e+01 -2.762646e+00 -9.938686e+00 -3.012683e+00 4.604404e-01 -6.751881e+00 -3.593655e+00 -3.217099e+00 -2.289739e+00 -2.887647e+00 6.075415e+01 -1.103844e+00 4.700401e-01 1.457046e+00 -1.311267e+00 4.837577e-01 1.487657e+00 -4.303306e-01 -9.187889e-01 8.184313e-01 3.931543e-01 -1.762556e-01 1.502555e-01 1.290781e-01 -7.318000e-02 3.235474e-01 -1.543081e-02 -2.168301e-01 4.952726e-01 -1.979630e-01 -4.064110e-01 4.218242e-01 2.660627e-01 -1.526801e-01 1.468178e-02 1.341113e-01 -1.979932e-01
<VARIANCE> 39
 1.539769e+01 3.490400e+01 3.766886e+01 4.858671e+01 5.112207e+01 4.736481e+01 6.103037e+01 4.981741e+01 3.858784e+01 3.751762e+01 3.554379e+01 3.426960e+01 5.550954e+01 1.141571e+00 2.305362e+00 3.218254e+00 3.945051e+00 3.005516e+00 3.598195e+00 3.979153e+00 4.261991e+00 3.375992e+00 3.319915e+00 2.505905e+00 2.115535e+00 3.022509e+00 2.395588e-01 2.878447e-01 4.203041e-01 4.447415e-01 5.674440e-01 7.883061e-01 7.829590e-01 6.803945e-01 6.776370e-01 5.100409e-01 4.903440e-01 3.768282e-01 2.428353e-01
<GCONST> 1.236467e+02
<TRANSP> 5
 0.000000e+00 1.000000e+00 0.000000e+00 0.000000e+00 0.000000e+00
 0.000000e+00 7.601820e-01 2.398180e-01 0.000000e+00 0.000000e+00
 0.000000e+00 0.000000e+00 5.522459e-01 4.477541e-01 0.000000e+00
 0.000000e+00 0.000000e+00 0.000000e+00 5.044258e-01 4.955743e-01
 0.000000e+00 0.000000e+00 0.000000e+00 0.000000e+00 0.000000e+00
<ENDHMM>
~h "M"
<BEGINHMM>
<NUMSTATES> 5
<STATE> 2
<MEAN> 39
 -6.124874e+00 7.616492e-02 -1.695629e+00 -7.484323e+00 -7.335117e+00 -9.690483e+00 -4.192920e+00 -3.543985e+00 -5.149253e+00 -1.067210e+00 -3.735479e+00 -9.783722e-01 5.271865e+01 9.070390e-01 8.618476e-01 8.971492e-01 -1.119985e+00 -9.799994e-01 -2.400687e+00 -8.745496e-01 -2.730210e-01 -1.115051e+00 -1.257654e-01 -9.306870e-01 -2.063593e-01 3.268000e-01 -2.437556e-01 -2.850382e-01 -3.815941e-01 -6.354772e-03 1.860218e-01 4.245082e-01 9.940294e-02 -1.080470e-01 1.840588e-01 -1.612613e-01 1.935695e-03 -9.529197e-02 4.129325e-01
<VARIANCE> 39
 1.460977e+01 2.266558e+01 2.651437e+01 4.090934e+01 5.578077e+01 6.118673e+01 4.338586e+01 5.277177e+01 4.455051e+01 4.020576e+01 4.283358e+01 3.539543e+01 6.669051e+01 1.355082e+00 2.513953e+00 3.351307e+00 3.604095e+00 4.070611e+00 4.692869e+00 4.207118e+00 5.239698e+00 4.249872e+00 4.336507e+00 3.439277e+00 2.810615e+00 5.966236e+00 2.743480e-01 2.847908e-01 3.039265e-01 5.473481e-01 6.381496e-01 9.059010e-01 6.214116e-01 6.824533e-01 6.572775e-01 5.639235e-01 5.157918e-01 4.049490e-01 3.575382e-01
<GCONST> 1.267477e+02
<STATE> 3
<MEAN> 39
 -4.953360e+00 2.636163e-01 -1.402960e+00 -9.970958e+00 -8.460134e+00 -1.298840e+01 -5.412672e+00 -4.448245e+00 -6.850838e+00 -2.428088e+00 -6.612465e+00 -3.234926e+00 5.638658e+01 -1.993821e-02 -4.836586e-02 -2.357800e-01 -1.231212e-01 1.432379e-01 1.060266e-01 -1.822372e-02 -8.563378e-02 3.420429e-02 -5.804088e-02 -1.013507e-01 -1.480347e-01 2.139952e-01 -2.141971e-01 -3.384732e-01 -5.000039e-01 1.694408e-01 1.336054e-01 6.650756e-01 1.590670e-01 -3.020651e-02 2.277795e-01 -7.614215e-02 2.233533e-01 2.755055e-02 2.259650e-01
<VARIANCE> 39
 1.049756e+01 1.768637e+01 2.838597e+01 3.464330e+01 5.284702e+01 5.925145e+01 4.268253e+01 6.474454e+01 4.479117e+01 5.174675e+01 5.268924e+01 3.678751e+01 2.175259e+01 4.025471e-01 1.099692e+00 1.352866e+00 1.189171e+00 1.352426e+00 1.979986e+00 1.560210e+00 1.686771e+00 1.814165e+00 1.763523e+00 1.673839e+00 1.459728e+00 1.278615e+00 1.342581e-01 2.264725e-01 2.970365e-01 3.288010e-01 4.759111e-01 5.689071e-01 4.951448e-01 5.752891e-01 6.009268e-01 5.511702e-01 4.604236e-01 3.780313e-01 1.874723e-01
<GCONST> 1.091694e+02
<STATE> 4
<MEAN> 39
 -6.127779e+00 -2.284168e+00 -4.591123e+00 -9.803664e+00 -8.863485e+00 -8.962955e+00 -5.034772e+00 -5.017403e+00 -6.305819e+00 -2.884797e+00 -5.312464e+00 -3.056357e+00 5.850894e+01 -8.912834e-01 -1.052817e+00 -1.856821e+00 1.943589e-01 4.589379e-01 2.127625e+00 4.487039e-01 -2.718711e-01 9.047390e-01 -4.885602e-01 5.235452e-01 2.767816e-02 1.270486e+00 -1.871998e-01 4.021550e-02 -9.719617e-02 7.429913e-02 1.992848e-01 1.754623e-01 6.847513e-02 3.380676e-02 2.200076e-01 -6.674608e-02 1.344843e-01 8.202059e-02 -1.966048e-02
<VARIANCE> 39
 1.271995e+01 2.375581e+01 3.327127e+01 3.270063e+01 4.236739e+01 5.681715e+01 3.773596e+01 5.366788e+01 4.063838e+01 3.959587e+01 5.037733e+01 3.556164e+01 3.164745e+01 1.138078e+00 2.323306e+00 2.542164e+00 3.197919e+00 4.691849e+00 4.135266e+00 4.231800e+00 4.858908e+00 4.847430e+00 4.658024e+00 4.143905e+00 3.237939e+00 2.089593e+00 1.555754e-01 3.039492e-01 3.941027e-01 3.696912e-01 5.247477e-01 6.324043e-01 5.019012e-01 5.582665e-01 5.613400e-01 5.281628e-01 5.172086e-01 3.986361e-01 2.297245e-01
<GCONST> 1.219974e+02
<TRANSP> 5
 0.000000e+00 1.000000e+00 0.000000e+00 0.000000e+00 0.000000e+00
 0.000000e+00 5.072755e-01 4.927244e-01 0.000000e+00 0.000000e+00
 0.000000e+00 0.000000e+00 7.105677e-01 2.894323e-01 0.000000e+00
 0.000000e+00 0.000000e+00 0.000000e+00 4.388307e-01 5.611693e-01
 0.000000e+00 0.000000e+00 0.000000e+00 0.000000e+00 0.000000e+00
<ENDHMM>
~h "N"
<BEGINHMM>
<NUMSTATES> 5
<STATE> 2
<MEAN> 39
 -6.602349e+00 1.050183e+00 -3.869373e+00 -1.224246e+01 -4.753862e+00 -6.797074e+00 -4.739395e+00 -6.586601e+00 -1.472934e+00 -4.384334e+00 -3.207206e+00 -2.564860e+00 5.557777e+01 9.359267e-01 8.441334e-01 6.435331e-01 -6.582072e-01 6.389377e-02 -1.701220e+00 -1.409277e-01 -4.700163e-01 -1.815284e-01 9.351856e-02 -4.883650e-01 -6.478407e-02 -7.483310e-01 -1.585913e-01 -1.445497e-01 -2.065043e-01 1.556467e-01 4.499895e-02 1.982058e-01 2.583706e-02 4.744142e-02 -3.188110e-02 -3.110936e-02 2.656726e-02 -3.272623e-02 1.800917e-01
<VARIANCE> 39
 1.346036e+01 2.293340e+01 2.874245e+01 3.887900e+01 3.428433e+01 4.660841e+01 4.467517e+01 4.198155e+01 3.868140e+01 5.258192e+01 3.532776e+01 3.079462e+01 5.004955e+01 1.169925e+00 1.927893e+00 2.155544e+00 3.248110e+00 2.902007e+00 4.106058e+00 3.320161e+00 3.111390e+00 2.912031e+00 3.162324e+00 2.264912e+00 1.879004e+00 3.387568e+00 1.624707e-01 2.373285e-01 2.535024e-01 3.892790e-01 3.431954e-01 5.012791e-01 3.976636e-01 3.675562e-01 3.802333e-01 3.643650e-01 3.197193e-01 2.599169e-01 2.380063e-01
<GCONST> 1.151710e+02
<STATE> 3
<MEAN> 39
 -4.349634e+00 2.375932e+00 -3.661556e+00 -1.412632e+01 -3.712292e+00 -1.176428e+01 -4.953807e+00 -7.770406e+00 -2.688557e+00 -4.564239e+00 -4.971513e+00 -3.278795e+00 5.494928e+01 1.287368e-01 3.271422e-01 7.071570e-02 9.428780e-02 -8.585528e-02 -2.846287e-01 -2.163246e-01 -8.789069e-02 -1.433171e-01 1.112908e-02 -2.021804e-01 -1.317722e-01 -1.193626e-01 -6.298240e-01 -3.401707e-01 -2.908944e-01 5.449845e-01 -8.307026e-02 9.787656e-01 4.235236e-02 2.612709e-01 8.164606e-02 3.341034e-03 2.799590e-01 7.516579e-02 3.251804e-01
<VARIANCE> 39
 1.181673e+01 1.964076e+01 2.919718e+01 3.268201e+01 3.616176e+01 4.601297e+01 4.446566e+01 5.199020e+01 4.503454e+01 7.397124e+01 4.573072e+01 4.451355e+01 2.715316e+01 1.018674e+00 1.503829e+00 1.574215e+00 3.102026e+00 1.980153e+00 3.094426e+00 2.225017e+00 2.202229e+00 2.060674e+00 2.391931e+00 1.955012e+00 1.756171e+00 3.480885e+00 2.772042e-01 3.613622e-01 4.011651e-01 5.046798e-01 5.695114e-01 6.934807e-01 6.542712e-01 6.641439e-01 6.561254e-01 6.817346e-01 5.271755e-01 4.548571e-01 3.405721e-01
<GCONST> 1.186991e+02
<STATE> 4
<MEAN> 39
 -6.845038e+00 1.934823e+00 -3.968300e+00 -1.150833e+01 -5.196895e+00 -7.396235e+00 -5.582167e+00 -6.919197e+00 -2.086466e+00 -4.229723e+00 -3.898923e+00 -2.719762e+00 5.528200e+01 -1.413125e+00 -7.469534e-01 -6.863712e-01 1.116715e+00 -1.491256e-02 1.952828e+00 1.285787e-01 4.999408e-01 1.677067e-01 -8.850485e-03 5.383422e-01 1.449160e-01 8.273565e-01 -3.784149e-01 -3.832291e-01 -2.167721e-01 2.600651e-01 2.200459e-01 4.432670e-01 2.121404e-01 1.716576e-01 1.056017e-01 3.964332e-02 1.927723e-01 7.320682e-02 2.396162e-01
<VARIANCE> 39
 1.808117e+01 2.403397e+01 3.310019e+01 4.120445e+01 3.411069e+01 5.168931e+01 4.759092e+01 4.532681e+01 4.196247e+01 6.106599e+01 4.056320e+01 3.580960e+01 4.535814e+01 1.910403e+00 2.882881e+00 2.704490e+00 4.124372e+00 3.420548e+00 4.680777e+00 4.227608e+00 4.312455e+00 3.817664e+00 4.210374e+00 3.320273e+00 2.761909e+00 5.383578e+00 4.255797e-01 3.649808e-01 4.303891e-01 5.791065e-01 5.501969e-01 8.215149e-01 6.254346e-01 6.163552e-01 6.006253e-01 6.171308e-01 5.229867e-01 4.096567e-01 4.556130e-01
<GCONST> 1.272182e+02
<TRANSP> 5
 0.000000e+00 1.000000e+00 0.000000e+00 0.000000e+00 0.000000e+00
 0.000000e+00 5.477136e-01 4.522864e-01 0.000000e+00 0.000000e+00
 0.000000e+00 0.000000e+00 5.144024e-01 4.855976e-01 0.000000e+00
 0.000000e+00 0.000000e+00 0.000000e+00 4.297224e-01 5.702776e-01
 0.000000e+00 0.000000e+00 0.000000e+00 0.000000e+00 0.000000e+00
<ENDHMM>
~h "P"
<BEGINHMM>
<NUMSTATES> 5
<STATE> 2
<MEAN> 39
 -5.792926e+00 2.406939e+00 -8.578905e-01 -2.190440e+00 -4.873463e+00 -4.820011e+00 -3.022294e+00 -3.404076e+00 -3.111830e+00 -1.587649e+00 -1.702601e+00 -4.325125e-01 4.542551e+01 -4.624808e-01 8.836221e-01 1.131320e+00 1.796286e+00 1.772151e+00 1.395520e+00 5.532001e-01 1.124558e+00 8.206704e-01 7.594236e-01 1.040324e+00 7.551388e-01 -3.837553e+00 -6.776974e-01 -6.361656e-01 -5.701019e-01 -4.358864e-01 1.013475e-01 4.383961e-01 4.338620e-01 2.054358e-01 3.607217e-01 1.187808e-01 3.638335e-02 -3.511935e-02 9.762728e-01
<VARIANCE> 39
 1.853530e+01 2.271614e+01 1.973833e+01 2.849402e+01 3.132002e+01 3.399177e+01 3.179932e+01 3.513261e+01 3.117467e+01 2.762967e+01 2.546200e+01 2.049675e+01 2.677408e+01 2.601753e+00 2.887562e+00 2.682854e+00 3.275415e+00 2.859275e+00 3.301607e+00 3.415827e+00 3.834604e+00 3.186519e+00 2.699942e+00 2.498378e+00 1.888906e+00 4.198075e+00 3.040303e-01 3.609324e-01 3.841598e-01 4.674662e-01 5.533257e-01 6.014930e-01 5.778965e-01 5.715010e-01 5.452067e-01 4.752976e-01 4.379976e-01 3.671484e-01 7.996663e-01
<GCONST> 1.189540e+02
<STATE> 3
<MEAN> 39
 -9.305822e+00 1.338959e+00 -1.168254e+00 2.435412e-01 -1.693571e-01 9.778969e-01 1.345475e+00 1.545421e+00 1.205020e+00 1.492863e+00 1.138698e+00 1.144756e+00 3.943652e+01 -1.095173e+00 -5.029572e-01 -2.839738e-01 -2.267172e-01 3.026974e-01 6.206785e-01 4.360998e-01 3.647221e-01 4.485463e-01 1.166882e-01 1.085527e-01 -7.046705e-02 1.050658e+00 -1.787957e-01 -2.845839e-01 -3.098706e-01 -4.897183e-01 -4.188536e-01 -3.347017e-01 -2.422820e-01 -4.365394e-01 -2.533371e-01 -2.886408e-01 -3.176873e-01 -2.205497e-01 1.524617e+00
<VARIANCE> 39
 6.146119e+00 7.886926e+00 8.783409e+00 1.287651e+01 1.369506e+01 1.556149e+01 1.620141e+01 1.738376e+01 1.674243e+01 1.496214e+01 1.316428e+01 1.134689e+01 1.210408e+01 1.860135e+00 1.516922e+00 1.563617e+00 2.307165e+00 2.522920e+00 2.731872e+00 2.514078e+00 2.934021e+00 2.495611e+00 2.254249e+00 2.030772e+00 1.590172e+00 7.378299e+00 2.621305e-01 2.811228e-01 3.296855e-01 4.330003e-01 4.234589e-01 4.444182e-01 4.384910e-01 4.860190e-01 4.331560e-01 4.029081e-01 3.585359e-01 2.985362e-01 6.117725e-01
<GCONST> 1.032172e+02
<STATE> 4
<MEAN> 39
 -1.579496e+01 -2.800180e+00 -4.142106e+00 -2.828285e+00 -6.602604e-01 5.176135e-01 2.111557e-01 -1.166058e+00 6.122264e-01 -1.224144e-01 -6.949475e-01 -5.237899e-01 5.492065e+01 -6.639301e-02 -7.908825e-01 -7.976077e-01 -6.502733e-01 -3.292982e-01 -5.556065e-01 -5.720611e-01 -8.263406e-01 -4.581566e-01 -4.717656e-01 -4.547883e-01 -2.665499e-01 2.156815e+00 6.375059e-01 1.056906e-01 -1.122299e-01 -1.140317e-01 -2.182978e-01 -3.036963e-01 -2.085000e-01 -1.268733e-01 -1.905934e-01 -1.332534e-01 -7.044330e-02 -1.511594e-02 -3.955385e-01
<VARIANCE> 39
 1.606519e+01 2.453413e+01 2.269386e+01 2.997776e+01 3.333443e+01 2.688388e+01 2.666803e+01 2.514282e+01 2.273538e+01 2.130181e+01 1.830840e+01 1.522306e+01 3.016268e+01 3.567164e+00 2.659684e+00 2.642521e+00 3.616858e+00 3.724303e+00 3.644412e+00 3.232976e+00 3.091784e+00 2.829702e+00 2.543710e+00 2.173627e+00 1.918146e+00 6.285486e+00 3.706715e-01 3.691671e-01 4.652659e-01 6.036500e-01 6.447069e-01 6.495355e-01 6.083652e-01 6.009467e-01 5.646904e-01 5.114176e-01 4.444550e-01 4.006388e-01 8.928604e-01
<GCONST> 1.191430e+02
<TRANSP> 5
 0.000000e+00 1.000000e+00 0.000000e+00 0.000000e+00 0.000000e+00
 0.000000e+00 5.058583e-01 4.941417e-01 0.000000e+00 0.000000e+00
 0.000000e+00 0.000000e+00 7.133635e-01 2.866365e-01 0.000000e+00
 0.000000e+00 0.000000e+00 0.000000e+00 7.574294e-01 2.425706e-01
 0.000000e+00 0.000000e+00 0.000000e+00 0.000000e+00 0.000000e+00
<ENDHMM>
~h "R"
<BEGINHMM>
<NUMSTATES> 5
<STATE> 2
<MEAN> 39
 -5.965575e+00 -9.117662e+00 -3.360165e+00 -8.046867e+00 -1.188641e+01 -1.207770e+00 -3.428335e+00 -2.885967e+00 -2.030135e+00 -4.100497e+00 -2.420560e+00 -2.980031e+00 5.940279e+01 7.562200e-01 -9.487724e-01 -1.130817e-02 -8.894503e-01 -1.075014e+00 6.480252e-01 -4.180946e-01 -2.980773e-01 -2.927157e-02 -5.632957e-01 -1.881238e-01 -3.389204e-01 9.237272e-01 -4.149095e-01 2.295866e-01 -6.375443e-02 -9.369018e-02 5.308874e-01 8.691873e-02 5.346787e-02 7.628512e-02 -7.905189e-03 1.108065e-01 3.538011e-02 5.534009e-02 4.129452e-02
<VARIANCE> 39
 2.716617e+01 4.349461e+01 2.340364e+01 5.654323e+01 5.456441e+01 5.200932e+01 4.714943e+01 2.960358e+01 4.248573e+01 2.791548e+01 2.531972e+01 2.417706e+01 3.928346e+01 2.831327e+00 3.481755e+00 1.918113e+00 4.411678e+00 3.947491e+00 4.130839e+00 3.936505e+00 2.792691e+00 3.161181e+00 2.663000e+00 2.309263e+00 2.049905e+00 2.916149e+00 3.965990e-01 5.019265e-01 3.055229e-01 5.907844e-01 8.406914e-01 6.758365e-01 6.244407e-01 4.993471e-01 5.200775e-01 4.850352e-01 4.293544e-01 3.815696e-01 3.755504e-01
<GCONST> 1.234435e+02
<STATE> 3
<MEAN> 39
 -7.696880e+00 -1.171707e+01 -2.475150e+00 -1.288765e+01 -1.194643e+01 5.430505e+00 -5.020127e+00 -3.680193e+00 -2.523555e+00 -4.943328e+00 -2.580014e+00 -3.713403e+00 6.320981e+01 -2.936646e-01 4.924704e-01 -3.706022e-02 -7.705632e-01 6.987258e-01 -7.798105e-03 -3.962833e-01 6.967357e-02 -2.591965e-02 -2.022764e-02 -9.799559e-02 -2.025786e-02 1.819808e-01 -1.805936e-01 4.357992e-01 -1.568797e-01 2.083392e-01 5.082075e-01 -5.360349e-01 1.113433e-01 1.247139e-01 -6.195612e-02 1.771351e-01 8.100549e-03 1.077091e-01 -2.192419e-01
<VARIANCE> 39
 1.452637e+01 3.633258e+01 1.849811e+01 4.497182e+01 5.614626e+01 4.119180e+01 5.686079e+01 2.887227e+01 4.301463e+01 2.077083e+01 2.272316e+01 1.989052e+01 2.692866e+01 1.186443e+00 1.962593e+00 1.192571e+00 2.843803e+00 3.323709e+00 2.589910e+00 2.244555e+00 2.127886e+00 2.202538e+00 1.806848e+00 1.514579e+00 1.354123e+00 1.594303e+00 1.917810e-01 2.132614e-01 1.870102e-01 3.592616e-01 3.856410e-01 4.396414e-01 4.331008e-01 3.116673e-01 3.444407e-01 3.058871e-01 2.543498e-01 2.399602e-01 1.527659e-01
<GCONST> 1.077702e+02
<STATE> 4
<MEAN> 39
 -9.747277e+00 -8.087490e+00 -3.443496e+00 -1.452581e+01 -6.198917e+00 1.639563e+00 -6.406797e+00 -2.498982e+00 -3.718224e+00 -4.033637e+00 -2.899439e+00 -2.908212e+00 6.226452e+01 -4.452066e-01 1.427205e+00 -4.799710e-01 2.369224e-01 1.384529e+00 -1.502753e+00 3.694844e-01 3.294773e-02 -3.157206e-02 5.464861e-01 -8.977050e-02 2.385975e-01 -5.013032e-01 3.008436e-02 1.879261e-01 -9.733614e-02 5.516853e-01 -5.256062e-02 -2.469983e-01 3.040743e-01 -1.261424e-01 1.284773e-01 1.232865e-01 1.904435e-02 1.177608e-01 -3.364295e-01
<VARIANCE> 39
 1.741372e+01 4.373292e+01 2.963827e+01 6.420780e+01 5.442834e+01 4.382632e+01 5.899031e+01 4.304615e+01 4.530879e+01 3.164670e+01 3.177748e+01 2.791692e+01 4.481143e+01 1.338825e+00 2.446953e+00 2.281421e+00 3.166693e+00 3.717934e+00 3.376093e+00 3.143146e+00 2.902440e+00 3.305309e+00 2.814959e+00 2.217054e+00 1.941571e+00 2.835143e+00 2.378926e-01 2.905008e-01 3.185685e-01 5.300557e-01 5.525168e-01 6.064895e-01 5.618869e-01 5.387535e-01 5.564536e-01 4.939758e-01 4.393674e-01 3.550614e-01 2.585096e-01
<GCONST> 1.207349e+02
<TRANSP> 5
 0.000000e+00 1.000000e+00 0.000000e+00 0.000000e+00 0.000000e+00
 0.000000e+00 5.584729e-01 4.415271e-01 0.000000e+00 0.000000e+00
 0.000000e+00 0.000000e+00 5.651838e-01 4.348162e-01 0.000000e+00
 0.000000e+00 0.000000e+00 0.000000e+00 4.220376e-01 5.779624e-01
 0.000000e+00 0.000000e+00 0.000000e+00 0.000000e+00 0.000000e+00
<ENDHMM>
~h "S"
<BEGINHMM>
<NUMSTATES> 5
<STATE> 2
<MEAN> 39
 -1.518790e+01 1.792204e+00 -4.565635e+00 -3.110041e+00 -3.515831e+00 -2.892062e-01 -3.305356e+00 -2.865930e+00 -4.111124e-01 -2.208206e+00 -2.338518e+00 -1.390984e+00 5.520720e+01 -2.345609e+00 -9.271952e-02 -6.354390e-02 2.023216e+00 1.294963e+00 1.455291e+00 7.359609e-01 1.735750e+00 4.833195e-01 9.533641e-01 1.152231e+00 8.974612e-01 -1.011613e+00 1.829983e-01 -3.252264e-01 -2.418928e-01 -3.921818e-01 -1.929920e-01 -1.480922e-01 1.871629e-01 -2.330065e-02 7.760411e-02 2.761734e-02 4.300354e-02 6.373663e-02 1.490374e-01
<VARIANCE> 39
 2.046006e+01 1.999167e+01 1.386919e+01 2.576983e+01 2.451736e+01 2.559182e+01 2.958580e+01 3.204460e+01 2.287967e+01 3.501871e+01 2.330486e+01 1.972655e+01 2.099054e+01 1.456449e+00 2.456228e+00 2.114777e+00 3.314629e+00 2.912147e+00 2.772331e+00 3.576257e+00 3.600859e+00 2.677045e+00 3.725418e+00 2.784055e+00 2.350763e+00 1.314375e+00 4.285484e-01 3.693462e-01 3.330069e-01 5.071521e-01 4.850239e-01 5.308169e-01 5.491461e-01 6.350495e-01 4.854584e-01 5.582283e-01 4.878180e-01 3.983630e-01 1.991056e-01
<GCONST> 1.144547e+02
<STATE> 3
<MEAN> 39
 -1.982342e+01 1.922635e-01 -5.888088e+00 -2.895921e-01 -1.839281e+00 2.213692e+00 -8.194868e-01 1.074709e+00 1.177407e+00 3.878451e-01 2.732432e-01 9.207112e-01 5.261250e+01 -1.594647e-01 5.281757e-02 -2.490783e-02 1.579759e-01 2.438286e-02 1.329940e-01 1.523351e-01 1.371479e-01 7.976986e-02 1.366739e-01 8.258764e-02 8.729089e-02 -2.228069e-01 3.563404e-01 8.390053e-02 6.739333e-02 -2.252721e-01 -1.478040e-01 -1.681641e-01 -8.608233e-02 -2.419572e-01 -8.300374e-02 -1.310311e-01 -1.429032e-01 -1.163950e-01 7.362170e-02
<VARIANCE> 39
 6.436396e+00 1.231319e+01 1.087753e+01 1.369401e+01 1.550340e+01 1.569603e+01 1.578364e+01 1.570459e+01 1.579017e+01 1.554468e+01 1.435125e+01 1.149690e+01 1.652534e+01 5.561011e-01 9.160205e-01 9.058066e-01 1.226843e+00 1.214136e+00 1.414868e+00 1.594130e+00 1.690690e+00 1.590055e+00 1.602800e+00 1.411558e+00 1.218995e+00 7.950455e-01 1.771623e-01 1.824728e-01 1.999052e-01 3.022583e-01 3.024938e-01 3.389014e-01 3.629190e-01 4.015726e-01 3.416767e-01 3.639055e-01 3.230644e-01 2.689806e-01 1.746466e-01
<GCONST> 9.097256e+01
<STATE> 4
<MEAN> 39
 -1.788383e+01 1.240122e+00 -5.081741e+00 -1.075448e+00 -2.492815e+00 1.824326e+00 -5.084964e-01 -1.582554e-01 9.032972e-01 -8.668001e-02 -2.503611e-01 4.036660e-01 5.270164e+01 1.831126e+00 -8.657389e-02 1.597888e-02 -1.168811e+00 -8.249154e-01 -9.217074e-01 -5.918008e-02 -9.338341e-01 -3.887463e-01 -4.426653e-01 -3.560500e-01 -2.523673e-01 1.844717e-01 4.344244e-01 -2.531634e-01 -1.377004e-01 -3.503588e-01 -1.864218e-01 -2.877727e-01 -3.194441e-02 -2.061702e-01 -1.209413e-01 -1.154041e-01 -1.051401e-01 -8.131053e-02 2.223018e-01
<VARIANCE> 39
 1.700874e+01 2.114506e+01 1.766248e+01 2.387652e+01 2.316004e+01 2.168476e+01 2.161834e+01 2.200624e+01 1.993356e+01 2.073026e+01 1.840384e+01 1.409607e+01 2.759981e+01 2.289649e+00 2.449906e+00 2.628357e+00 4.163442e+00 3.207514e+00 2.939367e+00 2.815301e+00 3.510804e+00 2.268939e+00 2.529869e+00 2.159243e+00 1.685225e+00 4.390237e+00 3.563186e-01 3.949061e-01 4.368378e-01 5.940803e-01 5.867000e-01 5.192659e-01 5.166134e-01 6.054698e-01 4.598807e-01 4.613994e-01 4.230892e-01 3.505152e-01 6.145477e-01
<GCONST> 1.144547e+02
<TRANSP> 5
 0.000000e+00 1.000000e+00 0.000000e+00 0.000000e+00 0.000000e+00
 0.000000e+00 6.121562e-01 3.878439e-01 0.000000e+00 0.000000e+00
 0.000000e+00 0.000000e+00 8.257999e-01 1.742001e-01 0.000000e+00
 0.000000e+00 0.000000e+00 0.000000e+00 5.956454e-01 4.043546e-01
 0.000000e+00 0.000000e+00 0.000000e+00 0.000000e+00 0.000000e+00
<ENDHMM>
~h "T"
<BEGINHMM>
<NUMSTATES> 5
<STATE> 2
<MEAN> 39
 -1.019601e+01 2.928699e+00 -1.969398e+00 -3.101207e+00 -2.467451e+00 -7.355314e-01 -3.606156e-01 -1.029617e+00 3.813677e-01 -1.801030e-01 -2.111609e-01 4.097772e-01 4.545750e+01 -7.577205e-01 -1.887887e-01 5.129486e-03 1.099962e+00 7.030424e-01 4.392064e-01 4.077439e-01 7.116264e-01 2.051063e-01 3.719505e-01 4.650290e-01 2.113552e-01 -6.233643e-01 -3.865129e-01 -3.846226e-01 -5.548183e-01 -5.223447e-01 -1.558701e-01 -5.370759e-02 -7.678248e-02 -1.062094e-01 1.061768e-02 -2.065454e-01 -1.283776e-01 -1.464512e-01 1.238204e+00
<VARIANCE> 39
 2.169478e+01 2.496356e+01 2.219609e+01 4.704286e+01 3.058673e+01 3.509833e+01 3.227609e+01 3.531676e+01 2.805995e+01 2.788443e+01 2.253163e+01 1.764989e+01 5.842349e+01 3.443643e+00 3.171585e+00 3.476899e+00 5.140640e+00 3.102914e+00 3.645959e+00 3.307945e+00 3.384331e+00 2.781963e+00 3.091528e+00 2.324537e+00 1.931425e+00 9.472575e+00 4.685617e-01 4.780968e-01 4.839243e-01 7.290980e-01 5.498693e-01 6.333556e-01 6.109943e-01 6.183450e-01 5.423208e-01 5.302026e-01 4.229186e-01 3.569554e-01 1.092333e+00
<GCONST> 1.240586e+02
<STATE> 3
<MEAN> 39
 -1.736635e+01 6.097459e-01 -6.862679e+00 -3.383615e+00 -1.762130e+00 -1.034239e-01 6.585097e-02 5.522612e-01 1.041773e+00 -8.271039e-01 3.000964e-01 -4.205772e-01 5.470692e+01 -9.227225e-01 -1.389116e-01 -7.264654e-01 -8.116789e-01 -4.854854e-02 6.874274e-02 -2.449478e-01 -1.905801e-01 2.010892e-01 -4.213664e-01 -1.742163e-01 -8.003374e-02 1.866930e+00 6.398938e-01 6.243905e-02 2.862358e-01 -3.844353e-01 -1.843905e-01 -1.743349e-01 -2.241369e-01 -4.015808e-01 -1.274789e-01 -9.888714e-02 -2.249733e-01 -1.442486e-02 -2.396010e-01
<VARIANCE> 39
 2.829369e+01 2.754163e+01 2.459893e+01 3.279554e+01 2.425628e+01 2.513082e+01 2.227090e+01 2.548681e+01 2.112942e+01 2.114880e+01 1.738323e+01 1.483148e+01 4.558829e+01 2.962066e+00 2.468689e+00 3.101337e+00 3.500546e+00 2.843045e+00 3.025998e+00 2.730762e+00 2.989866e+00 2.534315e+00 2.525062e+00 2.204902e+00 1.838662e+00 6.905435e+00 4.676888e-01 5.943580e-01 6.315649e-01 7.029449e-01 5.930096e-01 5.949260e-01 5.698739e-01 5.841658e-01 5.236033e-01 5.428358e-01 4.559575e-01 3.734485e-01 1.115565e+00
<GCONST> 1.199184e+02
<STATE> 4
<MEAN> 39
 -1.596294e+01 1.782495e-01 -5.132617e+00 -6.448836e+00 -2.040488e+00 -2.401812e-01 -1.602929e+00 -2.607736e+00 1.066114e+00 -1.506439e+00 -1.277355e+00 -7.228550e-02 5.579285e+01 1.241539e+00 -5.445881e-01 1.620731e-01 -1.014399e+00 -7.313664e-01 -5.210600e-01 -5.372087e-01 -8.883358e-01 -4.563682e-01 -3.012275e-01 -5.283436e-01 -2.530217e-01 4.803726e-01 3.955976e-01 -1.849943e-01 -8.514932e-02 -2.979292e-02 -2.212685e-01 -1.395737e-01 2.117551e-02 2.091020e-02 -1.838422e-01 -2.936367e-02 -3.021497e-02 -1.250786e-01 3.913018e-03
<VARIANCE> 39
 3.168107e+01 3.192763e+01 2.581278e+01 4.308937e+01 3.872772e+01 3.667599e+01 3.326628e+01 3.211406e+01 2.779628e+01 2.955505e+01 2.579043e+01 2.205586e+01 4.449463e+01 3.006668e+00 2.837951e+00 2.797459e+00 5.256548e+00 4.001947e+00 3.877468e+00 3.539122e+00 3.669616e+00 3.028432e+00 2.910269e+00 2.668595e+00 2.268446e+00 3.880774e+00 4.335285e-01 3.917046e-01 4.719999e-01 5.952412e-01 6.451622e-01 6.441490e-01 5.770013e-01 5.867859e-01 5.642080e-01 5.324099e-01 4.951838e-01 4.213107e-01 6.141526e-01
<GCONST> 1.239031e+02
<TRANSP> 5
 0.000000e+00 1.000000e+00 0.000000e+00 0.000000e+00 0.000000e+00
 0.000000e+00 5.809841e-01 4.190159e-01 0.000000e+00 0.000000e+00
 0.000000e+00 0.000000e+00 5.101670e-01 4.898329e-01 0.000000e+00
 0.000000e+00 0.000000e+00 0.000000e+00 4.904904e-01 5.095096e-01
 0.000000e+00 0.000000e+00 0.000000e+00 0.000000e+00 0.000000e+00
<ENDHMM>
~h "V"
<BEGINHMM>
<NUMSTATES> 5
<STATE> 2
<MEAN> 39
 -8.097997e+00 9.028108e-01 -3.176460e+00 -3.721893e+00 -8.127514e+00 -7.529335e+00 -2.949543e+00 -4.056234e+00 -4.082925e+00 -4.081905e+00 -3.665315e+00 -3.188916e+00 5.325335e+01 -1.121643e+00 1.395554e+00 1.451381e+00 7.215996e-01 6.930749e-01 6.763391e-01 -8.720564e-01 -1.513897e-01 2.548027e-01 4.540075e-02 2.857321e-01 2.344046e-01 -1.454443e+00 -2.195297e-01 -4.805627e-01 -4.403034e-01 -3.876139e-01 1.502827e-01 3.931217e-01 2.453910e-01 -9.742944e-02 9.443715e-02 1.074409e-01 1.894625e-02 1.062688e-01 5.985778e-01
<VARIANCE> 39
 1.697293e+01 1.988676e+01 1.933582e+01 2.667926e+01 2.913217e+01 2.833037e+01 2.816280e+01 3.349656e+01 2.541165e+01 2.255797e+01 2.508824e+01 2.185776e+01 2.491539e+01 2.127388e+00 2.546888e+00 2.759164e+00 2.574404e+00 2.564858e+00 3.183800e+00 3.281588e+00 2.876734e+00 2.333928e+00 2.128875e+00 2.022221e+00 1.742837e+00 2.522009e+00 3.973634e-01 4.685715e-01 4.038042e-01 4.850372e-01 5.133272e-01 5.419062e-01 5.249893e-01 4.674264e-01 4.365379e-01 3.657427e-01 3.372877e-01 3.166100e-01 4.394998e-01
<GCONST> 1.140774e+02
<STATE> 3
<MEAN> 39
 -1.121784e+01 4.294862e-01 -3.437815e+00 -5.370470e+00 -7.426135e+00 -5.486381e+00 -3.762849e+00 -4.806927e+00 -2.594972e+00 -2.932975e+00 -2.226952e+00 -1.325858e+00 5.415171e+01 -6.420485e-01 1.585378e-01 3.064948e-01 -1.539998e-01 4.584229e-01 8.495917e-01 -7.385018e-02 6.064676e-02 3.431089e-01 2.184519e-01 1.558643e-01 1.900485e-01 -2.143959e-01 2.194442e-01 -2.958503e-01 -3.118440e-01 -1.228044e-01 5.198727e-02 6.415646e-02 2.475035e-01 1.026426e-01 -2.655351e-02 2.118516e-02 -2.855808e-02 -3.875959e-03 2.038330e-01
<VARIANCE> 39
 2.750122e+01 2.472054e+01 2.254014e+01 3.465392e+01 3.588323e+01 3.880871e+01 3.533410e+01 3.602364e+01 3.239805e+01 3.382008e+01 3.942455e+01 3.740809e+01 3.154320e+01 2.373462e+00 3.028686e+00 3.156843e+00 3.343580e+00 3.273787e+00 3.404918e+00 3.243071e+00 3.259454e+00 2.897222e+00 2.545000e+00 2.599747e+00 2.341593e+00 4.066119e+00 5.084133e-01 5.044630e-01 4.539781e-01 6.065951e-01 5.710483e-01 6.980386e-01 6.239336e-01 5.469424e-01 5.233479e-01 5.006679e-01 4.741377e-01 4.362834e-01 6.188930e-01
<GCONST> 1.232596e+02
<STATE> 4
<MEAN> 39
 -1.072977e+01 8.646521e-01 -3.177415e+00 -5.608696e+00 -7.560204e+00 -5.228128e+00 -3.338518e+00 -4.846563e+00 -2.993422e+00 -3.652999e+00 -3.906094e+00 -2.821990e+00 5.437645e+01 -1.772050e-01 8.240636e-02 1.750535e-01 -5.116269e-03 5.118469e-01 7.356812e-01 1.087619e-01 1.621501e-01 2.086390e-01 2.045348e-01 2.088515e-01 2.816167e-01 -4.420140e-01 1.541891e-01 -1.862483e-01 -2.203262e-01 -4.803058e-03 5.298435e-02 -4.276696e-02 1.677408e-01 1.230711e-01 1.228842e-02 3.226055e-02 8.104229e-02 4.978837e-02 5.720212e-02
<VARIANCE> 39
 2.340122e+01 2.321788e+01 1.917635e+01 2.859527e+01 2.921260e+01 3.017552e+01 2.933215e+01 3.018075e+01 2.477954e+01 2.669304e+01 2.734740e+01 2.299009e+01 2.701990e+01 2.184062e+00 2.714604e+00 2.454928e+00 3.279744e+00 2.807877e+00 2.597266e+00 2.589818e+00 2.660011e+00 2.333058e+00 2.007062e+00 1.920511e+00 1.719583e+00 4.060323e+00 3.072715e-01 3.215852e-01 3.340844e-01 3.614452e-01 3.995134e-01 4.461603e-01 4.691592e-01 4.193798e-01 3.866705e-01 3.793296e-01 3.396185e-01 2.963040e-01 3.773207e-01
<GCONST> 1.130369e+02
<TRANSP> 5
 0.000000e+00 1.000000e+00 0.000000e+00 0.000000e+00 0.000000e+00
 0.000000e+00 5.231568e-01 4.768431e-01 0.000000e+00 0.000000e+00
 0.000000e+00 0.000000e+00 2.888007e-01 7.111993e-01 0.000000e+00
 0.000000e+00 0.000000e+00 0.000000e+00 3.592588e-01 6.407412e-01
 0.000000e+00 0.000000e+00 0.000000e+00 0.000000e+00 0.000000e+00
<ENDHMM>
~h "W"
<BEGINHMM>
<NUMSTATES> 5
<STATE> 2
<MEAN> 39
 -1.917694e+00 -1.888446e+00 -1.178721e+01 -7.169607e+00 -4.228198e+00 -7.358393e+00 -5.270906e+00 -3.104213e+00 -2.074940e+00 -1.358835e+00 -3.139629e+00 -3.115288e+00 5.376757e+01 6.676842e-01 -2.928567e-01 -1.087127e+00 -8.723522e-02 1.461568e-01 -5.072753e-01 -4.156779e-01 5.369829e-02 3.664505e-03 -1.906367e-01 -3.498272e-01 -2.495226e-01 5.735908e-01 -4.076976e-01 -2.291255e-01 1.448924e-01 5.432136e-02 -1.886762e-01 9.669476e-02 3.925161e-01 1.126916e-01 -5.555983e-02 -1.399771e-01 1.269266e-03 5.774419e-02 3.816332e-01
<VARIANCE> 39
 2.092612e+01 2.565842e+01 4.939313e+01 2.879540e+01 3.671101e+01 3.751238e+01 3.499800e+01 3.676517e+01 3.301418e+01 3.130872e+01 3.609127e+01 2.746457e+01 3.732706e+01 2.157593e+00 2.547199e+00 3.566204e+00 3.584308e+00 3.555547e+00 4.063167e+00 3.341328e+00 3.588031e+00 3.314635e+00 2.795845e+00 2.450055e+00 1.963685e+00 4.031960e+00 2.569863e-01 3.537338e-01 6.269143e-01 6.137422e-01 6.353701e-01 7.254198e-01 7.279813e-01 6.825677e-01 6.211107e-01 5.164612e-01 4.395363e-01 3.837097e-01 3.278130e-01
<GCONST> 1.228091e+02
<STATE> 3
<MEAN> 39
 -3.691703e+00 -6.486815e+00 -1.392841e+01 -5.024457e+00 -5.334211e+00 -1.037518e+01 -3.792768e+00 4.401777e-01 -2.158561e+00 -4.753028e+00 -4.858245e+00 -2.396277e+00 5.860174e+01 -7.612091e-01 -1.229519e+00 1.982070e-01 2.258527e-01 -1.602710e+00 -3.361995e-01 1.824745e+00 2.556720e-01 -1.213163e+00 -6.717612e-01 1.633832e-01 -5.676862e-03 1.952188e+00 -4.598154e-01 2.880446e-01 7.182127e-01 -3.843285e-01 -2.282149e-01 8.384011e-01 3.705920e-01 -7.073613e-01 -1.058479e-01 4.270406e-01 1.912609e-01 -8.354566e-02 -1.170793e-01
<VARIANCE> 39
 1.414494e+01 2.439727e+01 4.459914e+01 2.852295e+01 4.296357e+01 3.812139e+01 3.703555e+01 4.485740e+01 3.912186e+01 2.987197e+01 3.534311e+01 2.824305e+01 2.916267e+01 1.710181e+00 1.725724e+00 3.206818e+00 3.848335e+00 3.336973e+00 3.247761e+00 3.756134e+00 3.947543e+00 2.948435e+00 2.856323e+00 2.880678e+00 2.564539e+00 2.368573e+00 2.836190e-01 2.448443e-01 4.589308e-01 5.970509e-01 6.001916e-01 6.734615e-01 6.232368e-01 6.526854e-01 7.860920e-01 5.033008e-01 4.627014e-01 3.852383e-01 2.816159e-01
<GCONST> 1.208098e+02
<STATE> 4
<MEAN> 39
 -6.802065e+00 -7.600618e+00 -1.036753e+01 -6.676997e+00 -1.071439e+01 -7.531037e+00 2.340612e+00 -2.842701e+00 -6.168589e+00 -2.919276e+00 -3.681616e+00 -3.616347e+00 6.154956e+01 -1.259869e+00 5.105203e-02 1.137021e+00 -1.555614e+00 -1.019602e+00 2.063799e+00 7.901108e-01 -1.969758e+00 1.038186e-01 5.369477e-01 -3.658914e-01 -2.983271e-01 1.299457e+00 -1.228056e-02 6.133582e-01 1.846173e-01 -3.404293e-01 6.654203e-01 3.241006e-01 -8.286442e-01 -2.197127e-01 7.074667e-01 -1.002802e-02 -1.283153e-01 1.394306e-01 -5.401514e-01
<VARIANCE> 39
 1.246155e+01 2.855381e+01 3.333416e+01 3.594350e+01 4.005505e+01 3.887278e+01 3.607277e+01 5.508813e+01 3.535699e+01 3.012246e+01 3.970895e+01 2.922036e+01 2.871231e+01 1.189505e+00 1.471257e+00 2.390151e+00 3.606761e+00 3.156876e+00 3.705038e+00 4.056547e+00 3.167306e+00 3.629952e+00 2.666483e+00 2.464792e+00 2.173113e+00 1.279891e+00 2.466046e-01 2.447140e-01 4.550025e-01 6.143925e-01 5.866989e-01 7.275481e-01 6.635985e-01 8.119599e-01 6.153700e-01 6.406068e-01 5.326424e-01 3.897500e-01 2.741777e-01
<GCONST> 1.195421e+02
<TRANSP> 5
 0.000000e+00 1.000000e+00 0.000000e+00 0.000000e+00 0.000000e+00
 0.000000e+00 7.009743e-01 2.990257e-01 0.000000e+00 0.000000e+00
 0.000000e+00 0.000000e+00 4.159819e-01 5.840181e-01 0.000000e+00
 0.000000e+00 0.000000e+00 0.000000e+00 3.866512e-01 6.133487e-01
 0.000000e+00 0.000000e+00 0.000000e+00 0.000000e+00 0.000000e+00
<ENDHMM>
~h "Y"
<BEGINHMM>
<NUMSTATES> 5
<STATE> 2
<MEAN> 39
 -1.023045e+01 8.213933e+00 -5.696486e+00 -7.070074e+00 -3.596342e+00 -6.736718e+00 -3.226322e+00 -2.596068e+00 -1.268997e+00 -9.494185e-01 -1.003270e+00 -6.341766e-01 5.182125e+01 2.716288e-01 1.430606e+00 -1.331384e+00 -1.649281e+00 -6.322596e-01 -1.841295e+00 -8.363996e-01 -5.402038e-01 -6.464502e-01 -4.297491e-01 -3.711536e-01 -3.236491e-01 1.396493e+00 1.979952e-02 -2.206780e-01 -1.254386e-01 -2.496772e-01 -1.007738e-02 2.318436e-02 8.692742e-02 4.065239e-02 -3.517905e-02 -6.815701e-02 -1.206040e-01 -1.288105e-01 2.993292e-01
<VARIANCE> 39
 2.565023e+01 3.093560e+01 4.215604e+01 7.357932e+01 3.505411e+01 5.217243e+01 4.290054e+01 3.244029e+01 3.365885e+01 3.186161e+01 3.156966e+01 2.937886e+01 6.540020e+01 2.667861e+00 2.388499e+00 3.816136e+00 6.135728e+00 4.152647e+00 4.538825e+00 4.005361e+00 3.380130e+00 3.118216e+00 2.636636e+00 2.855772e+00 2.440179e+00 3.939766e+00 3.699931e-01 4.133763e-01 5.084000e-01 9.597417e-01 6.142315e-01 8.312493e-01 7.007502e-01 5.715804e-01 5.147200e-01 4.779828e-01 4.208168e-01 4.377942e-01 4.364939e-01
<GCONST> 1.269951e+02
<STATE> 3
<MEAN> 39
 -1.024279e+01 1.146270e+01 -1.278370e+01 -1.330142e+01 -5.066849e+00 -1.370344e+01 -3.258045e+00 -4.974804e+00 -3.866710e+00 -3.298123e+00 -4.657100e+00 -3.643589e+00 5.867167e+01 -3.281213e-01 -1.515627e-01 -4.385464e-01 -1.159990e+00 4.743038e-01 -2.293174e-01 3.412220e-01 3.349376e-01 -2.148855e-02 -1.134278e-01 -1.673624e-01 -3.231205e-01 1.003864e+00 -5.256576e-03 -6.080595e-01 4.746041e-01 5.107610e-03 8.969169e-02 5.785642e-01 -7.870510e-02 1.739155e-01 6.544968e-02 -1.872619e-03 1.413108e-01 7.273284e-02 -7.173185e-02
<VARIANCE> 39
 1.125827e+01 2.142094e+01 4.392739e+01 3.057006e+01 2.308144e+01 3.371334e+01 3.306285e+01 3.017493e+01 2.819270e+01 2.397927e+01 3.938326e+01 3.089199e+01 2.206896e+01 8.627316e-01 2.217932e+00 2.070271e+00 3.384661e+00 1.982351e+00 2.299045e+00 2.252830e+00 1.926417e+00 1.632285e+00 1.736693e+00 1.947183e+00 2.049582e+00 1.916542e+00 1.742037e-01 2.025619e-01 3.293635e-01 5.385195e-01 4.601680e-01 4.861050e-01 5.191836e-01 3.588160e-01 3.362284e-01 2.938156e-01 3.627134e-01 2.942595e-01 1.884965e-01
<GCONST> 1.088263e+02
<STATE> 4
<MEAN> 39
 -1.166717e+01 6.030841e+00 -9.061032e+00 -1.937248e+01 -2.430448e+00 -8.775628e+00 -4.963190e+00 -8.078430e-01 -3.423095e+00 -3.941098e+00 -2.872542e+00 -4.087348e+00 6.278320e+01 3.447090e-02 -1.752733e+00 8.630524e-01 -5.836844e-01 -1.962211e-01 1.811969e+00 -6.330518e-01 7.640699e-02 2.462753e-01 -4.937035e-01 2.111407e-01 2.051159e-01 5.824509e-01 1.525623e-01 -1.641430e-01 1.232000e-01 5.912399e-01 -3.294418e-01 2.093321e-01 6.806381e-03 -4.117505e-01 1.485298e-01 2.307448e-02 -3.649332e-02 1.643908e-01 -2.553725e-01
<VARIANCE> 39
 1.093766e+01 2.862994e+01 4.528397e+01 2.496025e+01 2.324277e+01 4.218295e+01 3.930188e+01 2.802931e+01 2.939598e+01 2.458769e+01 3.210308e+01 2.972919e+01 2.906602e+01 4.877706e-01 1.554721e+00 1.112285e+00 1.615784e+00 2.901928e+00 2.150676e+00 2.467160e+00 2.284522e+00 1.766316e+00 1.562447e+00 2.136652e+00 1.624120e+00 8.032954e-01 8.830401e-02 1.623192e-01 2.096744e-01 3.808563e-01 3.334575e-01 3.919054e-01 4.975714e-01 3.423498e-01 3.489699e-01 3.136027e-01 3.122938e-01 2.825954e-01 9.106755e-02
<GCONST> 1.034570e+02
<TRANSP> 5
 0.000000e+00 1.000000e+00 0.000000e+00 0.000000e+00 0.000000e+00
 0.000000e+00 5.962901e-01 4.037099e-01 0.000000e+00 0.000000e+00
 0.000000e+00 0.000000e+00 7.093677e-01 2.906323e-01 0.000000e+00
 0.000000e+00 0.000000e+00 0.000000e+00 6.601612e-01 3.398388e-01
 0.000000e+00 0.000000e+00 0.000000e+00 0.000000e+00 0.000000e+00
<ENDHMM>
~h "Z"
<BEGINHMM>
<NUMSTATES> 5
<STATE> 2
<MEAN> 39
 -8.776499e+00 4.521461e+00 -4.732260e+00 -8.851050e+00 -1.104988e+01 -4.718788e+00 -4.542931e+00 -5.505166e+00 -4.078049e-01 -3.153604e+00 -5.298381e+00 -3.303895e+00 5.507621e+01 -1.609549e+00 1.130628e+00 5.877280e-01 2.692176e+00 1.131080e+00 9.774963e-01 -3.936072e-01 9.007165e-01 -3.957930e-01 5.559229e-01 5.309959e-01 4.930872e-01 -1.562250e+00 -4.831888e-01 -4.496124e-01 -1.503521e-01 1.721765e-01 5.453039e-01 3.248207e-01 3.493571e-01 2.518613e-01 1.960945e-02 8.075982e-02 3.206871e-01 2.049480e-01 1.415405e-01
<VARIANCE> 39
 1.153237e+01 1.779056e+01 1.564360e+01 3.404533e+01 2.291903e+01 2.220331e+01 3.330551e+01 2.659021e+01 2.672405e+01 5.297482e+01 2.707235e+01 2.726182e+01 2.084610e+01 1.802220e+00 2.054300e+00 1.946942e+00 2.937535e+00 3.027156e+00 2.911917e+00 2.650925e+00 2.703547e+00 2.633277e+00 2.726675e+00 2.421848e+00 2.083390e+00 1.144499e+00 2.297516e-01 3.000592e-01 2.567659e-01 4.657484e-01 3.912718e-01 4.120309e-01 4.718302e-01 4.251154e-01 4.627768e-01 5.161755e-01 3.763739e-01 3.563565e-01 1.711562e-01
<GCONST> 1.106815e+02
<STATE> 3
<MEAN> 39
 -1.534253e+01 4.908989e+00 -3.554797e+00 -8.280898e-01 -4.651962e+00 -6.016099e-01 -3.803396e+00 -2.211179e+00 -1.152433e+00 -1.591624e+00 -1.938718e+00 -9.416772e-01 5.167262e+01 -2.070740e+00 -6.840208e-01 -7.608569e-02 1.719180e+00 1.777600e+00 1.561225e+00 9.656498e-01 1.250426e+00 4.776171e-01 7.598178e-01 1.111000e+00 8.973958e-01 -7.019891e-01 5.397027e-01 -4.701463e-01 -2.907545e-01 -9.237545e-01 -4.033138e-01 -3.055669e-01 2.404211e-01 -1.933232e-01 2.028010e-01 -1.122724e-01 -1.364526e-01 -1.149297e-01 4.633856e-01
<VARIANCE> 39
 1.503732e+01 2.116578e+01 1.341575e+01 2.075964e+01 2.387917e+01 2.362281e+01 2.491360e+01 2.232108e+01 2.170344e+01 2.723260e+01 2.021921e+01 1.795869e+01 1.823860e+01 1.540872e+00 1.594786e+00 1.605873e+00 2.769336e+00 2.318320e+00 2.336843e+00 2.776885e+00 2.638719e+00 2.386323e+00 3.070252e+00 2.357289e+00 2.063636e+00 1.127182e+00 2.735782e-01 3.932106e-01 3.474924e-01 4.553745e-01 5.020831e-01 4.816750e-01 5.032387e-01 4.881580e-01 4.939110e-01 4.612538e-01 4.065783e-01 3.478768e-01 2.758258e-01
<GCONST> 1.090521e+02
<STATE> 4
<MEAN> 39
 -1.812720e+01 1.839622e+00 -5.175876e+00 -5.805989e-01 -2.993508e+00 2.025676e+00 -7.517930e-01 1.663170e-01 1.014978e+00 3.241197e-01 -3.523199e-01 6.417253e-01 5.152382e+01 4.002805e-01 -3.587940e-01 1.665811e-02 -3.302613e-01 -5.095327e-02 -1.117481e-01 2.846508e-01 7.190993e-04 7.071202e-02 3.829451e-02 6.370448e-02 3.901099e-02 -1.781502e-01 5.620731e-01 3.573574e-02 5.768643e-02 -3.357663e-01 -2.650962e-01 -3.207930e-01 -1.207382e-01 -2.415548e-01 -1.115007e-01 -1.391537e-01 -1.744508e-01 -1.538530e-01 3.475791e-02
<VARIANCE> 39
 1.543381e+01 2.154387e+01 1.474481e+01 2.173845e+01 2.402112e+01 2.231065e+01 2.171327e+01 2.069305e+01 1.987971e+01 2.032495e+01 1.844377e+01 1.439396e+01 2.040785e+01 2.096102e+00 1.608003e+00 1.719909e+00 2.662357e+00 2.296164e+00 2.264942e+00 2.267850e+00 2.242659e+00 2.068586e+00 2.014418e+00 1.821725e+00 1.469699e+00 2.380356e+00 3.493969e-01 3.286345e-01 3.456048e-01 5.541685e-01 5.452268e-01 4.929836e-01 4.879517e-01 4.972726e-01 4.352989e-01 4.492012e-01 4.113774e-01 3.291241e-01 4.161635e-01
<GCONST> 1.084804e+02
<TRANSP> 5
 0.000000e+00 1.000000e+00 0.000000e+00 0.000000e+00 0.000000e+00
 0.000000e+00 5.637377e-01 4.362623e-01 0.000000e+00 0.000000e+00
 0.000000e+00 0.000000e+00 4.771177e-01 5.228823e-01 0.000000e+00
 0.000000e+00 0.000000e+00 0.000000e+00 7.308602e-01 2.691398e-01
 0.000000e+00 0.000000e+00 0.000000e+00 0.000000e+00 0.000000e+00
<ENDHMM>
~h "CH"
<BEGINHMM>
<NUMSTATES> 5
<STATE> 2
<MEAN> 39
 -1.254598e+01 4.665302e+00 -2.146828e+00 -1.890496e+00 -2.202966e+00 -1.057761e+00 -2.906814e-01 -1.125949e+00 7.373036e-01 -4.285129e-01 3.145531e-01 1.232054e-01 4.594444e+01 -2.020990e+00 3.600913e-02 -3.526241e-01 1.647460e+00 1.037852e+00 8.818219e-01 8.369599e-01 9.500387e-01 4.368138e-01 5.547748e-01 6.774912e-01 3.960046e-01 -3.436975e-01 -4.418592e-01 -1.573018e-01 -5.906709e-01 -4.816404e-01 -1.775463e-01 -1.567140e-01 -2.698990e-02 -1.180760e-01 -4.283443e-03 -1.213573e-01 -1.299749e-01 -1.372755e-01 1.188975e+00
<VARIANCE> 39
 3.114630e+01 2.761831e+01 2.146200e+01 3.064717e+01 2.652182e+01 2.731299e+01 3.000660e+01 2.916839e+01 2.378513e+01 2.336962e+01 1.900809e+01 1.556508e+01 4.319336e+01 4.220289e+00 3.398654e+00 3.612390e+00 4.771659e+00 2.944976e+00 3.423452e+00 3.064733e+00 3.169703e+00 2.650691e+00 2.987386e+00 2.350646e+00 2.006450e+00 9.786919e+00 6.399045e-01 6.734266e-01 4.985640e-01 6.740735e-01 5.095250e-01 5.551689e-01 6.226597e-01 6.070989e-01 4.961273e-01 5.238724e-01 4.141683e-01 3.364823e-01 9.149655e-01
<GCONST> 1.224803e+02
<STATE> 3
<MEAN> 39
 -2.439241e+01 7.806137e+00 -7.804605e+00 -7.813065e-01 -2.907864e-01 -1.885291e-02 7.011013e-01 -2.100261e-01 1.874383e+00 -5.972085e-01 6.215852e-01 2.049776e-01 5.572958e+01 -5.818801e-01 3.003412e-01 -2.097526e-01 -3.789981e-01 1.688346e-01 4.579457e-02 -1.098352e-01 -1.361838e-01 6.607149e-02 -1.400268e-01 -1.729191e-01 4.560238e-02 7.507190e-01 6.193676e-01 -1.786719e-01 2.692232e-01 -2.388349e-01 -1.077972e-01 -8.229637e-02 -1.059038e-01 -1.130079e-01 -7.004388e-02 -2.541711e-02 -8.968810e-02 -8.117062e-03 -3.618678e-01
<VARIANCE> 39
 8.246418e+00 2.428385e+01 1.693654e+01 2.001402e+01 1.604845e+01 1.541732e+01 1.659332e+01 1.647218e+01 1.419190e+01 1.327128e+01 1.184485e+01 1.008743e+01 1.713288e+01 2.453514e+00 2.427558e+00 1.762289e+00 1.575944e+00 1.320713e+00 1.411500e+00 1.477794e+00 1.511313e+00 1.461921e+00 1.432122e+00 1.286546e+00 1.137135e+00 2.531834e+00 3.043433e-01 4.817652e-01 3.152614e-01 3.456241e-01 3.050210e-01 3.095123e-01 3.281584e-01 3.358121e-01 3.099627e-01 3.120044e-01 2.786895e-01 2.334728e-01 2.860058e-01
<GCONST> 9.804511e+01
<STATE> 4
<MEAN> 39
 -2.044682e+01 3.956203e+00 -4.993418e+00 -5.128686e+00 -5.848780e-01 7.999355e-02 2.140533e-04 -1.667433e+00 1.536195e+00 -6.692879e-01 -9.414523e-01 1.869497e-01 5.535260e+01 2.401885e+00 -1.171706e+00 3.506161e-01 -1.100847e+00 -8.975763e-01 -5.576139e-01 -5.260820e-01 -5.786658e-01 -5.056125e-01 -2.297403e-01 -4.110189e-01 -2.388399e-01 -4.376632e-01 4.134870e-01 -1.515729e-01 -1.956067e-01 -5.697345e-02 -2.708176e-01 -2.184734e-01 -5.805144e-02 -3.718774e-02 -1.676445e-01 -1.049683e-01 -2.223884e-02 -1.252984e-01 1.044739e-01
<VARIANCE> 39
 2.013281e+01 2.678322e+01 2.518498e+01 3.232961e+01 2.762843e+01 2.629497e+01 2.938295e+01 2.711336e+01 2.353560e+01 2.231005e+01 2.100812e+01 1.888741e+01 2.966062e+01 2.130611e+00 2.459155e+00 2.306237e+00 5.242491e+00 3.380074e+00 3.356316e+00 3.006429e+00 3.029718e+00 2.600876e+00 2.395549e+00 2.302721e+00 1.995040e+00 3.081617e+00 4.632458e-01 4.386539e-01 4.406061e-01 6.566240e-01 6.162361e-01 5.554278e-01 5.463485e-01 5.328118e-01 5.267345e-01 4.578957e-01 4.588713e-01 4.140224e-01 5.353335e-01
<GCONST> 1.179934e+02
<TRANSP> 5
 0.000000e+00 1.000000e+00 0.000000e+00 0.000000e+00 0.000000e+00
 0.000000e+00 7.549866e-01 2.450134e-01 0.000000e+00 0.000000e+00
 0.000000e+00 0.000000e+00 8.483906e-01 1.516093e-01 0.000000e+00
 0.000000e+00 0.000000e+00 0.000000e+00 6.769847e-01 3.230152e-01
 0.000000e+00 0.000000e+00 0.000000e+00 0.000000e+00 0.000000e+00
<ENDHMM>
~h "DH"
<BEGINHMM>
<NUMSTATES> 5
<STATE> 2
<MEAN> 39
 -8.466643e+00 3.889413e+00 -5.569838e-01 -3.218456e+00 -5.536129e+00 -4.417195e+00 -2.821915e+00 -4.537282e+00 -3.044624e+00 -2.195618e+00 -2.638947e+00 -1.445077e+00 4.738379e+01 -3.747611e-01 1.075365e-01 1.999452e-01 6.086201e-01 6.718608e-01 5.598021e-01 1.809113e-02 3.778779e-01 1.108539e-01 1.697131e-01 4.093334e-01 2.934735e-01 -6.718645e-01 -2.847872e-01 -6.040294e-01 -5.959502e-01 -5.175820e-01 -1.542319e-01 1.056326e-01 2.021850e-01 8.726749e-02 3.039957e-01 -5.087673e-02 1.399044e-02 -1.660977e-02 1.010035e+00
<VARIANCE> 39
 2.637270e+01 1.622247e+01 1.515580e+01 3.294558e+01 3.215075e+01 3.110821e+01 3.108270e+01 3.786552e+01 3.140905e+01 3.208274e+01 2.697330e+01 2.191520e+01 4.127525e+01 2.160389e+00 1.764360e+00 1.626277e+00 2.585730e+00 2.843792e+00 2.652064e+00 2.683646e+00 2.882372e+00 2.498540e+00 2.394141e+00 2.100061e+00 1.690797e+00 4.246194e+00 4.230234e-01 3.417127e-01 3.328590e-01 5.213066e-01 5.072973e-01 5.064426e-01 5.488645e-01 5.504608e-01 5.188994e-01 4.654445e-01 3.741628e-01 3.205220e-01 7.218347e-01
<GCONST> 1.161789e+02
<STATE> 3
<MEAN> 39
 -1.131184e+01 2.371454e+00 -1.317812e+00 -1.659835e+00 -2.659061e+00 -1.519267e+00 -1.232839e+00 -1.774569e+00 -8.006132e-01 -8.679091e-01 -7.665754e-01 -2.392128e-01 4.641406e+01 -9.762055e-01 -1.310536e+00 -1.256979e+00 -1.041584e+00 -1.751386e-01 5.129625e-01 2.997543e-01 2.646849e-01 7.663943e-01 -1.645303e-02 2.133508e-01 1.116967e-01 2.202331e+00 1.832365e-01 -3.551270e-01 -5.395544e-01 -9.138359e-01 -6.656340e-01 -2.835791e-01 -1.806490e-02 -4.163975e-01 3.171266e-02 -2.819781e-01 -2.754653e-01 -1.798433e-01 1.239399e+00
<VARIANCE> 39
 2.236799e+01 1.341013e+01 1.336758e+01 2.900464e+01 3.001505e+01 2.808994e+01 2.601410e+01 3.155295e+01 2.540508e+01 2.638423e+01 2.296066e+01 1.773996e+01 5.252335e+01 2.194608e+00 1.564236e+00 1.378379e+00 2.299848e+00 2.573730e+00 2.795505e+00 2.585423e+00 2.952143e+00 2.569905e+00 2.409219e+00 2.062425e+00 1.615751e+00 3.961769e+00 4.099307e-01 3.297521e-01 3.074082e-01 5.470756e-01 5.750806e-01 5.208027e-01 6.323518e-01 6.108851e-01 5.102209e-01 5.888877e-01 4.189690e-01 3.555187e-01 6.685088e-01
<GCONST> 1.146136e+02
<STATE> 4
<MEAN> 39
 -1.392171e+01 -1.465995e+00 -5.046342e+00 -5.469100e+00 -3.911802e+00 -1.168756e+00 -1.528386e+00 -1.984262e+00 7.299445e-01 -1.667043e+00 -6.275315e-01 -3.054209e-01 5.422484e+01 4.975083e-01 -1.005531e+00 -1.606491e+00 -2.626547e+00 -1.780785e+00 -3.921384e-01 5.649702e-02 -1.068722e+00 3.255929e-01 -7.917140e-01 -5.946925e-01 -3.204976e-01 3.426815e+00 6.114215e-01 2.698865e-01 3.154268e-02 -3.458920e-01 -4.293106e-01 -3.300143e-01 4.028083e-02 -3.704035e-01 -2.093576e-01 -1.630435e-01 -3.021189e-01 -1.899987e-01 -2.035238e-02
<VARIANCE> 39
 2.114287e+01 1.517267e+01 1.334119e+01 2.576037e+01 2.795160e+01 2.235199e+01 2.165744e+01 2.605069e+01 2.096918e+01 2.537780e+01 2.236247e+01 1.638159e+01 3.466882e+01 2.878936e+00 2.270310e+00 1.920738e+00 3.817516e+00 3.570446e+00 3.515389e+00 3.404228e+00 3.778599e+00 3.088404e+00 3.645626e+00 2.663406e+00 2.046832e+00 3.899361e+00 4.264414e-01 3.751694e-01 3.296654e-01 5.337676e-01 5.822392e-01 5.284403e-01 5.076423e-01 6.643468e-01 4.977517e-01 5.468305e-01 5.131220e-01 4.012708e-01 6.233160e-01
<GCONST> 1.170285e+02
<TRANSP> 5
 0.000000e+00 1.000000e+00 0.000000e+00 0.000000e+00 0.000000e+00
 0.000000e+00 3.884932e-01 6.115068e-01 0.000000e+00 0.000000e+00
 0.000000e+00 0.000000e+00 3.018272e-01 6.981728e-01 0.000000e+00
 0.000000e+00 0.000000e+00 0.000000e+00 4.002898e-01 5.997102e-01
 0.000000e+00 0.000000e+00 0.000000e+00 0.000000e+00 0.000000e+00
<ENDHMM>
~h "HH"
<BEGINHMM>
<NUMSTATES> 5
<STATE> 2
<MEAN> 39
 -1.572906e+01 -2.271618e+00 -4.816914e+00 -2.331149e+00 4.114903e-01 -1.351132e+00 -2.581423e+00 -3.784624e+00 1.461744e-01 -1.618533e+00 -1.831983e+00 -1.201098e+00 5.627684e+01 -2.692082e-01 -1.835873e-01 1.224841e-01 3.002027e-01 1.455924e-01 2.810951e-02 8.304682e-02 1.164251e-01 9.497850e-02 2.236674e-01 1.051391e-01 1.289309e-01 -3.858998e-02 3.929819e-01 5.566362e-02 -1.298029e-01 -3.271365e-01 -3.308337e-01 -2.507424e-01 -1.055051e-01 -1.336689e-01 -1.376083e-01 -9.759070e-02 -8.035059e-02 -1.276027e-02 7.962817e-02
<VARIANCE> 39
 2.413627e+01 4.275130e+01 3.443727e+01 5.240088e+01 4.411467e+01 4.199594e+01 4.377760e+01 3.983904e+01 3.281340e+01 3.506854e+01 3.015001e+01 2.419570e+01 3.443303e+01 1.233189e+00 1.343369e+00 1.504498e+00 2.206616e+00 2.341884e+00 2.600612e+00 2.542341e+00 2.670759e+00 2.305015e+00 2.208482e+00 2.047772e+00 1.700884e+00 7.336529e-01 2.034065e-01 2.407227e-01 2.958409e-01 4.067573e-01 4.344889e-01 5.181984e-01 5.141068e-01 5.078405e-01 4.807074e-01 4.521096e-01 4.164841e-01 3.441154e-01 1.438518e-01
<GCONST> 1.128986e+02
<STATE> 3
<MEAN> 39
 -1.386751e+01 -6.903521e-01 -4.255231e+00 -3.206807e+00 -6.547275e-01 -2.327354e+00 -2.311615e+00 -3.499010e+00 2.226314e-02 -1.123541e+00 -1.940801e+00 -1.012684e+00 5.434319e+01 1.639031e+00 3.826468e-01 -5.437062e-01 -1.340647e+00 -1.279017e+00 -1.528567e+00 -1.023096e+00 -1.040052e+00 -8.516719e-01 -6.277259e-01 -5.594762e-01 -1.655518e-01 7.768956e-01 4.228205e-01 -1.194048e-01 -4.215493e-01 -5.456154e-01 -4.280693e-01 -3.209461e-01 -1.312325e-01 -1.194886e-01 -2.166871e-01 -2.150533e-01 -1.218173e-01 -1.263321e-01 4.723246e-01
<VARIANCE> 39
 2.529239e+01 5.330240e+01 3.786451e+01 5.509285e+01 4.588810e+01 4.639061e+01 4.367513e+01 4.044465e+01 3.421893e+01 3.572308e+01 3.176082e+01 2.680877e+01 5.287458e+01 1.720865e+00 2.294033e+00 2.053168e+00 2.694796e+00 2.781875e+00 3.741802e+00 2.751224e+00 3.066319e+00 2.656859e+00 2.539009e+00 2.480046e+00 2.171211e+00 1.442054e+00 2.132404e-01 3.093985e-01 3.361373e-01 4.184251e-01 4.712470e-01 5.286230e-01 5.230429e-01 5.160202e-01 5.288272e-01 4.771896e-01 4.520727e-01 4.113737e-01 2.553690e-01
<GCONST> 1.192042e+02
<STATE> 4
<MEAN> 39
 -9.125676e+00 1.768102e-01 -5.995588e+00 -7.408852e+00 -4.622761e+00 -6.858346e+00 -5.838902e+00 -6.834481e+00 -2.888726e+00 -3.717049e+00 -4.012004e+00 -2.020901e+00 5.733323e+01 1.668648e+00 -3.748347e-01 -1.337762e+00 -1.898935e+00 -1.492645e+00 -1.310439e+00 -5.575992e-01 -5.731402e-01 -7.195001e-01 -5.581236e-01 -4.652489e-01 -3.573515e-01 1.516599e+00 -3.133320e-01 -3.316380e-01 -9.670510e-02 4.671384e-02 1.475534e-01 3.718407e-01 3.830774e-01 3.251733e-01 1.940171e-01 1.281842e-01 1.288814e-01 -3.184045e-02 1.641661e-01
<VARIANCE> 39
 2.096681e+01 6.230030e+01 3.846632e+01 5.163698e+01 4.965028e+01 5.272770e+01 4.073816e+01 4.240186e+01 2.910353e+01 3.750440e+01 3.696699e+01 3.371425e+01 4.198418e+01 1.638308e+00 2.709243e+00 2.474944e+00 3.004225e+00 2.967480e+00 4.018209e+00 3.214724e+00 3.096878e+00 3.177895e+00 3.024650e+00 2.999852e+00 2.631646e+00 2.092983e+00 2.217445e-01 2.228461e-01 2.800753e-01 3.797551e-01 4.890191e-01 5.189544e-01 4.349506e-01 4.934117e-01 4.254039e-01 4.265865e-01 4.364809e-01 4.244559e-01 2.008507e-01
<GCONST> 1.198158e+02
<TRANSP> 5
 0.000000e+00 1.000000e+00 0.000000e+00 0.000000e+00 0.000000e+00
 0.000000e+00 7.072949e-01 2.927051e-01 0.000000e+00 0.000000e+00
 0.000000e+00 0.000000e+00 3.310717e-01 6.689283e-01 0.000000e+00
 0.000000e+00 0.000000e+00 0.000000e+00 2.619281e-01 7.380719e-01
 0.000000e+00 0.000000e+00 0.000000e+00 0.000000e+00 0.000000e+00
<ENDHMM>
~h "JH"
<BEGINHMM>
<NUMSTATES> 5
<STATE> 2
<MEAN> 39
 -8.747244e+00 7.759949e+00 -1.243170e+00 -4.063899e+00 -4.723268e+00 -4.625618e+00 -4.111732e+00 -5.604595e+00 -2.286978e+00 -3.758374e+00 -2.297124e+00 -1.594097e+00 4.767039e+01 -2.100630e+00 1.244202e-01 -1.369330e-01 1.869419e+00 1.060791e+00 5.918084e-01 6.670116e-01 6.920758e-01 9.002989e-02 5.889522e-01 5.705242e-01 3.597869e-01 -2.070999e-01 -7.842805e-01 -3.677661e-01 -6.691743e-01 -4.446392e-01 6.685103e-03 1.668406e-01 2.778736e-01 2.765726e-01 3.271511e-01 9.847994e-02 9.783342e-02 -1.820077e-03 1.120031e+00
<VARIANCE> 39
 3.445877e+01 2.197466e+01 2.476706e+01 3.682646e+01 2.711547e+01 3.044705e+01 3.192052e+01 3.175705e+01 2.736277e+01 3.226627e+01 2.303127e+01 2.190437e+01 3.893545e+01 6.101022e+00 3.544263e+00 3.703112e+00 4.221658e+00 2.773465e+00 3.271434e+00 3.266506e+00 3.052012e+00 3.283139e+00 3.236759e+00 2.284858e+00 2.173405e+00 7.525869e+00 8.127025e-01 6.039353e-01 4.858004e-01 6.516024e-01 4.871774e-01 5.368900e-01 5.466374e-01 5.364281e-01 5.419984e-01 5.210528e-01 4.180640e-01 3.611619e-01 7.289417e-01
<GCONST> 1.238401e+02
<STATE> 3
<MEAN> 39
 -2.315697e+01 7.741766e+00 -7.184710e+00 -1.365112e+00 -5.614701e-01 -1.044019e+00 2.749593e-01 -1.271820e+00 1.477564e+00 -9.949644e-01 2.899502e-01 -1.074653e-01 5.529053e+01 -8.590750e-01 3.457278e-01 -5.969340e-01 -1.003635e+00 -6.056032e-02 2.005956e-01 -1.850086e-03 1.173928e-01 2.894024e-01 -3.079650e-02 -1.534020e-01 1.478118e-01 1.216833e+00 1.161655e+00 -2.388240e-01 2.982318e-01 -7.229304e-01 -4.605013e-01 -2.271851e-01 -3.219942e-01 -2.989835e-01 -1.939653e-01 -2.290628e-01 -2.951932e-01 -1.270455e-01 -2.043680e-01
<VARIANCE> 39
 1.326832e+01 2.964052e+01 2.359643e+01 2.363060e+01 2.053760e+01 1.870001e+01 1.800084e+01 1.820597e+01 1.596607e+01 1.445197e+01 1.276400e+01 1.105221e+01 1.935751e+01 5.982550e+00 2.683039e+00 2.524730e+00 3.845006e+00 2.414823e+00 2.128131e+00 2.247903e+00 2.199599e+00 1.913800e+00 2.091276e+00 1.808259e+00 1.464854e+00 3.036800e+00 6.080399e-01 8.051318e-01 4.194016e-01 6.739997e-01 5.154331e-01 4.271533e-01 4.400610e-01 4.296136e-01 4.067575e-01 4.462969e-01 3.774650e-01 3.326196e-01 3.672229e-01
<GCONST> 1.108877e+02
<STATE> 4
<MEAN> 39
 -1.585060e+01 6.184005e+00 -6.487833e+00 -1.237874e+01 -6.160118e+00 -3.368990e+00 -2.868546e+00 -3.528324e+00 5.642064e-01 -3.129258e+00 -2.877151e+00 -1.248552e+00 5.987566e+01 2.701877e+00 -2.482779e+00 1.538456e-02 -2.962592e+00 -1.679479e+00 1.572254e-01 -2.966061e-01 -5.422285e-01 -2.797002e-01 -6.436826e-01 -8.619490e-01 -6.762251e-01 1.438617e+00 -5.965157e-02 -6.421223e-01 -1.219130e-02 6.927106e-01 2.561948e-01 3.141236e-01 2.390691e-01 -1.465549e-02 -1.269209e-01 6.572487e-02 1.410754e-01 -7.957172e-02 -6.894672e-02
<VARIANCE> 39
 2.368574e+01 2.799509e+01 3.056731e+01 4.648109e+01 3.043257e+01 2.280940e+01 2.486301e+01 2.077423e+01 2.214981e+01 2.697533e+01 2.211491e+01 2.092611e+01 2.883838e+01 2.231289e+00 3.036440e+00 1.866151e+00 5.171738e+00 3.919540e+00 2.912028e+00 2.983332e+00 3.004440e+00 2.713565e+00 2.162490e+00 2.482029e+00 2.088130e+00 1.987743e+00 6.195409e-01 4.939231e-01 3.403826e-01 8.520949e-01 6.172146e-01 4.620481e-01 3.909276e-01 4.133342e-01 4.438751e-01 4.634015e-01 4.127051e-01 3.820413e-01 2.065707e-01
<GCONST> 1.165198e+02
<TRANSP> 5
 0.000000e+00 1.000000e+00 0.000000e+00 0.000000e+00 0.000000e+00
 0.000000e+00 6.956902e-01 3.043098e-01 0.000000e+00 0.000000e+00
 0.000000e+00 0.000000e+00 7.737781e-01 2.262218e-01 0.000000e+00
 0.000000e+00 0.000000e+00 0.000000e+00 5.569734e-01 4.430266e-01
 0.000000e+00 0.000000e+00 0.000000e+00 0.000000e+00 0.000000e+00
<ENDHMM>
~h "NG"
<BEGINHMM>
<NUMSTATES> 5
<STATE> 2
<MEAN> 39
 -9.924909e+00 3.910611e+00 -1.333579e+01 -1.363303e+01 2.052657e+00 -1.213620e+01 -2.496256e+00 -3.316244e+00 -6.282409e+00 -3.728046e+00 -4.055251e+00 -3.752057e+00 5.982272e+01 1.094660e+00 -2.524890e-01 6.999334e-01 6.404681e-01 -3.772545e-01 -1.114470e+00 5.337952e-01 -4.116596e-01 -2.825883e-01 5.919411e-01 -4.758528e-01 1.285941e-01 -1.105964e+00 1.740425e-01 -4.329357e-01 5.432321e-01 2.930995e-03 -4.938209e-01 4.932871e-01 -1.698752e-01 -1.890584e-01 2.767689e-01 -1.089549e-01 -2.496952e-02 7.033830e-02 -1.014539e-01
<VARIANCE> 39
 1.345760e+01 2.195102e+01 3.989161e+01 3.167033e+01 2.988606e+01 4.565174e+01 4.626914e+01 5.543186e+01 3.131026e+01 2.982111e+01 3.161635e+01 2.787385e+01 2.248046e+01 8.503439e-01 2.126915e+00 2.423958e+00 1.971608e+00 2.579583e+00 3.361547e+00 2.914132e+00 2.537734e+00 2.529491e+00 2.343215e+00 1.740777e+00 1.420966e+00 7.138112e-01 1.231911e-01 2.190016e-01 3.086882e-01 3.343644e-01 3.629894e-01 4.584208e-01 5.366926e-01 4.928855e-01 3.772698e-01 3.385037e-01 3.118181e-01 2.564305e-01 9.688182e-02
<GCONST> 1.090488e+02
<STATE> 3
<MEAN> 39
 -4.521285e+00 -7.455947e-01 -5.828057e+00 -1.247628e+01 -2.749423e+00 -1.144893e+01 -2.962836e+00 -5.608340e+00 -4.934896e+00 -3.574530e+00 -5.747677e+00 -3.354178e+00 5.562522e+01 5.260298e-01 -2.054743e-01 8.135316e-01 2.015678e-01 -4.276633e-01 1.034563e-01 -1.808090e-01 -2.844179e-01 1.979819e-01 5.331167e-02 -1.626392e-01 4.814995e-02 -6.718065e-01 -3.133315e-01 2.370945e-01 -2.150674e-01 8.439107e-02 1.155896e-01 2.292959e-01 -9.027623e-02 1.349330e-01 2.674581e-02 -2.189390e-02 1.225522e-01 -6.028900e-03 9.305254e-02
<VARIANCE> 39
 9.791713e+00 1.753336e+01 3.065100e+01 2.568937e+01 3.223596e+01 4.267996e+01 4.238329e+01 6.123695e+01 3.308030e+01 4.656957e+01 3.280794e+01 3.284135e+01 2.103576e+01 7.892435e-01 1.611237e+00 1.721351e+00 1.472468e+00 1.917201e+00 2.088092e+00 2.150944e+00 2.113644e+00 1.718079e+00 1.675211e+00 1.381252e+00 1.199097e+00 6.454817e-01 1.391319e-01 2.296624e-01 2.740549e-01 3.262993e-01 3.415391e-01 4.650537e-01 4.182000e-01 4.024429e-01 3.610565e-01 3.474964e-01 2.812242e-01 2.433949e-01 1.066976e-01
<GCONST> 1.046693e+02
<STATE> 4
<MEAN> 39
 -5.967881e+00 9.495945e-01 -4.378570e+00 -9.690999e+00 -2.816485e+00 -8.758379e+00 -5.019352e+00 -4.467335e+00 -3.759274e+00 -1.887189e+00 -4.106559e+00 -2.258149e+00 5.252356e+01 -8.519887e-01 1.449075e-01 3.984489e-01 9.881306e-01 2.781117e-02 1.398546e+00 -9.616145e-02 4.201745e-01 5.158218e-01 2.018652e-01 5.473439e-01 2.466497e-01 -6.318443e-01 -3.670969e-01 -1.787941e-01 -1.555530e-01 9.496929e-02 5.812789e-02 3.504038e-01 2.385359e-01 1.151246e-01 1.778443e-01 -2.186406e-02 1.839275e-01 8.911739e-02 1.863253e-01
<VARIANCE> 39
 1.938509e+01 2.402451e+01 4.049355e+01 4.208674e+01 4.439880e+01 5.718812e+01 4.807518e+01 5.957448e+01 4.876127e+01 5.970032e+01 5.007549e+01 4.128715e+01 3.505814e+01 1.726085e+00 2.082314e+00 2.435250e+00 3.120231e+00 3.198338e+00 3.914112e+00 3.858335e+00 3.856381e+00 3.008836e+00 3.187950e+00 2.715847e+00 2.448957e+00 2.223562e+00 4.163930e-01 3.689102e-01 4.470883e-01 5.203829e-01 5.980428e-01 7.604962e-01 6.981026e-01 7.119062e-01 5.830907e-01 6.103982e-01 5.341021e-01 4.377613e-01 3.284038e-01
<GCONST> 1.252994e+02
<TRANSP> 5
 0.000000e+00 1.000000e+00 0.000000e+00 0.000000e+00 0.000000e+00
 0.000000e+00 6.451883e-01 3.548116e-01 0.000000e+00 0.000000e+00
 0.000000e+00 0.000000e+00 7.485693e-01 2.514308e-01 0.000000e+00
 0.000000e+00 0.000000e+00 0.000000e+00 6.226704e-01 3.773296e-01
 0.000000e+00 0.000000e+00 0.000000e+00 0.000000e+00 0.000000e+00
<ENDHMM>
~h "SH"
<BEGINHMM>
<NUMSTATES> 5
<STATE> 2
<MEAN> 39
 -1.834324e+01 6.320364e+00 -4.969442e+00 -5.515686e+00 -1.711403e+00 -1.130695e+00 -3.174491e+00 -3.441842e+00 3.982360e-01 -2.619669e+00 -2.368567e+00 -2.026996e+00 5.756914e+01 -3.014279e+00 1.202384e+00 -1.615451e-01 2.010061e+00 1.116657e+00 9.749669e-01 9.022340e-01 1.181403e+00 5.684935e-01 7.849963e-01 1.025950e+00 8.629478e-01 -4.084740e-01 1.556131e-01 -3.546870e-01 -2.605400e-01 -2.616037e-01 -1.739648e-01 -1.122522e-01 1.742767e-01 3.875566e-02 -1.759990e-02 2.437344e-02 6.115123e-02 1.076092e-01 1.978177e-01
<VARIANCE> 39
 2.961733e+01 2.699879e+01 2.403232e+01 3.619769e+01 2.760575e+01 3.028825e+01 3.488626e+01 2.936909e+01 2.458949e+01 3.118850e+01 2.451154e+01 2.013574e+01 1.793538e+01 1.791954e+00 3.079729e+00 1.906615e+00 3.643191e+00 2.873711e+00 3.478832e+00 3.045183e+00 2.827863e+00 2.467695e+00 2.880665e+00 2.538026e+00 2.223415e+00 1.337535e+00 6.355665e-01 3.360159e-01 3.170621e-01 5.724440e-01 4.577979e-01 5.226526e-01 5.339695e-01 5.023960e-01 4.569213e-01 5.064256e-01 4.671583e-01 3.832481e-01 1.428539e-01
<GCONST> 1.154796e+02
<STATE> 3
<MEAN> 39
 -2.505297e+01 9.022515e+00 -6.903503e+00 -1.753140e+00 8.332770e-02 8.270837e-02 -1.897833e-01 -3.748676e-01 1.600829e+00 -7.379540e-01 2.875430e-01 4.159891e-01 5.698149e+01 -1.396676e-01 1.826833e-02 -3.028366e-02 -5.419394e-02 8.526542e-02 -1.845262e-02 1.160585e-01 4.965451e-02 2.166009e-02 8.569406e-02 2.745699e-02 8.706359e-02 -5.331930e-02 4.663565e-01 -1.803017e-01 8.577465e-02 -3.054103e-01 -1.434048e-01 -1.177662e-01 -1.417468e-01 -1.784893e-01 -7.232248e-02 -9.263810e-02 -1.295449e-01 -1.058962e-01 -4.063644e-02
<VARIANCE> 39
 6.676768e+00 1.712671e+01 1.651334e+01 2.420280e+01 1.611612e+01 1.665886e+01 1.707053e+01 1.702864e+01 1.496808e+01 1.410736e+01 1.322793e+01 1.181397e+01 1.398431e+01 6.478635e-01 9.084863e-01 7.731050e-01 1.125202e+00 1.011765e+00 1.164283e+00 1.249938e+00 1.308924e+00 1.283077e+00 1.264890e+00 1.197831e+00 1.048805e+00 3.881766e-01 2.025786e-01 1.852781e-01 1.526222e-01 2.765865e-01 2.519512e-01 2.965604e-01 2.828578e-01 2.975721e-01 2.731493e-01 2.826939e-01 2.664985e-01 2.338636e-01 7.634834e-02
<GCONST> 8.704163e+01
<STATE> 4
<MEAN> 39
 -2.189054e+01 7.125483e+00 -5.589968e+00 -4.548099e+00 -4.791655e-01 -3.923886e-01 -6.238770e-01 -1.561156e+00 1.259775e+00 -7.264273e-01 -4.615075e-01 2.746576e-01 5.603292e+01 2.949636e+00 -1.014951e+00 -1.266614e-01 -2.221629e+00 -1.503434e+00 -1.188029e+00 -7.663921e-01 -1.038548e+00 -5.812051e-01 -6.169107e-01 -5.329071e-01 -4.395941e-01 2.210531e-01 5.994988e-01 -2.926303e-01 -2.186351e-01 -4.625392e-01 -3.830551e-01 -3.231441e-01 -1.197505e-01 -1.321012e-01 -1.716150e-01 -2.109926e-01 -1.284320e-01 -1.989333e-01 3.616606e-01
<VARIANCE> 39
 1.884146e+01 2.017376e+01 2.164094e+01 2.855625e+01 2.268954e+01 2.477876e+01 2.512621e+01 2.347003e+01 2.027500e+01 2.013095e+01 1.884032e+01 1.650882e+01 1.731647e+01 2.088530e+00 3.035119e+00 1.863337e+00 4.336653e+00 2.533764e+00 3.593420e+00 2.443866e+00 2.309769e+00 2.107111e+00 2.077712e+00 1.972326e+00 1.780095e+00 1.657639e+00 3.936376e-01 3.621663e-01 3.030880e-01 5.662630e-01 4.455264e-01 5.187699e-01 4.418661e-01 4.343911e-01 4.375960e-01 3.972373e-01 4.090067e-01 3.565394e-01 2.270189e-01
<GCONST> 1.104889e+02
<TRANSP> 5
 0.000000e+00 1.000000e+00 0.000000e+00 0.000000e+00 0.000000e+00
 0.000000e+00 6.818880e-01 3.181119e-01 0.000000e+00 0.000000e+00
 0.000000e+00 0.000000e+00 8.529254e-01 1.470746e-01 0.000000e+00
 0.000000e+00 0.000000e+00 0.000000e+00 6.170287e-01 3.829713e-01
 0.000000e+00 0.000000e+00 0.000000e+00 0.000000e+00 0.000000e+00
<ENDHMM>
~h "TH"
<BEGINHMM>
<NUMSTATES> 5
<STATE> 2
<MEAN> 39
 -9.906081e+00 2.477284e+00 -2.036861e+00 -4.566188e+00 -3.149476e+00 -2.063730e+00 -3.404830e+00 -5.087489e+00 -5.890447e-01 -3.055062e+00 -2.975208e+00 -1.947047e+00 5.176698e+01 -1.286454e+00 3.308712e-01 7.924425e-01 2.391444e+00 1.401534e+00 1.196814e+00 8.432228e-01 1.792265e+00 4.531474e-01 1.189807e+00 1.229253e+00 8.361320e-01 -2.288586e+00 -2.498842e-01 -4.627795e-01 -4.129670e-01 -2.764041e-01 -3.515391e-02 1.054773e-01 2.962851e-01 2.894938e-01 1.228686e-01 1.334880e-01 2.191299e-01 1.326130e-01 3.551400e-01
<VARIANCE> 39
 2.043290e+01 2.170239e+01 1.647359e+01 3.544716e+01 2.976986e+01 2.775238e+01 3.326579e+01 3.620953e+01 2.857850e+01 3.777065e+01 2.591029e+01 2.098496e+01 3.882902e+01 2.324328e+00 2.423093e+00 2.324176e+00 3.569614e+00 3.157710e+00 2.941813e+00 3.267071e+00 4.116801e+00 2.934418e+00 3.924579e+00 3.116210e+00 2.286186e+00 3.260846e+00 3.584297e-01 3.431936e-01 3.441304e-01 5.498030e-01 4.695553e-01 4.895809e-01 5.567363e-01 6.142249e-01 5.435247e-01 5.704506e-01 4.830038e-01 3.567125e-01 5.153046e-01
<GCONST> 1.192593e+02
<STATE> 3
<MEAN> 39
 -1.348866e+01 1.903814e+00 -1.788011e+00 6.108161e-02 4.623977e-01 1.562162e+00 1.011845e+00 1.533477e+00 2.006528e+00 1.156783e+00 1.477805e+00 1.055258e+00 4.585237e+01 -9.094830e-01 -6.306779e-01 -3.801903e-01 2.515291e-01 4.552925e-01 4.683801e-01 4.914164e-01 8.187851e-01 4.339574e-01 3.363685e-01 6.137044e-01 3.374378e-01 6.806783e-02 2.814097e-01 -2.175899e-01 -3.848641e-01 -8.320826e-01 -4.903192e-01 -4.219934e-01 -3.444960e-01 -6.482916e-01 -2.076186e-01 -4.886653e-01 -4.287277e-01 -2.876094e-01 1.026319e+00
<VARIANCE> 39
 2.019445e+01 1.208733e+01 1.118823e+01 1.458275e+01 1.365295e+01 1.506510e+01 1.592824e+01 1.714100e+01 1.685566e+01 1.689121e+01 1.473889e+01 1.206728e+01 3.598086e+01 1.971189e+00 1.651087e+00 1.594220e+00 2.667197e+00 2.118638e+00 2.261869e+00 2.458253e+00 3.226201e+00 2.333195e+00 2.841596e+00 2.251143e+00 1.665159e+00 5.152065e+00 4.314786e-01 3.147333e-01 3.367489e-01 4.894882e-01 3.891007e-01 3.866869e-01 4.422616e-01 5.120140e-01 4.319457e-01 5.182952e-01 4.138235e-01 3.194218e-01 6.291123e-01
<GCONST> 1.075760e+02
<STATE> 4
<MEAN> 39
 -1.592550e+01 -1.034795e+00 -4.339217e+00 -2.630901e+00 -1.128594e+00 7.044203e-01 -1.938371e-01 -2.621769e-01 1.694723e+00 -5.578792e-01 1.934256e-01 3.589300e-01 5.155324e+01 4.779437e-01 -2.594487e-01 -4.301697e-01 -8.502631e-01 -4.647708e-01 -3.287608e-01 -2.236695e-01 -5.758891e-01 -2.719706e-01 -4.263206e-01 -3.383070e-01 -1.410794e-01 8.600203e-01 3.644930e-01 5.968213e-02 -1.396370e-02 -2.258228e-01 -1.346179e-01 -1.333633e-01 -8.361658e-02 -2.093809e-01 -1.574542e-01 -8.735830e-02 -1.332650e-01 -8.742753e-02 9.602825e-02
<VARIANCE> 39
 1.840846e+01 1.574942e+01 1.412971e+01 1.831658e+01 1.553909e+01 1.724937e+01 1.885829e+01 2.167065e+01 1.973956e+01 2.024540e+01 1.760650e+01 1.344437e+01 3.346129e+01 2.269442e+00 1.881828e+00 2.173902e+00 3.885004e+00 2.222604e+00 2.187265e+00 2.226582e+00 3.028337e+00 2.280385e+00 2.578253e+00 2.155884e+00 1.594195e+00 5.365590e+00 3.490009e-01 3.614785e-01 3.849531e-01 5.365443e-01 4.151842e-01 4.217640e-01 4.203709e-01 5.402137e-01 4.537437e-01 4.693867e-01 4.229472e-01 3.341145e-01 6.670213e-01
<GCONST> 1.104555e+02
<TRANSP> 5
 0.000000e+00 1.000000e+00 0.000000e+00 0.000000e+00 0.000000e+00
 0.000000e+00 5.159261e-01 4.840739e-01 0.000000e+00 0.000000e+00
 0.000000e+00 0.000000e+00 6.007128e-01 3.992872e-01 0.000000e+00
 0.000000e+00 0.000000e+00 0.000000e+00 7.509949e-01 2.490051e-01
 0.000000e+00 0.000000e+00 0.000000e+00 0.000000e+00 0.000000e+00
<ENDHMM>
~h "ZH"
<BEGINHMM>
<NUMSTATES> 5
<STATE> 2
<MEAN> 39
 -1.195323e+01 7.274215e+00 -8.549894e+00 -1.269648e+01 -1.019157e+01 -4.401960e+00 -4.957327e+00 -3.510107e+00 1.989349e+00 -5.606702e+00 -4.585726e+00 -5.108315e+00 5.908172e+01 -1.725841e+00 2.497412e+00 1.049246e-01 2.551113e+00 9.539832e-01 -1.193276e-01 -1.373101e-01 1.836011e-01 -6.135064e-01 6.560034e-01 -1.280868e-01 4.340582e-01 -1.275879e+00 -4.191174e-01 -1.699528e-01 -4.149251e-02 3.370420e-01 3.515487e-01 3.132900e-01 2.986524e-01 -1.084756e-01 -1.193729e-01 1.662664e-02 1.681856e-01 3.438157e-01 6.028286e-02
<VARIANCE> 39
 1.533294e+01 2.493429e+01 1.709781e+01 2.726701e+01 2.081596e+01 1.793155e+01 2.742938e+01 2.143356e+01 2.408062e+01 4.662851e+01 3.350805e+01 2.867651e+01 1.473886e+01 1.215328e+00 1.311117e+00 1.070154e+00 3.037972e+00 2.218220e+00 2.019753e+00 1.336527e+00 1.618819e+00 2.297668e+00 1.845779e+00 2.608466e+00 2.109177e+00 5.662141e-01 1.755033e-01 3.492870e-01 1.710339e-01 4.435739e-01 3.307146e-01 3.799808e-01 2.990589e-01 2.520313e-01 3.737100e-01 3.187507e-01 4.248053e-01 2.512739e-01 8.507639e-02
<GCONST> 1.022870e+02
<STATE> 3
<MEAN> 39
 -2.110654e+01 1.216132e+01 -8.397578e+00 -3.064406e+00 -3.808318e+00 -2.439569e+00 -2.297769e+00 -3.163102e+00 5.957836e-01 -3.197146e+00 -2.148250e+00 -1.250826e+00 5.608899e+01 -2.492260e-01 -1.872627e-01 -1.789059e-01 1.645588e-01 2.302777e-01 2.435789e-01 9.841919e-02 -1.117687e-01 -9.169486e-02 -2.876591e-02 3.200680e-01 3.856346e-01 -5.735589e-02 9.548180e-01 -6.775821e-01 -8.309997e-02 -1.050116e+00 -5.310476e-01 -9.420539e-02 -2.250631e-01 -1.255358e-01 8.770470e-02 -2.555519e-01 -1.906710e-01 -2.909799e-01 3.627479e-01
<VARIANCE> 39
 2.313692e+01 1.703308e+01 1.197707e+01 2.431353e+01 3.043476e+01 1.949590e+01 3.049530e+01 2.066982e+01 1.856204e+01 2.942698e+01 1.702648e+01 2.034373e+01 1.143834e+01 4.171533e+00 1.558177e+00 1.010320e+00 4.735991e+00 2.960955e+00 1.790040e+00 2.197009e+00 1.855058e+00 1.558659e+00 2.120886e+00 1.664147e+00 1.632616e+00 5.653983e-01 2.279130e-01 3.170998e-01 2.425001e-01 4.454462e-01 4.034481e-01 3.118808e-01 3.913806e-01 4.040199e-01 4.241741e-01 4.334302e-01 3.725554e-01 3.354062e-01 8.042056e-02
<GCONST> 1.038185e+02
<STATE> 4
<MEAN> 39
 -1.059673e+01 1.001417e+01 -7.122324e+00 -1.095377e+01 -7.662609e+00 -3.407318e+00 -6.941264e+00 -2.499991e+00 -7.622892e-02 -4.484162e+00 -2.414614e+00 -3.196777e+00 5.844384e+01 9.839823e-01 -1.218550e+00 -4.359743e-02 -9.577667e-01 -2.459106e-01 2.462738e-01 -7.712116e-02 -3.475784e-01 1.316132e-01 -3.889073e-01 -5.959038e-02 -1.174557e-01 3.510993e-01 -5.442803e-02 -8.394089e-02 9.781968e-02 1.580869e-01 1.540153e-01 3.067536e-02 9.271917e-02 -3.596084e-03 -9.998654e-04 2.839908e-02 7.344685e-03 -1.808822e-02 -9.408498e-02
<VARIANCE> 39
 3.271296e+01 8.504382e+01 3.251469e+01 2.850497e+01 3.381314e+01 2.133562e+01 4.295263e+01 3.672121e+01 2.500943e+01 4.224809e+01 2.333624e+01 2.619856e+01 1.941533e+01 2.655033e+00 2.309751e+00 1.231536e+00 4.123531e+00 2.583574e+00 1.551345e+00 1.978786e+00 1.696110e+00 1.791757e+00 1.549298e+00 1.506626e+00 1.394199e+00 1.045418e+00 2.379422e-01 3.023494e-01 2.177658e-01 4.194272e-01 4.267731e-01 2.630379e-01 2.759820e-01 2.697172e-01 2.840994e-01 2.311625e-01 2.541186e-01 1.993390e-01 1.109869e-01
<GCONST> 1.068605e+02
<TRANSP> 5
 0.000000e+00 1.000000e+00 0.000000e+00 0.000000e+00 0.000000e+00
 0.000000e+00 6.758207e-01 3.241793e-01 0.000000e+00 0.000000e+00
 0.000000e+00 0.000000e+00 7.520640e-01 2.479360e-01 0.000000e+00
 0.000000e+00 0.000000e+00 0.000000e+00 7.780411e-01 2.219590e-01
 0.000000e+00 0.000000e+00 0.000000e+00 0.000000e+00 0.000000e+00
<ENDHMM>
~h "sp"
<BEGINHMM>
<NUMSTATES> 3
<STATE> 2
~s "silst"
<TRANSP> 3
 0.000000e+00 1.753371e-01 8.246629e-01
 0.000000e+00 9.500542e-01 4.994581e-02
 0.000000e+00 0.000000e+00 0.000000e+00
<ENDHMM>
~h "AA0"
<BEGINHMM>
<NUMSTATES> 5
<STATE> 2
<MEAN> 39
 -7.214995e+00 -1.175947e+01 -1.373748e+01 -2.341163e+00 -3.254082e+00 -6.546404e+00 -1.475242e+00 -3.333127e+00 -6.238284e+00 -4.833428e+00 -3.612696e+00 -2.223723e+00 6.514941e+01 -3.915366e-01 -1.993267e+00 -1.545062e+00 1.307784e+00 7.613246e-01 5.808569e-01 4.052170e-02 -5.237600e-01 -2.504525e-02 -2.793951e-01 3.676437e-01 -1.922298e-01 1.660652e+00 -1.688039e-01 5.752010e-01 9.277304e-01 1.798191e-01 -1.653685e-01 -1.380080e-01 -2.091231e-01 1.089511e-01 2.368244e-01 1.339478e-01 3.523822e-02 3.136604e-02 -6.791603e-01
<VARIANCE> 39
 1.105026e+01 1.951427e+01 3.294381e+01 2.646632e+01 3.929475e+01 2.786056e+01 3.151301e+01 3.176262e+01 2.854714e+01 2.370570e+01 2.396706e+01 1.723420e+01 2.250957e+01 1.133480e+00 2.312010e+00 4.473961e+00 2.589901e+00 2.120188e+00 3.406184e+00 3.082003e+00 2.327394e+00 2.305872e+00 2.466697e+00 2.267037e+00 1.896953e+00 2.021802e+00 1.990221e-01 2.350112e-01 4.168119e-01 3.575348e-01 3.841443e-01 5.210965e-01 4.440000e-01 3.985123e-01 4.084843e-01 3.467055e-01 3.016058e-01 2.598184e-01 3.123277e-01
<GCONST> 1.106737e+02
<STATE> 3
<MEAN> 39
 -8.680928e+00 -1.380154e+01 -1.276251e+01 1.768850e+00 -3.177893e+00 -6.230767e+00 -2.861169e+00 -3.334667e+00 -4.670339e+00 -5.177013e+00 -2.858028e+00 -2.433102e+00 6.662173e+01 1.148494e-01 1.171497e-01 -6.277525e-02 -1.313334e-02 -5.736998e-02 2.665835e-01 -3.185047e-01 1.603912e-02 2.371225e-01 4.119523e-02 -2.842901e-02 -5.174051e-02 -2.323020e-01 1.133840e-01 3.135322e-01 1.097918e-01 -3.151788e-01 -6.449949e-02 -6.363558e-04 -1.120574e-02 2.827450e-02 -3.833028e-02 8.490705e-02 -1.118659e-01 2.522507e-02 -2.401130e-01
<VARIANCE> 39
 1.246601e+01 1.732355e+01 1.990220e+01 2.906881e+01 3.245367e+01 3.061765e+01 3.056258e+01 2.906921e+01 3.029808e+01 2.410624e+01 2.373256e+01 2.030460e+01 1.826397e+01 3.329561e-01 5.411447e-01 8.061076e-01 1.300540e+00 1.032331e+00 1.043072e+00 1.135015e+00 1.309725e+00 9.199604e-01 1.264172e+00 1.088104e+00 8.605607e-01 3.311098e-01 5.450217e-02 1.139009e-01 1.742013e-01 1.688413e-01 1.693824e-01 2.113709e-01 2.338798e-01 2.046809e-01 1.823864e-01 2.505532e-01 1.779283e-01 1.629192e-01 8.539782e-02
<GCONST> 8.649935e+01
<STATE> 4
<MEAN> 39
 -6.809965e+00 -8.571070e+00 -1.212237e+01 -6.816848e-01 -3.316772e+00 -2.457805e+00 -4.314520e+00 -3.629167e+00 -2.190655e+00 -3.403461e+00 -2.616893e+00 -2.858835e+00 5.980788e+01 2.514860e-01 1.802347e+00 7.516515e-01 -9.760392e-01 -1.292460e-01 5.152646e-02 -2.124971e-01 5.952948e-02 9.192498e-02 3.512474e-01 -3.708855e-01 1.411998e-01 -1.347825e+00 -1.468359e-01 1.455480e-01 3.044429e-01 1.368173e-01 -5.266643e-02 -3.133484e-01 1.373197e-01 1.946647e-01 -7.458646e-02 5.971321e-02 5.524292e-02 6.243354e-02 -9.596281e-02
<VARIANCE> 39
 1.566625e+01 3.903004e+01 5.023304e+01 7.512444e+01 4.487388e+01 3.328658e+01 4.053056e+01 5.701324e+01 2.959762e+01 3.327878e+01 3.123541e+01 2.107262e+01 5.465683e+01 9.559605e-01 2.431406e+00 5.246843e+00 3.329139e+00 2.765723e+00 3.477254e+00 2.759243e+00 2.554870e+00 2.507647e+00 2.259171e+00 2.103826e+00 1.665640e+00 4.720360e+00 1.806151e-01 4.027447e-01 7.859849e-01 5.514523e-01 4.728595e-01 5.270901e-01 4.975373e-01 6.264780e-01 3.881858e-01 4.066114e-01 4.282948e-01 2.882766e-01 7.529533e-01
<GCONST> 1.209933e+02
<TRANSP> 5
 0.000000e+00 1.000000e+00 0.000000e+00 0.000000e+00 0.000000e+00
 0.000000e+00 5.777372e-01 4.222628e-01 0.000000e+00 0.000000e+00
 0.000000e+00 0.000000e+00 8.217124e-01 1.782876e-01 0.000000e+00
 0.000000e+00 0.000000e+00 0.000000e+00 6.826789e-01 3.173211e-01
 0.000000e+00 0.000000e+00 0.000000e+00 0.000000e+00 0.000000e+00
<ENDHMM>
~h "AA1"
<BEGINHMM>
<NUMSTATES> 5
<STATE> 2
<MEAN> 39
 -8.967980e+00 -1.168055e+01 -1.206164e+01 -3.861369e+00 -3.697198e+00 -3.910365e+00 -1.437057e+00 -6.323283e+00 -5.489118e+00 -3.326658e+00 -3.072658e+00 -1.962604e+00 6.503354e+01 3.498839e-01 -1.886746e+00 -8.767439e-01 9.436958e-01 5.219965e-01 -3.245001e-01 -8.085248e-02 -2.709128e-01 -7.067779e-01 -7.784778e-02 2.669731e-01 -2.241909e-01 1.351153e+00 -3.187832e-01 4.360788e-01 4.658214e-01 2.946533e-01 9.320993e-02 7.568093e-02 -6.289789e-02 3.171752e-01 3.260073e-01 1.314360e-01 1.916290e-01 7.538293e-02 -5.503042e-01
<VARIANCE> 39
 1.520632e+01 2.704115e+01 3.875921e+01 4.813397e+01 3.579639e+01 3.916718e+01 4.706925e+01 4.643333e+01 2.971328e+01 2.905688e+01 2.797438e+01 2.378845e+01 2.516999e+01 1.796329e+00 2.203326e+00 3.176385e+00 4.232005e+00 2.746208e+00 3.481125e+00 2.855479e+00 3.161837e+00 2.862897e+00 3.324287e+00 2.637454e+00 2.265338e+00 1.990610e+00 3.001537e-01 3.016452e-01 4.205448e-01 6.705358e-01 5.210347e-01 6.629798e-01 5.595578e-01 5.827948e-01 4.637932e-01 5.101357e-01 4.543762e-01 3.746152e-01 2.965677e-01
<GCONST> 1.195322e+02
<STATE> 3
<MEAN> 39
 -9.072411e+00 -1.430077e+01 -1.282460e+01 6.140799e-01 -1.928845e+00 -5.264224e+00 -2.395299e+00 -5.298242e+00 -5.028986e+00 -3.610587e+00 -1.407531e+00 -1.976133e+00 6.587058e+01 1.846905e-02 -1.711931e-02 1.998479e-01 -3.693474e-02 -2.405345e-01 2.141454e-01 -4.383030e-02 -7.351236e-02 8.731888e-02 -2.651133e-02 5.922528e-02 -1.283523e-02 -8.459343e-02 6.463130e-02 2.136139e-01 6.451275e-02 -2.788818e-01 -1.436395e-01 9.765120e-02 4.626393e-02 -5.420608e-02 3.144448e-02 -2.354085e-02 -9.105714e-02 -4.077373e-03 -1.488699e-01
<VARIANCE> 39
 1.385965e+01 1.957560e+01 4.842030e+01 4.769738e+01 3.879695e+01 3.738343e+01 3.471022e+01 3.316869e+01 2.810334e+01 3.459579e+01 2.714943e+01 2.355380e+01 2.148554e+01 3.076011e-01 4.329353e-01 7.900209e-01 1.197806e+00 9.996695e-01 1.309360e+00 1.088325e+00 1.204340e+00 1.028790e+00 1.055958e+00 9.320581e-01 7.967107e-01 2.468457e-01 5.496997e-02 9.263613e-02 1.129950e-01 1.598296e-01 1.485988e-01 1.826623e-01 1.629017e-01 1.810694e-01 1.736477e-01 1.977799e-01 1.654714e-01 1.516136e-01 6.146381e-02
<GCONST> 8.634558e+01
<STATE> 4
<MEAN> 39
 -8.699294e+00 -1.220718e+01 -1.075375e+01 -2.806825e+00 -4.759775e+00 -3.468121e+00 -1.540840e+00 -7.149778e+00 -4.880255e+00 -3.230131e+00 -2.339877e+00 -2.229060e+00 6.398554e+01 5.020433e-01 1.668531e+00 1.032509e+00 -1.277465e+00 -6.689799e-01 1.903460e-01 4.012908e-02 9.750477e-04 4.282314e-01 -1.091484e-01 -3.341445e-01 -3.988964e-02 -1.578811e+00 1.435802e-02 4.484494e-01 3.299471e-01 7.027511e-02 7.588860e-02 -2.138185e-01 -8.970135e-02 2.334231e-01 1.271536e-01 4.455968e-02 2.720864e-02 2.542294e-02 -5.000985e-01
<VARIANCE> 39
 1.583467e+01 2.564902e+01 4.011349e+01 4.715621e+01 4.172112e+01 4.384070e+01 4.782306e+01 5.236429e+01 3.501755e+01 3.538451e+01 3.085152e+01 2.658512e+01 3.163805e+01 8.757691e-01 1.945889e+00 2.284378e+00 2.713417e+00 2.135492e+00 3.016568e+00 2.512425e+00 2.593497e+00 2.192692e+00 2.407019e+00 1.975901e+00 1.690781e+00 2.158644e+00 2.001043e-01 2.246553e-01 3.145135e-01 4.686773e-01 3.745570e-01 4.975933e-01 4.563251e-01 5.011580e-01 3.889679e-01 3.952804e-01 3.604709e-01 2.968577e-01 2.589723e-01
<GCONST> 1.139557e+02
<TRANSP> 5
 0.000000e+00 1.000000e+00 0.000000e+00 0.000000e+00 0.000000e+00
 0.000000e+00 6.713968e-01 3.286032e-01 0.000000e+00 0.000000e+00
 0.000000e+00 0.000000e+00 8.358777e-01 1.641224e-01 0.000000e+00
 0.000000e+00 0.000000e+00 0.000000e+00 6.212020e-01 3.787980e-01
 0.000000e+00 0.000000e+00 0.000000e+00 0.000000e+00 0.000000e+00
<ENDHMM>
~h "AA2"
<BEGINHMM>
<NUMSTATES> 5
<STATE> 2
<MEAN> 39
 -8.882936e+00 -1.182324e+01 -1.128608e+01 -2.081688e+00 -3.782310e+00 -6.185744e+00 -2.083210e+00 -8.271646e+00 -5.540734e+00 -2.410643e+00 -3.460042e+00 -1.653828e+00 6.371586e+01 8.317533e-01 -1.870281e+00 -1.392129e+00 3.194636e-01 4.297619e-01 -9.723663e-01 6.943074e-02 -2.715989e-01 -9.339078e-01 -1.945336e-01 -5.177239e-03 -4.043522e-01 1.654244e+00 -5.579160e-01 4.024146e-01 3.650117e-01 1.899199e-01 1.950119e-01 4.244927e-01 2.403736e-01 4.425483e-01 3.903093e-01 1.557789e-01 2.350043e-01 1.109215e-01 -4.099467e-01
<VARIANCE> 39
 1.289242e+01 2.611329e+01 2.983765e+01 3.534645e+01 3.049532e+01 3.581670e+01 3.489973e+01 4.899321e+01 2.606499e+01 2.698077e+01 2.492784e+01 2.152105e+01 2.813604e+01 2.238023e+00 2.043922e+00 2.789234e+00 3.290228e+00 2.475136e+00 2.940723e+00 2.517992e+00 3.218020e+00 2.601986e+00 3.040379e+00 2.509507e+00 2.277211e+00 2.190265e+00 3.060738e-01 4.205590e-01 3.265958e-01 4.251426e-01 4.198698e-01 6.668164e-01 5.615560e-01 5.531562e-01 4.089004e-01 4.815687e-01 3.974813e-01 3.651139e-01 3.021482e-01
<GCONST> 1.162662e+02
<STATE> 3
<MEAN> 39
 -9.611073e+00 -1.436660e+01 -1.311458e+01 1.148109e+00 -1.136848e+00 -7.206221e+00 -4.421768e-01 -6.797948e+00 -5.546021e+00 -1.720361e+00 -1.914093e+00 -1.421007e+00 6.536957e+01 1.255775e-01 8.315150e-02 -7.033182e-02 -2.540723e-02 -4.038990e-02 7.999010e-02 8.440043e-02 7.345459e-02 1.827544e-02 -5.099132e-02 8.820780e-02 3.559007e-02 -2.077472e-01 1.167412e-01 3.739939e-01 1.778133e-01 -2.607708e-01 -2.048419e-01 1.242431e-01 -2.540976e-02 8.255009e-03 5.013070e-02 -5.790890e-02 -6.810007e-02 9.209972e-03 -3.696907e-01
<VARIANCE> 39
 1.349680e+01 1.687187e+01 3.240868e+01 2.574203e+01 2.964537e+01 2.254881e+01 2.400678e+01 4.146012e+01 2.605360e+01 2.905871e+01 2.347799e+01 2.196789e+01 2.866432e+01 4.856087e-01 5.697756e-01 8.904712e-01 1.385718e+00 1.145750e+00 1.270781e+00 1.181846e+00 1.296220e+00 1.110468e+00 1.199495e+00 1.040625e+00 9.061951e-01 4.331036e-01 1.099869e-01 1.526285e-01 1.813099e-01 1.923736e-01 1.736564e-01 2.075418e-01 2.021819e-01 2.332802e-01 2.140010e-01 2.384169e-01 2.111451e-01 1.857553e-01 1.698281e-01
<GCONST> 9.078226e+01
<STATE> 4
<MEAN> 39
 -7.722357e+00 -1.137794e+01 -1.125089e+01 -1.929548e+00 -3.330348e+00 -5.545240e+00 -2.913596e-02 -6.509055e+00 -5.860484e+00 -2.267442e+00 -2.175447e+00 -1.618825e+00 6.097557e+01 7.290111e-01 2.148116e+00 1.390591e+00 -5.031942e-01 -5.206575e-01 3.203584e-01 -7.107204e-03 5.936980e-01 4.267983e-01 -1.941165e-02 -9.521538e-02 -1.101202e-02 -2.610907e+00 -1.623831e-01 4.250722e-01 4.958279e-01 3.050404e-01 1.988329e-01 1.167712e-01 -1.191333e-01 2.206542e-01 2.737234e-01 2.128397e-01 1.150549e-01 9.875578e-02 -6.874310e-01
<VARIANCE> 39
