~o
<STREAMINFO> 1 39
<VECSIZE> 39<NULLD><MFCC_D_A_0><DIAGC>
~s "silst"
<MEAN> 39
 -1.234991e+01 4.985778e-01 -1.193528e+00 -3.961633e-01 2.631061e-01 2.259771e+00 3.032701e-01 1.116004e+00 2.359152e+00 9.271256e-01 1.034639e+00 9.958163e-01 4.323280e+01 2.193310e-02 3.517886e-02 1.827847e-02 5.421867e-02 2.122811e-02 -1.719805e-02 2.481354e-02 4.043741e-02 5.783597e-03 4.509930e-02 4.817955e-02 2.666038e-02 -1.351220e-01 4.560210e-02 -8.973629e-03 -4.002355e-02 -7.660372e-02 -4.931421e-02 -7.376718e-02 -4.222504e-02 -5.682015e-02 -4.921569e-02 -4.548401e-02 -3.255680e-02 -2.329716e-02 9.354736e-02
<VARIANCE> 39
 2.078790e+01 1.693087e+01 1.531422e+01 2.174038e+01 2.120157e+01 2.450747e+01 2.400078e+01 2.376874e+01 2.299338e+01 2.014709e+01 1.668513e+01 1.361766e+01 3.394324e+01 1.521075e+00 1.176551e+00 1.254737e+00 1.724783e+00 1.756491e+00 2.020286e+00 2.044941e+00 2.084499e+00 2.004871e+00 1.837675e+00 1.591025e+00 1.339863e+00 1.905962e+00 2.796594e-01 2.226151e-01 2.499647e-01 3.383615e-01 3.511157e-01 3.933901e-01 4.020489e-01 4.102460e-01 3.991379e-01 3.674540e-01 3.176302e-01 2.706499e-01 3.407344e-01
<GCONST> 1.033351e+02
~h "B"
<BEGINHMM>
<NUMSTATES> 5
<STATE> 2
<MEAN> 39
 -1.686183e+00 2.280133e+00 -1.383305e+00 -2.622941e+00 -8.448909e+00 -1.007814e+01 -3.558826e+00 -4.869219e+00 -7.174092e+00 -4.438338e+00 -4.135409e+00 -2.747899e+00 4.807981e+01 8.647425e-01 1.970910e+00 1.964818e+00 1.429608e+00 8.172203e-01 -1.637563e-01 -1.315481e+00 -3.278564e-02 -4.610860e-01 -2.959443e-01 2.719704e-01 1.222917e-01 -3.270808e+00 -8.418536e-01 -5.214530e-01 -6.064236e-01 -3.559067e-01 3.022608e-01 7.977654e-01 3.501676e-01 -1.852850e-02 5.172452e-01 1.464560e-01 1.454478e-01 1.183339e-01 8.597754e-01
<VARIANCE> 39
 1.196211e+01 1.588800e+01 2.097287e+01 2.829256e+01 3.803268e+01 3.357831e+01 3.075628e+01 5.036986e+01 3.829463e+01 2.907734e+01 2.896408e+01 2.306048e+01 2.371761e+01 1.486097e+00 2.154630e+00 2.862395e+00 2.545222e+00 2.206887e+00 2.888755e+00 2.843699e+00 2.599871e+00 2.756523e+00 2.327665e+00 2.024999e+00 1.691889e+00 3.396688e+00 2.341916e-01 3.611165e-01 3.604890e-01 4.156993e-01 5.260161e-01 5.870084e-01 5.904462e-01 5.947245e-01 5.999010e-01 4.999324e-01 4.101089e-01 3.289831e-01 5.709825e-01
<GCONST> 1.154518e+02
<STATE> 3
<MEAN> 39
 -2.934180e+00 5.175299e+00 1.006329e+00 -3.073518e-01 -4.817581e+00 -6.772886e+00 -4.847448e+00 -4.434454e+00 -5.433577e+00 -4.018040e+00 -2.890068e+00 -1.892797e+00 4.293575e+01 -1.758918e+00 -5.298193e-01 -4.031922e-01 1.466058e-02 1.071797e+00 1.644590e+00 7.325062e-01 5.931667e-01 1.098526e+00 5.721490e-01 5.457716e-01 3.560195e-01 3.969502e-01 -5.179000e-01 -1.071846e+00 -1.091755e+00 -6.547511e-01 -2.642965e-01 1.238098e-01 7.491904e-01 1.283786e-01 2.224844e-01 1.388465e-01 -4.471684e-02 -1.250823e-02 1.767633e+00
<VARIANCE> 39
 1.259994e+01 1.105684e+01 1.334867e+01 1.838683e+01 2.821229e+01 2.954417e+01 2.559425e+01 3.385762e+01 2.767932e+01 2.323956e+01 2.150775e+01 1.946840e+01 1.784122e+01 1.646299e+00 2.125900e+00 2.570380e+00 2.284313e+00 2.891059e+00 2.646414e+00 2.964960e+00 3.452203e+00 2.629455e+00 2.229584e+00 2.012434e+00 1.677639e+00 5.831042e+00 3.382124e-01 4.237579e-01 4.760892e-01 4.464332e-01 4.620913e-01 6.265620e-01 5.942712e-01 5.743589e-01 5.436372e-01 4.569725e-01 3.801503e-01 3.416598e-01 6.629742e-01
<GCONST> 1.134740e+02
<STATE> 4
<MEAN> 39
 -1.061458e+01 6.292935e-02 -2.878021e+00 -2.551229e+00 -2.876749e+00 -1.249515e+00 1.579954e-01 -1.223065e+00 -6.282669e-01 -8.620672e-01 -5.545838e-01 -4.830236e-01 4.935095e+01 -8.393314e-01 -2.280066e+00 -2.585148e+00 -1.605635e+00 -6.762348e-01 -1.067653e-01 1.111906e+00 -1.937833e-01 1.718812e-02 -1.424039e-01 -2.904436e-01 -1.022972e-01 4.544449e+00 6.215165e-01 -2.839637e-01 -4.758165e-01 -1.999051e-01 -3.518289e-01 -5.837775e-01 -1.136665e-01 -4.569338e-01 -5.247388e-01 -3.398664e-01 -3.246931e-01 -1.507666e-01 5.869188e-01
<VARIANCE> 39
 1.625078e+01 1.579703e+01 2.057483e+01 2.298611e+01 2.374345e+01 2.569718e+01 2.204530e+01 2.571228e+01 2.189393e+01 2.013204e+01 1.694990e+01 1.455437e+01 8.006918e+01 2.713425e+00 3.385469e+00 4.073308e+00 3.291020e+00 3.363603e+00 4.365602e+00 4.120288e+00 4.279346e+00 3.660540e+00 2.804530e+00 2.343195e+00 1.888244e+00 6.086693e+00 4.189548e-01 4.906348e-01 5.723091e-01 6.739500e-01 6.856080e-01 6.878730e-01 6.287136e-01 8.112087e-01 6.168604e-01 4.831841e-01 4.281420e-01 3.848990e-01 1.368955e+00
<GCONST> 1.214503e+02
<TRANSP> 5
 0.000000e+00 1.000000e+00 0.000000e+00 0.000000e+00 0.000000e+00
 0.000000e+00 5.286615e-01 4.713384e-01 0.000000e+00 0.000000e+00
 0.000000e+00 0.000000e+00 5.668454e-01 4.331546e-01 0.000000e+00
 0.000000e+00 0.000000e+00 0.000000e+00 5.820541e-01 4.179459e-01
 0.000000e+00 0.000000e+00 0.000000e+00 0.000000e+00 0.000000e+00
<ENDHMM>
~h "D"
<BEGINHMM>
<NUMSTATES> 5
<STATE> 2
<MEAN> 39
 -5.690108e+00 4.645134e+00 -1.407810e+00 -9.078246e+00 -6.664647e+00 -5.800108e+00 -4.044333e+00 -6.438275e+00 -2.155690e+00 -3.634305e+00 -3.872182e+00 -2.261793e+00 5.092340e+01 2.000258e-01 8.315001e-01 1.148649e+00 1.982970e+00 6.370023e-01 2.257332e-01 -2.755508e-01 1.046425e-01 -6.302245e-01 1.936467e-01 2.232392e-01 2.926921e-01 -2.340401e+00 -5.996915e-01 -6.093097e-01 -5.799240e-01 -4.555493e-02 1.473656e-01 3.078203e-01 2.263637e-01 3.432387e-01 1.465687e-01 4.994175e-02 1.605920e-01 1.681744e-02 8.102425e-01
<VARIANCE> 39
 2.280023e+01 2.759194e+01 3.417043e+01 5.176758e+01 3.140526e+01 3.808785e+01 3.989104e+01 3.667138e+01 3.508572e+01 4.604102e+01 2.783528e+01 2.537645e+01 4.549561e+01 2.938845e+00 2.608118e+00 3.087864e+00 4.215669e+00 3.169245e+00 3.442544e+00 2.896806e+00 3.161964e+00 3.010607e+00 2.831153e+00 2.332000e+00 1.912614e+00 4.496268e+00 4.361512e-01 4.007450e-01 5.232567e-01 6.321504e-01 5.366029e-01 6.178622e-01 5.694667e-01 5.440277e-01 6.069190e-01 5.357606e-01 4.194942e-01 3.505140e-01 8.098758e-01
<GCONST> 1.237107e+02
<STATE> 3
<MEAN> 39
 -7.608699e+00 4.502813e+00 -5.100708e-01 -3.766106e+00 -4.052063e+00 -4.126913e+00 -3.514839e+00 -4.120683e+00 -2.539138e+00 -2.323385e+00 -2.239392e+00 -1.243629e+00 4.712552e+01 -1.815304e+00 -1.030289e+00 -8.713401e-01 7.170049e-01 6.155640e-01 8.777813e-01 5.946004e-01 9.963640e-01 4.026910e-01 3.466395e-01 6.322628e-01 2.306707e-01 1.000728e+00 -3.556130e-01 -4.774366e-01 -7.182556e-01 -8.310003e-01 -2.705769e-01 6.010441e-02 1.890505e-01 3.046810e-02 3.098394e-01 -9.253263e-02 -6.836088e-02 -1.047915e-01 1.314463e+00
<VARIANCE> 39
 2.615938e+01 2.235645e+01 2.432393e+01 4.117079e+01 2.795040e+01 3.169632e+01 3.068464e+01 3.126730e+01 2.720525e+01 3.065278e+01 2.275437e+01 1.972286e+01 5.872099e+01 3.457370e+00 2.607352e+00 3.066227e+00 4.000765e+00 3.355323e+00 3.668228e+00 3.308662e+00 3.218511e+00 3.124150e+00 3.284301e+00 2.417852e+00 2.014368e+00 5.658801e+00 5.245935e-01 4.848112e-01 5.014126e-01 7.490219e-01 5.908856e-01 6.046740e-01 6.117724e-01 5.919608e-01 5.740645e-01 5.651406e-01 4.415309e-01 3.636545e-01 8.789216e-01
<GCONST> 1.232652e+02
<STATE> 4
<MEAN> 39
 -1.390700e+01 4.237503e-01 -5.750176e+00 -6.547086e+00 -3.998497e+00 -1.828627e+00 -1.568952e+00 -2.213640e+00 2.674413e-03 -2.300007e+00 -1.302130e+00 -1.114925e+00 5.573208e+01 -5.443080e-01 -7.606676e-01 -9.807252e-01 -1.074191e+00 -3.849341e-01 4.393472e-01 3.396992e-01 1.348745e-02 3.839774e-01 -1.488364e-01 -1.452419e-01 -5.330558e-02 1.822031e+00 6.025894e-01 6.263115e-02 1.794641e-01 -2.486926e-01 -1.358364e-01 -1.772019e-01 -8.945458e-02 -3.061047e-01 -1.125210e-01 -6.910130e-02 -1.908615e-01 -7.273600e-02 -2.405974e-01
<VARIANCE> 39
 3.394743e+01 2.879411e+01 3.037902e+01 4.707916e+01 3.331509e+01 3.346689e+01 3.058350e+01 3.188702e+01 2.761356e+01 3.288733e+01 2.481129e+01 2.002221e+01 5.193958e+01 3.947246e+00 2.790725e+00 3.246812e+00 5.523052e+00 3.915832e+00 3.960131e+00 3.651427e+00 3.926882e+00 3.180445e+00 3.412009e+00 2.803498e+00 2.127258e+00 6.724137e+00 6.830146e-01 6.036606e-01 6.452258e-01 1.047812e+00 7.411050e-01 6.727425e-01 6.520689e-01 7.142924e-01 6.448104e-01 7.083660e-01 5.456248e-01 4.165025e-01 9.966006e-01
<GCONST> 1.284563e+02
<TRANSP> 5
 0.000000e+00 1.000000e+00 0.000000e+00 0.000000e+00 0.000000e+00
 0.000000e+00 4.279478e-01 5.720521e-01 0.000000e+00 0.000000e+00
 0.000000e+00 0.000000e+00 3.427809e-01 6.572192e-01 0.000000e+00
 0.000000e+00 0.000000e+00 0.000000e+00 5.210969e-01 4.789031e-01
 0.000000e+00 0.000000e+00 0.000000e+00 0.000000e+00 0.000000e+00
<ENDHMM>
~h "F"
<BEGINHMM>
<NUMSTATES> 5
<STATE> 2
<MEAN> 39
 -1.524706e+01 2.201791e-01 -1.802196e+00 -1.737434e+00 -2.305849e+00 -8.402639e-01 -1.899243e+00 -3.115879e+00 -9.560958e-01 -1.414439e+00 -1.722001e+00 -1.385131e+00 5.357839e+01 -2.567500e+00 3.927322e-01 7.063246e-01 1.025586e+00 1.189674e+00 1.365655e+00 9.918460e-01 1.453092e+00 1.091717e+00 1.049076e+00 1.182408e+00 7.920337e-01 -1.284634e+00 2.381276e-01 -5.133237e-01 -5.107808e-01 -4.671087e-01 -3.021203e-01 -7.319262e-02 1.687466e-01 -1.813035e-02 3.461764e-02 -2.265593e-02 -1.899617e-02 4.010400e-02 4.007034e-01
<VARIANCE> 39
 2.359229e+01 1.356861e+01 1.336927e+01 2.035676e+01 1.967644e+01 2.216798e+01 2.587347e+01 2.631633e+01 2.120271e+01 2.128273e+01 2.025492e+01 1.605569e+01 2.227016e+01 2.170244e+00 2.832039e+00 2.754723e+00 3.144660e+00 3.030418e+00 2.876428e+00 3.244795e+00 3.505147e+00 2.628061e+00 2.536407e+00 2.477571e+00 2.065464e+00 1.985294e+00 5.027567e-01 3.739662e-01 3.896271e-01 4.162820e-01 4.468465e-01 5.473267e-01 5.448678e-01 5.564136e-01 4.601016e-01 4.277908e-01 4.305138e-01 3.383766e-01 3.006428e-01
<GCONST> 1.125947e+02
<STATE> 3
<MEAN> 39
 -1.994126e+01 -1.474952e+00 -2.965348e+00 -1.664840e+00 -1.489292e+00 1.252273e+00 8.787776e-01 1.672502e-01 1.499862e+00 8.607635e-01 7.667199e-01 4.465087e-01 5.252925e+01 -2.212542e-02 -2.323715e-01 -8.960678e-02 -6.151317e-02 -4.150328e-02 2.333668e-02 1.262121e-01 9.400213e-02 3.021929e-02 6.091526e-02 9.862675e-02 6.907453e-02 -3.870786e-02 5.552220e-01 -8.306184e-02 -1.170769e-01 -1.957775e-01 -2.040971e-01 -2.358935e-01 -2.086480e-01 -2.695482e-01 -2.209989e-01 -2.133294e-01 -2.023370e-01 -1.303896e-01 2.330289e-01
<VARIANCE> 39
 8.440290e+00 1.054212e+01 1.022229e+01 1.272836e+01 1.388863e+01 1.479342e+01 1.591823e+01 1.561967e+01 1.609722e+01 1.517290e+01 1.350757e+01 1.144845e+01 1.857794e+01 9.650927e-01 8.242591e-01 8.995515e-01 1.134804e+00 1.252214e+00 1.419896e+00 1.562334e+00 1.694308e+00 1.648733e+00 1.579468e+00 1.448233e+00 1.235909e+00 9.414389e-01 2.815586e-01 2.267486e-01 2.647617e-01 3.112361e-01 3.395247e-01 3.618647e-01 3.724543e-01 3.995640e-01 3.777837e-01 3.577510e-01 3.275276e-01 2.768790e-01 2.365429e-01
<GCONST> 9.306363e+01
<STATE> 4
<MEAN> 39
 -1.612190e+01 -2.372723e+00 -3.483484e+00 -2.551649e+00 -2.193578e+00 1.265570e-01 8.076406e-02 -1.340044e+00 1.110944e-01 -1.330208e-01 -1.132054e-01 4.387035e-02 5.320212e+01 3.046665e+00 -1.296147e+00 -1.567238e+00 -1.625769e+00 -1.298172e+00 -1.234781e+00 -9.265321e-01 -1.129487e+00 -1.084686e+00 -1.039400e+00 -8.905386e-01 -4.791106e-01 1.789354e+00 4.039485e-01 -3.627309e-01 -4.624410e-01 -3.572980e-01 -2.148807e-01 -1.702908e-01 -1.182387e-01 -1.125869e-01 -1.583765e-01 -2.183038e-01 -1.881351e-01 -1.649856e-01 5.859262e-01
<VARIANCE> 39
 2.444902e+01 1.467717e+01 1.749036e+01 1.988033e+01 1.875668e+01 2.105510e+01 2.026778e+01 2.064552e+01 1.975318e+01 1.735884e+01 1.570486e+01 1.335737e+01 2.274736e+01 2.423159e+00 3.318320e+00 3.545531e+00 3.612258e+00 3.470985e+00 2.978870e+00 2.768380e+00 2.982319e+00 2.847611e+00 2.399631e+00 1.985875e+00 1.851383e+00 3.171674e+00 5.399447e-01 3.721500e-01 4.368693e-01 4.974805e-01 4.879654e-01 5.144560e-01 4.930692e-01 4.974946e-01 4.928240e-01 4.167894e-01 3.774643e-01 3.385378e-01 3.527866e-01
<GCONST> 1.125936e+02
<TRANSP> 5
 0.000000e+00 1.000000e+00 0.000000e+00 0.000000e+00 0.000000e+00
 0.000000e+00 5.510432e-01 4.489568e-01 0.000000e+00 0.000000e+00
 0.000000e+00 0.000000e+00 8.109148e-01 1.890852e-01 0.000000e+00
 0.000000e+00 0.000000e+00 0.000000e+00 5.503559e-01 4.496442e-01
 0.000000e+00 0.000000e+00 0.000000e+00 0.000000e+00 0.000000e+00
<ENDHMM>
~h "G"
<BEGINHMM>
<NUMSTATES> 5
<STATE> 2
<MEAN> 39
 -4.790456e+00 5.511307e+00 -2.186717e-01 -8.978373e+00 -5.447228e+00 -6.536467e+00 -5.114954e+00 -3.171639e+00 -3.841309e+00 -2.011221e+00 -2.899129e+00 -2.436561e+00 4.767048e+01 -9.714296e-02 1.028583e-01 1.023804e+00 2.296321e+00 5.165067e-01 7.318759e-01 2.299530e-01 1.367029e-01 1.598527e-01 2.012687e-01 5.074002e-01 4.733432e-01 -2.232230e+00 -8.186786e-01 -9.062124e-01 -5.809715e-01 -9.493953e-02 9.928423e-03 3.789393e-01 4.274014e-01 8.602062e-02 2.991557e-01 -7.596532e-04 1.024650e-01 8.775938e-02 1.228217e+00
<VARIANCE> 39
 1.619905e+01 2.905700e+01 2.882802e+01 5.038908e+01 3.675493e+01 4.794376e+01 4.364298e+01 4.336168e+01 3.348662e+01 2.990784e+01 3.530931e+01 2.142742e+01 3.166214e+01 3.141933e+00 3.915788e+00 2.753043e+00 4.069908e+00 3.286558e+00 4.277878e+00 3.815218e+00 3.518327e+00 2.987640e+00 2.491317e+00 2.433033e+00 1.768754e+00 5.118318e+00 3.964908e-01 5.429830e-01 4.483259e-01 7.655587e-01 5.916443e-01 6.978270e-01 6.529935e-01 6.193627e-01 5.541216e-01 4.881430e-01 4.705424e-01 3.561230e-01 8.318154e-01
<GCONST> 1.247186e+02
<STATE> 3
<MEAN> 39
 -9.301882e+00 1.859246e+00 7.580674e-01 -1.966836e+00 -2.615649e+00 -1.651767e+00 -1.389080e+00 -1.044786e+00 -8.615341e-01 -2.463720e-01 -2.340060e-01 -4.462193e-02 4.486303e+01 -2.173525e+00 -2.518035e+00 -9.748675e-01 3.607534e-01 4.683928e-02 9.052042e-01 1.074302e+00 3.921862e-01 7.435595e-01 2.340079e-01 4.247575e-01 2.691501e-01 2.521415e+00 7.034417e-03 -2.020254e-01 -6.694287e-01 -1.135164e+00 -4.977950e-01 -4.288591e-01 -1.146188e-01 -1.874725e-01 -1.245527e-01 -2.289690e-01 -3.150198e-01 -2.688395e-01 1.433035e+00
<VARIANCE> 39
 2.119781e+01 3.464994e+01 2.281277e+01 3.653836e+01 3.043012e+01 3.290982e+01 3.151900e+01 2.810689e+01 2.397713e+01 2.121373e+01 1.897449e+01 1.452407e+01 4.578183e+01 3.193955e+00 4.691648e+00 3.153934e+00 4.549965e+00 3.947462e+00 4.462554e+00 3.620993e+00 3.463747e+00 3.021975e+00 2.686763e+00 2.622670e+00 1.889633e+00 5.754930e+00 5.618006e-01 7.536278e-01 5.464255e-01 7.094762e-01 5.917213e-01 6.747282e-01 6.412871e-01 6.626062e-01 5.272838e-01 4.760929e-01 4.449714e-01 3.141047e-01 8.588935e-01
<GCONST> 1.235029e+02
<STATE> 4
<MEAN> 39
 -1.425295e+01 -4.981595e+00 -4.093341e+00 -5.899113e+00 -5.535834e+00 -2.132937e+00 2.040167e-01 -1.433474e+00 8.187888e-02 -9.432535e-01 -7.103224e-01 -7.822786e-01 5.728700e+01 2.057031e-01 -3.205151e-01 -1.463327e+00 -2.012946e+00 -1.067525e+00 -5.170891e-01 -3.457455e-02 -2.997350e-01 -2.024904e-01 -5.553460e-01 -6.144281e-01 -4.415433e-01 2.714231e+00 8.828325e-01 7.012131e-01 4.733901e-02 -4.408705e-01 2.869357e-03 -2.355470e-01 -3.757905e-01 -1.233188e-01 -3.215694e-01 -1.612080e-01 -2.543324e-01 -1.679439e-01 -5.046884e-01
<VARIANCE> 39
 2.646195e+01 6.477454e+01 3.352303e+01 5.910876e+01 4.034056e+01 4.158715e+01 3.597662e+01 3.072465e+01 2.541033e+01 2.349524e+01 2.151736e+01 1.613996e+01 3.162544e+01 3.824800e+00 4.965613e+00 3.471970e+00 4.730727e+00 3.378996e+00 4.159436e+00 3.890673e+00 3.513350e+00 3.299824e+00 2.541356e+00 2.461083e+00 1.964498e+00 5.242911e+00 6.025558e-01 1.030880e+00 6.201081e-01 1.119444e+00 7.714050e-01 8.570732e-01 8.245318e-01 7.367342e-01 6.634006e-01 5.666460e-01 5.832103e-01 4.347975e-01 7.249247e-01
<GCONST> 1.287793e+02
<TRANSP> 5
 0.000000e+00 1.000000e+00 0.000000e+00 0.000000e+00 0.000000e+00
 0.000000e+00 5.974354e-01 4.025646e-01 0.000000e+00 0.000000e+00
 0.000000e+00 0.000000e+00 4.525762e-01 5.474238e-01 0.000000e+00
 0.000000e+00 0.000000e+00 0.000000e+00 5.793446e-01 4.206553e-01
 0.000000e+00 0.000000e+00 0.000000e+00 0.000000e+00 0.000000e+00
<ENDHMM>
~h "K"
<BEGINHMM>
<NUMSTATES> 5
<STATE> 2
<MEAN> 39
 -1.002252e+01 2.434643e+00 -1.193413e+00 -7.727027e+00 -3.456252e+00 -3.760074e+00 -3.202200e+00 -1.819489e+00 -1.679177e+00 -9.976670e-01 -2.380167e+00 -1.407118e+00 5.022174e+01 -2.745884e-01 3.193003e-01 1.480723e+00 2.761493e+00 1.019190e+00 1.441476e+00 1.100343e+00 1.178921e+00 7.843395e-01 9.376205e-01 1.162691e+00 8.685784e-01 -3.978050e+00 -3.389547e-01 -6.384710e-01 -5.290096e-01 5.738768e-02 8.808643e-02 2.942766e-01 3.422644e-01 1.862261e-02 1.822012e-01 -4.407337e-02 1.304085e-01 9.610605e-02 5.724329e-01
<VARIANCE> 39
 2.209375e+01 4.711778e+01 3.631236e+01 7.083451e+01 4.024252e+01 6.506783e+01 4.575089e+01 4.072046e+01 3.242017e+01 2.934145e+01 2.922013e+01 2.104686e+01 4.178289e+01 2.569160e+00 3.390656e+00 2.959339e+00 4.162240e+00 3.104457e+00 4.597007e+00 3.581878e+00 3.614761e+00 2.931364e+00 2.798654e+00 2.697456e+00 2.059969e+00 3.651312e+00 4.427930e-01 5.663322e-01 5.466116e-01 9.213572e-01 6.237137e-01 9.429378e-01 7.970114e-01 7.057777e-01 6.097224e-01 5.387846e-01 5.308175e-01 3.962011e-01 1.070271e+00
<GCONST> 1.281196e+02
<STATE> 3
<MEAN> 39
 -1.060396e+01 1.227514e+00 -9.554855e-02 -9.525107e-01 -4.144148e-01 1.203379e+00 1.205730e+00 1.759065e+00 1.456266e+00 1.539613e+00 1.087589e+00 1.140857e+00 4.106826e+01 -1.107641e+00 -1.269532e+00 -5.605796e-01 5.700852e-01 3.119328e-01 4.152498e-01 7.010612e-01 2.311235e-01 3.239968e-01 5.742393e-02 2.980548e-01 1.518162e-01 8.246483e-01 -3.215321e-01 -3.777438e-01 -5.619863e-01 -7.921297e-01 -4.082914e-01 -4.273601e-01 -2.621194e-01 -4.264679e-01 -2.570985e-01 -3.721635e-01 -3.921239e-01 -2.958785e-01 1.797448e+00
<VARIANCE> 39
 1.206013e+01 1.622090e+01 1.447145e+01 2.346192e+01 2.121176e+01 2.372147e+01 2.197101e+01 2.060353e+01 1.927599e+01 1.663568e+01 1.457383e+01 1.224413e+01 1.967266e+01 3.046992e+00 4.184271e+00 2.877053e+00 4.834811e+00 3.409588e+00 4.258166e+00 3.422821e+00 3.297173e+00 2.804263e+00 2.513417e+00 2.369943e+00 1.769411e+00 9.948152e+00 4.061878e-01 5.696044e-01 4.463230e-01 5.789741e-01 5.012714e-01 5.588979e-01 5.202250e-01 5.473611e-01 4.635080e-01 4.560407e-01 3.833943e-01 3.078551e-01 8.309904e-01
<GCONST> 1.157902e+02
<STATE> 4
<MEAN> 39
 -1.679063e+01 -3.903236e+00 -5.095832e+00 -3.250360e+00 -1.407506e+00 -8.211138e-01 8.708802e-01 -1.212634e+00 2.208392e-01 -8.674242e-01 -9.972159e-01 -4.395468e-01 5.621011e+01 1.024291e-01 -2.418665e-02 -7.146017e-01 -6.037294e-01 -1.797935e-01 -5.487751e-01 -5.644552e-01 -6.800392e-01 -3.920134e-01 -4.176186e-01 -4.536563e-01 -2.311506e-01 1.521697e+00 5.297446e-01 2.992403e-01 5.802552e-02 -1.807674e-01 -7.880723e-02 -1.588882e-01 -2.428162e-01 -8.726803e-02 -1.220934e-01 -2.638525e-02 -5.495904e-02 -2.136072e-02 -3.636288e-01
<VARIANCE> 39
 1.907806e+01 5.406522e+01 3.411842e+01 4.577501e+01 4.147947e+01 3.370746e+01 3.125621e+01 2.896464e+01 2.344741e+01 2.217718e+01 1.848090e+01 1.456894e+01 3.113119e+01 3.317960e+00 3.941891e+00 2.885406e+00 4.103902e+00 3.557971e+00 3.597972e+00 3.465470e+00 3.090899e+00 2.744747e+00 2.625907e+00 2.196434e+00 1.804908e+00 5.999221e+00 4.456107e-01 8.630660e-01 5.568558e-01 7.593721e-01 7.176053e-01 6.758578e-01 6.507003e-01 6.204536e-01 5.656332e-01 5.635130e-01 4.625580e-01 3.805615e-01 1.026649e+00
<GCONST> 1.241149e+02
<TRANSP> 5
 0.000000e+00 1.000000e+00 0.000000e+00 0.000000e+00 0.000000e+00
 0.000000e+00 5.005125e-01 4.994875e-01 0.000000e+00 0.000000e+00
 0.000000e+00 0.000000e+00 6.449456e-01 3.550543e-01 0.000000e+00
 0.000000e+00 0.000000e+00 0.000000e+00 7.958446e-01 2.041553e-01
 0.000000e+00 0.000000e+00 0.000000e+00 0.000000e+00 0.000000e+00
<ENDHMM>
~h "L"
<BEGINHMM>
<NUMSTATES> 5
<STATE> 2
<MEAN> 39
 -4.390433e+00 -6.870036e+00 -1.889546e+01 -5.837774e-01 -6.211789e+00 -6.539564e+00 -1.440122e+00 -3.074343e+00 -2.234776e+00 -5.494141e+00 -2.869101e+00 -2.591415e+00 6.021717e+01 5.452375e-01 1.827311e-01 -4.644202e-01 2.393336e-01 -1.224926e-01 -3.076902e-01 -4.505897e-01 2.914815e-01 1.118088e-01 -1.580587e-01 -7.509568e-02 -1.759127e-02 -3.377855e-01 -1.467473e-01 3.675799e-02 3.155746e-01 -1.470702e-01 -2.552687e-02 1.148982e-01 3.205254e-02 -8.959333e-02 -1.954137e-02 7.471848e-02 -1.159312e-02 -3.875285e-04 -1.632882e-02
<VARIANCE> 39
 1.537955e+01 3.335628e+01 4.727875e+01 3.012514e+01 4.334858e+01 3.461199e+01 4.351307e+01 3.721790e+01 3.847106e+01 3.158085e+01 2.413417e+01 2.392229e+01 3.275898e+01 8.634139e-01 9.499072e-01 2.001300e+00 1.565886e+00 1.632797e+00 1.909039e+00 2.088324e+00 2.224271e+00 1.983628e+00 1.752869e+00 1.443384e+00 1.256763e+00 1.090018e+00 1.213430e-01 1.541262e-01 2.567019e-01 2.407789e-01 2.322969e-01 3.171944e-01 3.628073e-01 3.416475e-01 3.351043e-01 2.955523e-01 2.573970e-01 2.180801e-01 1.436379e-01
<GCONST> 1.037855e+02
<STATE> 3
<MEAN> 39
 -3.417333e+00 -5.262266e+00 -1.695008e+01 -1.277919e+00 -7.212428e+00 -8.594625e+00 -2.435230e+00 -1.647150e+00 -1.838785e+00 -5.308215e+00 -3.213146e+00 -2.249651e+00 5.864977e+01 -3.086423e-01 -2.899109e-01 6.398440e-01 -4.425617e-03 -4.645215e-01 2.431789e-01 6.301932e-01 -3.801684e-01 -6.388491e-01 4.668058e-03 1.759062e-01 -9.426317e-02 3.460148e-01 -5.035427e-01 -6.995471e-04 5.504261e-01 -1.598123e-01 1.051239e-01 5.350697e-01 2.100858e-01 -3.165065e-01 -3.136678e-02 2.511716e-01 1.051548e-01 -6.715760e-04 4.738994e-02
<VARIANCE> 39
 1.449000e+01 3.271095e+01 4.617699e+01 2.985812e+01 4.886093e+01 3.808582e+01 4.776273e+01 3.977167e+01 3.986336e+01 3.528195e+01 2.793497e+01 3.035427e+01 3.703508e+01 1.610069e+00 2.728134e+00 4.601197e+00 2.571382e+00 2.823905e+00 3.222735e+00 4.388846e+00 3.322929e+00 3.063941e+00 2.645238e+00 2.344437e+00 2.012526e+00 3.589764e+00 2.998683e-01 3.242122e-01 6.120320e-01 5.083411e-01 5.347385e-01 6.447230e-01 6.818349e-01 6.647017e-01 6.399406e-01 5.581533e-01 4.300978e-01 3.746767e-01 3.607890e-01
<GCONST> 1.222809e+02
<STATE> 4
<MEAN> 39
 -6.977415e+00 -7.545469e+00 -1.256724e+01 -2.563481e+00 -1.017378e+01 -3.456426e+00 8.646638e-01 -6.612382e+00 -4.078646e+00 -3.531602e+00 -2.326868e+00 -3.291555e+00 6.115458e+01 -1.095361e+00 3.920221e-01 1.522686e+00 -1.243392e+00 3.274975e-01 1.537616e+00 -3.464234e-01 -1.129609e+00 7.238272e-01 4.819350e-01 -2.254190e-01 9.545688e-02 1.828482e-01 -1.033697e-01 3.344206e-01 3.561515e-02 -2.551270e-01 5.098318e-01 -1.293841e-01 -4.551201e-01 3.787979e-01 3.409551e-01 -1.415100e-01 -1.342178e-02 1.681587e-01 -2.036365e-01
<VARIANCE> 39
 1.517816e+01 3.492236e+01 3.625604e+01 4.317420e+01 5.011689e+01 4.682981e+01 5.943395e+01 4.939894e+01 3.632953e+01 3.462285e+01 3.159480e+01 3.147347e+01 4.910425e+01 1.180140e+00 2.332412e+00 3.227428e+00 3.866791e+00 2.951830e+00 3.648554e+00 3.819333e+00 3.999323e+00 3.462895e+00 3.110364e+00 2.397514e+00 2.050802e+00 3.039608e+00 2.403941e-01 2.776713e-01 4.094132e-01 4.376282e-01 5.484253e-01 7.543750e-01 7.649996e-01 6.766623e-01 6.269933e-01 5.024457e-01 4.636745e-01 3.488155e-01 2.287899e-01
<GCONST> 1.222867e+02
<TRANSP> 5
 0.000000e+00 1.000000e+00 0.000000e+00 0.000000e+00 0.000000e+00
 0.000000e+00 7.573830e-01 2.426170e-01 0.000000e+00 0.000000e+00
 0.000000e+00 0.000000e+00 5.413055e-01 4.586945e-01 0.000000e+00
 0.000000e+00 0.000000e+00 0.000000e+00 4.821288e-01 5.178713e-01
 0.000000e+00 0.000000e+00 0.000000e+00 0.000000e+00 0.000000e+00
<ENDHMM>
~h "M"
<BEGINHMM>
<NUMSTATES> 5
<STATE> 2
<MEAN> 39
 -6.570533e+00 1.910482e+00 -1.465702e+00 -7.462353e+00 -5.160328e+00 -7.988881e+00 -3.750655e+00 -3.567605e+00 -3.444934e+00 -1.423003e+00 -2.036486e+00 -4.680700e-01 4.941375e+01 1.166446e+00 4.136682e-01 2.794471e-02 -1.827654e+00 -1.378566e+00 -2.306217e+00 -1.258757e+00 -9.550720e-01 -1.408321e+00 -6.899641e-01 -1.008306e+00 -4.890860e-01 1.552253e+00 -2.305130e-01 -3.288308e-01 -3.398281e-01 -5.393884e-02 9.046847e-02 3.826229e-01 9.756094e-02 2.397185e-02 1.316135e-01 -1.272193e-01 -6.770534e-02 -1.319010e-01 4.812710e-01
<VARIANCE> 39
 1.706231e+01 2.203622e+01 2.501246e+01 4.606359e+01 5.427649e+01 5.542645e+01 4.244476e+01 4.693583e+01 4.498071e+01 3.996999e+01 3.891891e+01 3.151405e+01 7.009937e+01 1.493516e+00 2.250551e+00 3.732889e+00 4.530524e+00 3.755630e+00 4.630554e+00 3.849262e+00 4.969369e+00 3.546568e+00 4.640068e+00 3.186141e+00 2.783198e+00 6.639477e+00 3.930773e-01 3.186094e-01 3.413471e-01 7.243183e-01 7.084862e-01 1.078608e+00 6.665850e-01 6.860524e-01 6.655877e-01 5.970261e-01 5.211548e-01 4.267422e-01 4.880931e-01
<GCONST> 1.281724e+02
<STATE> 3
<MEAN> 39
 -4.822190e+00 6.382580e-01 -1.321542e+00 -1.117625e+01 -8.636312e+00 -1.150639e+01 -5.670221e+00 -4.333217e+00 -7.226529e+00 -2.384677e+00 -5.700901e+00 -3.313338e+00 5.607001e+01 -2.275420e-01 -2.837106e-01 -3.933499e-01 -1.404428e-01 2.371816e-02 3.567296e-01 -3.778173e-02 -1.183678e-01 1.009890e-01 -1.836713e-01 -1.593252e-01 -1.808600e-01 6.746542e-01 -3.422073e-01 -2.988282e-01 -4.446792e-01 2.639727e-01 2.717186e-01 7.121997e-01 1.743952e-01 -5.152592e-02 3.708058e-01 -9.217128e-02 2.307847e-01 8.394200e-02 1.689390e-01
<VARIANCE> 39
 1.045977e+01 1.905294e+01 2.887723e+01 3.653701e+01 5.069637e+01 5.233042e+01 4.062943e+01 6.046055e+01 4.611463e+01 5.309969e+01 5.431427e+01 3.778012e+01 2.031025e+01 6.955301e-01 1.522477e+00 1.837473e+00 1.623681e+00 1.797756e+00 2.818321e+00 2.003600e+00 2.059814e+00 2.245414e+00 2.202166e+00 2.076240e+00 1.772692e+00 2.608013e+00 1.860621e-01 2.661509e-01 3.516183e-01 4.483534e-01 5.169206e-01 6.369929e-01 5.392883e-01 6.198677e-01 5.999149e-01 6.234310e-01 5.365441e-01 4.077702e-01 2.425294e-01
<GCONST> 1.151357e+02
<STATE> 4
<MEAN> 39
 -7.503911e+00 -2.468657e+00 -6.041326e+00 -1.118932e+01 -8.163025e+00 -5.845339e+00 -5.370830e+00 -5.892821e+00 -4.801618e+00 -4.365393e+00 -4.728686e+00 -3.136850e+00 6.029350e+01 -1.392592e+00 -1.415911e+00 -1.818991e+00 3.673803e-01 8.946041e-01 2.392823e+00 1.396706e-01 -4.553512e-01 9.961873e-01 -7.069889e-01 4.673975e-01 3.590903e-02 1.942041e+00 -1.114038e-01 6.551665e-02 1.322798e-01 2.473500e-01 3.385572e-01 -7.612924e-02 3.727688e-02 5.524341e-02 9.259141e-02 7.905586e-02 1.754570e-01 1.025062e-01 -2.397273e-01
<VARIANCE> 39
 1.413186e+01 2.607881e+01 3.102234e+01 3.552485e+01 3.584489e+01 5.128622e+01 3.950973e+01 4.292411e+01 3.792483e+01 4.240990e+01 4.020402e+01 3.252687e+01 3.429139e+01 1.457349e+00 3.104841e+00 2.453363e+00 3.529236e+00 4.434939e+00 4.505250e+00 4.559541e+00 4.712190e+00 4.603021e+00 4.455952e+00 4.214021e+00 3.118368e+00 3.160321e+00 1.829549e-01 3.233654e-01 4.146117e-01 4.261267e-01 4.758983e-01 6.960695e-01 4.800921e-01 4.969167e-01 5.254735e-01 4.990161e-01 4.586489e-01 3.615114e-01 3.046821e-01
<GCONST> 1.226930e+02
<TRANSP> 5
 0.000000e+00 1.000000e+00 0.000000e+00 0.000000e+00 0.000000e+00
 0.000000e+00 5.490651e-01 4.509349e-01 0.000000e+00 0.000000e+00
 0.000000e+00 0.000000e+00 6.989217e-01 3.010782e-01 0.000000e+00
 0.000000e+00 0.000000e+00 0.000000e+00 4.198620e-01 5.801380e-01
 0.000000e+00 0.000000e+00 0.000000e+00 0.000000e+00 0.000000e+00
<ENDHMM>
~h "N"
<BEGINHMM>
<NUMSTATES> 5
<STATE> 2
<MEAN> 39
 -6.595353e+00 5.013813e-01 -4.626658e+00 -1.264523e+01 -4.913973e+00 -7.003343e+00 -4.879156e+00 -6.695587e+00 -1.799525e+00 -4.702318e+00 -3.634243e+00 -3.016650e+00 5.683117e+01 7.918265e-01 7.969808e-01 8.394524e-01 -3.505898e-01 1.803365e-01 -1.343020e+00 1.670951e-02 -2.824511e-01 2.110128e-02 2.565940e-01 -3.977777e-01 2.058701e-02 -1.110475e+00 -1.517683e-01 -8.292372e-02 -1.300408e-01 2.050600e-01 6.354855e-02 1.823072e-01 3.311296e-02 4.592114e-02 -2.050786e-02 1.821819e-02 4.358649e-02 1.122530e-02 6.468362e-02
<VARIANCE> 39
 1.474457e+01 2.581294e+01 3.105755e+01 3.784419e+01 3.387779e+01 5.155349e+01 4.572678e+01 4.359579e+01 3.940693e+01 5.279922e+01 3.494749e+01 3.208094e+01 3.460472e+01 1.087562e+00 1.979758e+00 1.831156e+00 2.378096e+00 2.428595e+00 3.726314e+00 2.807388e+00 2.567296e+00 2.529073e+00 2.522261e+00 2.125331e+00 1.715353e+00 1.645593e+00 1.395411e-01 2.254445e-01 2.540434e-01 3.265449e-01 3.143061e-01 4.666359e-01 3.744672e-01 3.505280e-01 3.577884e-01 3.436379e-01 3.017174e-01 2.431126e-01 1.682989e-01
<GCONST> 1.116294e+02
<STATE> 3
<MEAN> 39
 -4.901729e+00 1.778106e+00 -3.413665e+00 -1.363083e+01 -3.820839e+00 -1.058735e+01 -4.704426e+00 -7.639095e+00 -2.184839e+00 -4.097493e+00 -5.206474e+00 -2.987259e+00 5.497755e+01 1.676504e-01 5.118042e-01 3.419423e-01 4.344592e-01 7.535452e-02 -3.032311e-01 -1.178401e-01 3.594324e-02 -8.717206e-02 2.588643e-01 -1.080488e-01 5.911853e-03 -7.413813e-01 -6.140909e-01 -3.298118e-01 -3.412345e-01 5.399596e-01 -9.758379e-02 9.102265e-01 3.346553e-02 2.548454e-01 2.575348e-02 -2.756892e-02 3.163365e-01 5.701325e-02 3.700933e-01
<VARIANCE> 39
 1.490325e+01 2.117899e+01 2.992937e+01 3.999263e+01 3.777156e+01 5.329691e+01 4.750723e+01 5.506417e+01 4.562864e+01 7.135891e+01 4.594164e+01 4.399176e+01 3.038633e+01 1.027804e+00 1.537256e+00 1.478356e+00 2.385868e+00 1.968464e+00 3.022404e+00 2.223160e+00 2.176700e+00 2.106634e+00 2.131599e+00 1.888439e+00 1.619245e+00 1.891118e+00 2.790810e-01 3.685231e-01 4.041786e-01 5.167483e-01 5.820041e-01 6.807416e-01 6.857260e-01 6.830114e-01 6.713381e-01 7.080153e-01 5.436410e-01 4.701366e-01 3.198229e-01
<GCONST> 1.186717e+02
<STATE> 4
<MEAN> 39
 -6.843361e+00 1.919506e+00 -3.289386e+00 -1.049275e+01 -4.691209e+00 -7.293684e+00 -5.294757e+00 -6.703516e+00 -1.923757e+00 -3.425666e+00 -3.849983e+00 -2.472740e+00 5.406886e+01 -1.264728e+00 -4.139057e-01 -3.615777e-01 1.377135e+00 1.110525e-01 1.673104e+00 2.769431e-01 6.495246e-01 2.117527e-01 2.107899e-01 6.811743e-01 2.491648e-01 9.236124e-02 -3.806199e-01 -3.579198e-01 -2.862197e-01 1.720984e-01 1.305525e-01 4.625604e-01 2.211508e-01 2.134572e-01 1.099934e-01 -5.092558e-03 1.872054e-01 6.644024e-02 2.958692e-01
<VARIANCE> 39
 1.936550e+01 2.553391e+01 3.385302e+01 4.564500e+01 3.694839e+01 5.340280e+01 4.990256e+01 4.838107e+01 4.360892e+01 6.034122e+01 4.341860e+01 3.713724e+01 4.806573e+01 1.886324e+00 2.418883e+00 2.643472e+00 3.611312e+00 3.274486e+00 4.244440e+00 3.860181e+00 3.985943e+00 3.663424e+00 4.088298e+00 3.163571e+00 2.659601e+00 3.550395e+00 4.093722e-01 3.550929e-01 4.059102e-01 4.937162e-01 5.120016e-01 7.238860e-01 6.295480e-01 6.011320e-01 6.007734e-01 6.180272e-01 5.293267e-01 4.251975e-01 3.975298e-01
<GCONST> 1.260716e+02
<TRANSP> 5
 0.000000e+00 1.000000e+00 0.000000e+00 0.000000e+00 0.000000e+00
 0.000000e+00 5.763596e-01 4.236404e-01 0.000000e+00 0.000000e+00
 0.000000e+00 0.000000e+00 4.311575e-01 5.688425e-01 0.000000e+00
 0.000000e+00 0.000000e+00 0.000000e+00 3.839441e-01 6.160559e-01
 0.000000e+00 0.000000e+00 0.000000e+00 0.000000e+00 0.000000e+00
<ENDHMM>
~h "P"
<BEGINHMM>
<NUMSTATES> 5
<STATE> 2
<MEAN> 39
 -5.823139e+00 2.414304e+00 -8.993360e-01 -2.279045e+00 -4.867109e+00 -4.822366e+00 -3.011934e+00 -3.363472e+00 -3.111468e+00 -1.599203e+00 -1.731748e+00 -4.556419e-01 4.548854e+01 -4.560977e-01 8.885874e-01 1.152637e+00 1.799226e+00 1.754359e+00 1.397801e+00 5.484707e-01 1.115316e+00 8.249292e-01 7.572678e-01 1.043411e+00 7.642847e-01 -3.849606e+00 -6.749458e-01 -6.365781e-01 -5.689682e-01 -4.305630e-01 1.030990e-01 4.390208e-01 4.340930e-01 2.004794e-01 3.596577e-01 1.187474e-01 3.588144e-02 -3.487317e-02 9.731233e-01
<VARIANCE> 39
 1.868134e+01 2.286603e+01 1.995006e+01 3.035158e+01 3.138231e+01 3.378945e+01 3.186351e+01 3.564016e+01 3.131573e+01 2.774013e+01 2.512419e+01 2.043219e+01 2.749305e+01 2.610540e+00 2.907276e+00 2.690143e+00 3.281048e+00 2.880079e+00 3.287538e+00 3.423095e+00 3.817042e+00 3.158802e+00 2.681089e+00 2.481543e+00 1.875456e+00 4.183470e+00 3.046534e-01 3.563801e-01 3.843967e-01 4.860177e-01 5.586022e-01 6.055958e-01 5.789411e-01 5.757185e-01 5.473124e-01 4.775516e-01 4.357790e-01 3.681665e-01 8.033726e-01
<GCONST> 1.191204e+02
<STATE> 3
<MEAN> 39
 -9.315989e+00 1.344633e+00 -1.163469e+00 2.429603e-01 -1.630531e-01 9.824220e-01 1.349525e+00 1.555475e+00 1.219430e+00 1.491242e+00 1.144230e+00 1.158589e+00 3.944761e+01 -1.099024e+00 -5.061063e-01 -2.855518e-01 -2.343834e-01 2.993607e-01 6.214795e-01 4.379435e-01 3.602939e-01 4.477335e-01 1.166253e-01 1.067163e-01 -7.081374e-02 1.064620e+00 -1.740582e-01 -2.851243e-01 -3.099683e-01 -4.897784e-01 -4.211330e-01 -3.362375e-01 -2.435548e-01 -4.383376e-01 -2.562840e-01 -2.888875e-01 -3.182133e-01 -2.221354e-01 1.523583e+00
<VARIANCE> 39
 6.219842e+00 7.835834e+00 8.752204e+00 1.281544e+01 1.367281e+01 1.548333e+01 1.611880e+01 1.724134e+01 1.673553e+01 1.493470e+01 1.310092e+01 1.129840e+01 1.220139e+01 1.849162e+00 1.511762e+00 1.563770e+00 2.306880e+00 2.525443e+00 2.722166e+00 2.508821e+00 2.925212e+00 2.491707e+00 2.256072e+00 2.023718e+00 1.587961e+00 7.382383e+00 2.628299e-01 2.796721e-01 3.286324e-01 4.316465e-01 4.231848e-01 4.444354e-01 4.375044e-01 4.844268e-01 4.321373e-01 4.017901e-01 3.577627e-01 2.987349e-01 6.086742e-01
<GCONST> 1.031422e+02
<STATE> 4
<MEAN> 39
 -1.573920e+01 -2.873272e+00 -4.199142e+00 -2.927522e+00 -6.850592e-01 4.535999e-01 1.398990e-01 -1.213162e+00 5.477340e-01 -1.776916e-01 -7.369721e-01 -5.504604e-01 5.509668e+01 -5.211427e-02 -8.139762e-01 -8.130051e-01 -6.675035e-01 -3.382915e-01 -5.674602e-01 -5.813774e-01 -8.353066e-01 -4.739401e-01 -4.771447e-01 -4.630390e-01 -2.709277e-01 2.194991e+00 6.301121e-01 1.082535e-01 -1.052616e-01 -1.065874e-01 -2.140405e-01 -2.969509e-01 -2.040974e-01 -1.230216e-01 -1.839606e-01 -1.280382e-01 -6.543581e-02 -1.250492e-02 -4.078763e-01
<VARIANCE> 39
 1.654199e+01 2.478732e+01 2.330438e+01 3.085198e+01 3.346322e+01 2.755900e+01 2.675343e+01 2.545814e+01 2.304682e+01 2.142947e+01 1.847455e+01 1.530324e+01 2.971453e+01 3.577370e+00 2.688263e+00 2.639502e+00 3.653980e+00 3.735169e+00 3.650584e+00 3.252654e+00 3.090591e+00 2.834535e+00 2.538818e+00 2.177166e+00 1.928720e+00 6.179747e+00 3.794786e-01 3.692382e-01 4.716857e-01 6.065127e-01 6.454561e-01 6.582379e-01 6.093287e-01 6.015940e-01 5.658683e-01 5.126052e-01 4.450449e-01 3.996652e-01 8.808379e-01
<GCONST> 1.193728e+02
<TRANSP> 5
 0.000000e+00 1.000000e+00 0.000000e+00 0.000000e+00 0.000000e+00
 0.000000e+00 5.094375e-01 4.905625e-01 0.000000e+00 0.000000e+00
 0.000000e+00 0.000000e+00 7.129269e-01 2.870731e-01 0.000000e+00
 0.000000e+00 0.000000e+00 0.000000e+00 7.572200e-01 2.427800e-01
 0.000000e+00 0.000000e+00 0.000000e+00 0.000000e+00 0.000000e+00
<ENDHMM>
~h "R"
<BEGINHMM>
<NUMSTATES> 5
<STATE> 2
<MEAN> 39
 -5.919676e+00 -9.153477e+00 -3.430822e+00 -8.196596e+00 -1.195627e+01 -1.244103e+00 -3.554934e+00 -2.866831e+00 -2.028396e+00 -4.194428e+00 -2.456315e+00 -2.974730e+00 5.952287e+01 7.917207e-01 -9.723070e-01 -2.279664e-02 -8.802827e-01 -1.103875e+00 6.168145e-01 -4.130647e-01 -2.909447e-01 -4.160207e-02 -5.787091e-01 -1.925104e-01 -3.473894e-01 9.247108e-01 -4.295541e-01 2.322080e-01 -6.194793e-02 -8.399735e-02 5.411882e-01 9.417221e-02 6.699545e-02 7.334711e-02 -8.875363e-03 1.210823e-01 3.946509e-02 5.316792e-02 4.227601e-02
<VARIANCE> 39
 2.710706e+01 4.325874e+01 2.388779e+01 5.721888e+01 5.397044e+01 5.152991e+01 4.724942e+01 2.987132e+01 4.285312e+01 2.799918e+01 2.544689e+01 2.454465e+01 3.734501e+01 2.813960e+00 3.487044e+00 1.935982e+00 4.475444e+00 3.954646e+00 4.161153e+00 3.957481e+00 2.829747e+00 3.208515e+00 2.682639e+00 2.361057e+00 2.075413e+00 2.905381e+00 3.905323e-01 4.854093e-01 3.068511e-01 5.960389e-01 8.221899e-01 6.696170e-01 6.251347e-01 5.032481e-01 5.275396e-01 4.931485e-01 4.321063e-01 3.864566e-01 3.576845e-01
<GCONST> 1.234829e+02
<STATE> 3
<MEAN> 39
 -7.549634e+00 -1.169737e+01 -2.400843e+00 -1.273979e+01 -1.239288e+01 5.287240e+00 -4.798672e+00 -3.732468e+00 -2.304444e+00 -5.088444e+00 -2.458213e+00 -3.817570e+00 6.320284e+01 -3.575211e-01 4.983335e-01 -3.130419e-02 -8.326820e-01 8.058636e-01 4.027237e-02 -4.473299e-01 8.515835e-02 -5.540822e-02 9.039898e-03 -9.013110e-02 -3.145359e-02 2.392151e-01 -1.992968e-01 4.604917e-01 -1.677136e-01 2.333535e-01 5.572664e-01 -5.627246e-01 1.099044e-01 1.362520e-01 -7.460299e-02 2.016638e-01 3.002368e-03 1.234540e-01 -2.347070e-01
<VARIANCE> 39
 1.439252e+01 3.777489e+01 1.937463e+01 4.470396e+01 5.458625e+01 4.253160e+01 5.715620e+01 2.889654e+01 4.392070e+01 2.113756e+01 2.336740e+01 2.026496e+01 2.698415e+01 1.248683e+00 2.052642e+00 1.262065e+00 2.964690e+00 3.539683e+00 2.746782e+00 2.327058e+00 2.269799e+00 2.347062e+00 1.900619e+00 1.583881e+00 1.408860e+00 1.679329e+00 1.993693e-01 2.253908e-01 1.992340e-01 3.873023e-01 3.896229e-01 4.675645e-01 4.643974e-01 3.270225e-01 3.714264e-01 3.251072e-01 2.753166e-01 2.529307e-01 1.601423e-01
<GCONST> 1.093419e+02
<STATE> 4
<MEAN> 39
 -9.968093e+00 -7.650346e+00 -4.123550e+00 -1.555093e+01 -5.605211e+00 1.166845e+00 -6.567784e+00 -2.145163e+00 -4.230757e+00 -3.927528e+00 -3.224315e+00 -2.937675e+00 6.302098e+01 -4.156161e-01 1.373692e+00 -5.986545e-01 2.151139e-01 1.258780e+00 -1.545038e+00 4.659781e-01 -1.138513e-01 -1.192229e-02 4.854453e-01 -1.421014e-01 2.442671e-01 -3.680554e-01 5.339541e-02 1.562273e-01 -5.691198e-02 5.269887e-01 -1.261043e-01 -2.078623e-01 2.790667e-01 -1.704252e-01 1.627644e-01 7.746720e-02 2.267139e-02 9.799510e-02 -3.288386e-01
<VARIANCE> 39
 1.615416e+01 4.710619e+01 2.586855e+01 6.188350e+01 5.106768e+01 4.391900e+01 5.361483e+01 4.211346e+01 4.237378e+01 2.847847e+01 2.938541e+01 2.624974e+01 3.735751e+01 1.125383e+00 2.217993e+00 2.022892e+00 2.669947e+00 3.407550e+00 3.153136e+00 2.826445e+00 2.650181e+00 2.923770e+00 2.575676e+00 1.969465e+00 1.769366e+00 2.188585e+00 2.047989e-01 2.663069e-01 2.711161e-01 4.727413e-01 4.977396e-01 5.410693e-01 4.969159e-01 4.773501e-01 4.792350e-01 4.352505e-01 3.845632e-01 3.208569e-01 2.151694e-01
<GCONST> 1.166220e+02
<TRANSP> 5
 0.000000e+00 1.000000e+00 0.000000e+00 0.000000e+00 0.000000e+00
 0.000000e+00 5.563734e-01 4.436266e-01 0.000000e+00 0.000000e+00
 0.000000e+00 0.000000e+00 5.406138e-01 4.593862e-01 0.000000e+00
 0.000000e+00 0.000000e+00 0.000000e+00 4.647841e-01 5.352159e-01
 0.000000e+00 0.000000e+00 0.000000e+00 0.000000e+00 0.000000e+00
<ENDHMM>
~h "S"
<BEGINHMM>
<NUMSTATES> 5
<STATE> 2
<MEAN> 39
 -1.515600e+01 1.749118e+00 -4.656529e+00 -3.187616e+00 -3.514618e+00 -3.614227e-01 -3.282492e+00 -2.883578e+00 -4.382971e-01 -2.248612e+00 -2.370247e+00 -1.430886e+00 5.528724e+01 -2.315635e+00 -8.534979e-02 -2.571304e-02 2.015148e+00 1.268664e+00 1.452237e+00 7.101647e-01 1.716275e+00 4.874487e-01 9.478425e-01 1.145455e+00 8.886399e-01 -1.030138e+00 1.759878e-01 -3.201492e-01 -2.353589e-01 -3.842281e-01 -1.884154e-01 -1.418752e-01 1.861235e-01 -2.120044e-02 7.773855e-02 3.178106e-02 4.438815e-02 6.677716e-02 1.478533e-01
<VARIANCE> 39
 2.087538e+01 2.051061e+01 1.435930e+01 2.729004e+01 2.471751e+01 2.654022e+01 2.969913e+01 3.281308e+01 2.285641e+01 3.495451e+01 2.341025e+01 2.016844e+01 2.088321e+01 1.482785e+00 2.495342e+00 2.190381e+00 3.323640e+00 2.891518e+00 2.796097e+00 3.600518e+00 3.619066e+00 2.651078e+00 3.682670e+00 2.753201e+00 2.338592e+00 1.293484e+00 4.411891e-01 3.711877e-01 3.377526e-01 5.169402e-01 4.895934e-01 5.414168e-01 5.523148e-01 6.431639e-01 4.836027e-01 5.592121e-01 4.905410e-01 4.026165e-01 1.964326e-01
<GCONST> 1.148298e+02
<STATE> 3
<MEAN> 39
 -1.982044e+01 1.845113e-01 -5.871733e+00 -2.821304e-01 -1.837207e+00 2.222687e+00 -8.139801e-01 1.079310e+00 1.192221e+00 3.951733e-01 2.821044e-01 9.257429e-01 5.260709e+01 -1.594262e-01 4.977800e-02 -2.373166e-02 1.540758e-01 2.345034e-02 1.318730e-01 1.492646e-01 1.338007e-01 7.950138e-02 1.344578e-01 8.137132e-02 8.611969e-02 -2.176746e-01 3.560631e-01 8.532015e-02 6.716445e-02 -2.247708e-01 -1.481898e-01 -1.680110e-01 -8.710011e-02 -2.427351e-01 -8.472069e-02 -1.320897e-01 -1.433304e-01 -1.163811e-01 7.299002e-02
<VARIANCE> 39
 6.437869e+00 1.222292e+01 1.091409e+01 1.359978e+01 1.545476e+01 1.570616e+01 1.578795e+01 1.568946e+01 1.585720e+01 1.557114e+01 1.432765e+01 1.147637e+01 1.654151e+01 5.445769e-01 9.033986e-01 9.004433e-01 1.215274e+00 1.207426e+00 1.407164e+00 1.588159e+00 1.682703e+00 1.583580e+00 1.597950e+00 1.407593e+00 1.216958e+00 7.786180e-01 1.764780e-01 1.811417e-01 1.987092e-01 3.003902e-01 3.014298e-01 3.377303e-01 3.618779e-01 4.007990e-01 3.406470e-01 3.627667e-01 3.223229e-01 2.686658e-01 1.716430e-01
<GCONST> 9.079784e+01
<STATE> 4
<MEAN> 39
 -1.799714e+01 1.143914e+00 -5.185880e+00 -1.134942e+00 -2.525373e+00 1.804600e+00 -5.718124e-01 -2.130539e-01 8.760122e-01 -1.377085e-01 -2.748345e-01 4.031811e-01 5.296029e+01 1.853048e+00 -7.983106e-02 2.753731e-03 -1.192694e+00 -8.556225e-01 -9.326673e-01 -5.701741e-02 -9.622070e-01 -3.986078e-01 -4.569719e-01 -3.717502e-01 -2.567672e-01 2.173030e-01 4.534630e-01 -2.454203e-01 -1.288125e-01 -3.464049e-01 -1.873567e-01 -2.903315e-01 -2.388798e-02 -2.052930e-01 -1.211182e-01 -1.100755e-01 -1.041197e-01 -8.182080e-02 1.995444e-01
<VARIANCE> 39
 1.640751e+01 2.057778e+01 1.729683e+01 2.359558e+01 2.291607e+01 2.165113e+01 2.115432e+01 2.198352e+01 1.964878e+01 2.060692e+01 1.833352e+01 1.407289e+01 2.601022e+01 2.241161e+00 2.466030e+00 2.602167e+00 4.136912e+00 3.145250e+00 2.905472e+00 2.795556e+00 3.503178e+00 2.241560e+00 2.524147e+00 2.151241e+00 1.686119e+00 4.324708e+00 3.456113e-01 3.839033e-01 4.299370e-01 5.806510e-01 5.787375e-01 5.153303e-01 5.092582e-01 6.034168e-01 4.543341e-01 4.577648e-01 4.208523e-01 3.497356e-01 5.857443e-01
<GCONST> 1.139223e+02
<TRANSP> 5
 0.000000e+00 1.000000e+00 0.000000e+00 0.000000e+00 0.000000e+00
 0.000000e+00 6.169181e-01 3.830818e-01 0.000000e+00 0.000000e+00
 0.000000e+00 0.000000e+00 8.236697e-01 1.763303e-01 0.000000e+00
 0.000000e+00 0.000000e+00 0.000000e+00 5.848656e-01 4.151344e-01
 0.000000e+00 0.000000e+00 0.000000e+00 0.000000e+00 0.000000e+00
<ENDHMM>
~h "T"
<BEGINHMM>
<NUMSTATES> 5
<STATE> 2
<MEAN> 39
 -1.000301e+01 3.042099e+00 -2.578058e+00 -5.377707e+00 -3.896115e+00 -1.995043e+00 -1.129523e+00 -2.430017e+00 -1.275149e-01 -1.023758e+00 -1.045130e+00 -9.238864e-02 4.836893e+01 -3.488815e-01 2.788628e-01 6.124562e-01 1.748663e+00 9.417558e-01 5.603494e-01 4.582657e-01 8.493782e-01 2.048799e-01 5.948683e-01 6.260496e-01 3.945473e-01 -2.008698e+00 -3.539512e-01 -5.011365e-01 -5.099444e-01 -3.343642e-01 1.361843e-02 6.820066e-02 3.970324e-02 3.831740e-02 4.594116e-02 -1.177461e-01 -4.155999e-02 -1.110709e-01 9.701838e-01
<VARIANCE> 39
 2.625780e+01 3.357354e+01 2.950685e+01 5.839775e+01 3.499703e+01 4.350225e+01 3.988765e+01 4.010983e+01 3.353972e+01 3.330919e+01 2.663225e+01 2.135852e+01 6.118907e+01 3.258634e+00 3.214825e+00 3.103016e+00 4.997796e+00 3.233942e+00 4.052922e+00 3.612277e+00 3.619462e+00 2.966955e+00 3.264436e+00 2.458634e+00 2.040038e+00 6.090812e+00 4.766825e-01 4.700021e-01 5.558274e-01 8.378819e-01 5.801085e-01 7.005464e-01 6.600634e-01 6.423917e-01 6.026456e-01 5.492076e-01 4.490452e-01 3.807780e-01 1.159126e+00
<GCONST> 1.272742e+02
<STATE> 3
<MEAN> 39
 -1.419054e+01 1.265141e+00 -4.254681e+00 -1.698543e+00 -1.288834e+00 2.110038e-01 5.851032e-01 8.024790e-01 9.971240e-01 2.615582e-01 7.117400e-01 2.422540e-01 4.872489e+01 -1.376714e+00 -5.864900e-01 -1.129769e+00 -4.762022e-01 3.614216e-02 1.305005e-01 2.698728e-02 2.085995e-01 2.242757e-01 -2.807951e-01 1.985419e-02 -1.504555e-01 2.192516e+00 1.583552e-01 7.055737e-04 -1.484205e-01 -6.319945e-01 -3.004444e-01 -1.983939e-01 -2.753138e-01 -4.062127e-01 -9.433904e-02 -2.726502e-01 -2.821323e-01 -1.078212e-01 6.684147e-01
<VARIANCE> 39
 3.192471e+01 2.449944e+01 2.542504e+01 3.297055e+01 2.236963e+01 2.448325e+01 2.096797e+01 2.461980e+01 1.983693e+01 1.973890e+01 1.598324e+01 1.351112e+01 7.785495e+01 3.132089e+00 2.492520e+00 2.838983e+00 3.337397e+00 2.588622e+00 3.059716e+00 2.801034e+00 2.932264e+00 2.569339e+00 2.486433e+00 2.062261e+00 1.707216e+00 7.081518e+00 6.609746e-01 5.682495e-01 6.327050e-01 6.471505e-01 5.287174e-01 5.594442e-01 5.347589e-01 5.504118e-01 4.794720e-01 5.208410e-01 4.126707e-01 3.454735e-01 1.501702e+00
<GCONST> 1.196304e+02
<STATE> 4
<MEAN> 39
 -1.713668e+01 4.850351e-01 -6.153797e+00 -5.794164e+00 -1.811179e+00 -1.087518e-01 -1.299731e+00 -1.561767e+00 1.141147e+00 -1.561305e+00 -8.947399e-01 -2.531395e-01 5.642727e+01 8.375899e-01 -3.863215e-01 7.884116e-02 -1.166088e+00 -5.791286e-01 -3.870254e-01 -5.409520e-01 -8.644980e-01 -2.859679e-01 -3.838437e-01 -5.251529e-01 -1.875546e-01 7.829145e-01 5.502514e-01 -1.370625e-01 1.102158e-01 -7.183840e-02 -2.143801e-01 -1.566116e-01 -2.798783e-02 -1.028386e-01 -1.824540e-01 3.360571e-03 -6.901327e-02 -7.831584e-02 -2.199082e-01
<VARIANCE> 39
 3.010534e+01 2.964843e+01 2.588406e+01 3.733664e+01 3.407969e+01 3.157952e+01 2.909083e+01 3.025644e+01 2.497162e+01 2.635593e+01 2.309621e+01 2.014526e+01 3.706764e+01 3.179313e+00 2.753715e+00 2.680759e+00 4.590758e+00 3.866349e+00 3.585293e+00 3.238144e+00 3.366811e+00 2.905224e+00 2.798729e+00 2.556853e+00 2.176927e+00 3.957669e+00 4.705321e-01 4.308705e-01 5.782512e-01 6.000606e-01 6.403567e-01 6.195335e-01 5.706147e-01 6.059144e-01 5.574095e-01 5.245249e-01 4.913754e-01 4.222750e-01 7.929222e-01
<GCONST> 1.225617e+02
<TRANSP> 5
 0.000000e+00 1.000000e+00 0.000000e+00 0.000000e+00 0.000000e+00
 0.000000e+00 4.655162e-01 5.344838e-01 0.000000e+00 0.000000e+00
 0.000000e+00 0.000000e+00 5.069874e-01 4.930126e-01 0.000000e+00
 0.000000e+00 0.000000e+00 0.000000e+00 5.966249e-01 4.033751e-01
 0.000000e+00 0.000000e+00 0.000000e+00 0.000000e+00 0.000000e+00
<ENDHMM>
~h "V"
<BEGINHMM>
<NUMSTATES> 5
<STATE> 2
<MEAN> 39
 -8.107801e+00 -2.510951e-01 -3.858346e+00 -3.865479e+00 -7.748712e+00 -7.077886e+00 -3.187657e+00 -4.320340e+00 -4.160566e+00 -3.896265e+00 -3.480310e+00 -3.006262e+00 5.415532e+01 -7.087317e-01 1.355798e+00 1.305836e+00 5.929743e-01 4.709867e-01 1.889100e-01 -8.466284e-01 3.693376e-02 1.059688e-01 1.153257e-01 1.803698e-01 1.618526e-01 -1.449329e+00 -1.985891e-01 -4.079821e-01 -3.827012e-01 -3.872891e-01 1.508975e-01 2.863875e-01 2.316231e-01 -8.962442e-02 9.128472e-02 6.708862e-02 -9.296943e-03 9.865287e-02 5.742589e-01
<VARIANCE> 39
 1.746505e+01 3.055545e+01 2.683751e+01 3.179818e+01 3.149721e+01 3.119367e+01 3.310004e+01 3.882553e+01 2.847343e+01 2.480368e+01 2.665524e+01 2.374030e+01 4.096778e+01 2.522389e+00 2.841194e+00 3.163350e+00 2.995804e+00 2.783516e+00 4.079446e+00 3.694670e+00 3.160450e+00 2.663519e+00 2.329874e+00 2.164019e+00 1.887924e+00 3.049467e+00 4.010574e-01 5.813200e-01 4.939088e-01 5.498881e-01 5.374978e-01 7.483442e-01 5.878403e-01 5.348836e-01 4.756386e-01 4.155754e-01 3.806970e-01 3.443846e-01 5.207187e-01
<GCONST> 1.197985e+02
<STATE> 3
<MEAN> 39
 -9.923204e+00 -1.397648e+00 -4.750797e+00 -4.985425e+00 -7.153833e+00 -5.870137e+00 -3.332483e+00 -4.499070e+00 -3.898897e+00 -3.209258e+00 -3.125448e+00 -2.278430e+00 5.582626e+01 -9.877104e-02 5.209692e-01 5.012626e-01 -4.557787e-01 1.855275e-01 -3.348566e-01 -1.042807e-01 3.055183e-01 1.036516e-01 1.300720e-01 -1.545245e-01 1.896561e-01 -4.426801e-01 8.430112e-02 -1.799605e-01 -1.696747e-01 -1.455927e-01 9.652939e-02 1.661437e-02 1.542419e-01 -3.089458e-02 1.008917e-01 -3.579852e-02 -4.590100e-02 1.630045e-02 2.005657e-01
<VARIANCE> 39
 2.793162e+01 3.513528e+01 3.156909e+01 3.216817e+01 3.639194e+01 3.822434e+01 3.329849e+01 3.848414e+01 3.411291e+01 2.661933e+01 2.863508e+01 2.650107e+01 4.348283e+01 2.579582e+00 3.847522e+00 3.904287e+00 3.571194e+00 3.384907e+00 7.390344e+00 3.669428e+00 4.132925e+00 3.417121e+00 2.622402e+00 2.560630e+00 2.038129e+00 4.646338e+00 4.538107e-01 5.266640e-01 5.404971e-01 5.167692e-01 5.380462e-01 7.362560e-01 6.221765e-01 5.866475e-01 5.758752e-01 4.888659e-01 4.242614e-01 3.765061e-01 5.219780e-01
<GCONST> 1.249558e+02
<STATE> 4
<MEAN> 39
 -6.860073e+00 -1.109002e+00 -5.929884e+00 -7.899285e+00 -9.013978e+00 -1.089684e+01 -3.437242e+00 -4.738891e+00 -4.556134e+00 -4.125888e+00 -6.131197e+00 -3.710873e+00 5.726891e+01 -2.151489e-01 2.641031e-01 2.026964e-01 4.397200e-03 7.508421e-02 4.661880e-01 2.443320e-02 -6.657802e-04 2.007128e-01 1.462988e-02 1.003442e-01 4.512010e-02 -2.924660e-01 -5.536123e-02 -8.458376e-02 -6.412368e-02 7.035682e-02 7.726246e-02 1.868006e-01 4.245022e-02 -7.893824e-03 1.412870e-02 2.650257e-02 8.167387e-02 3.504816e-02 2.288164e-02
<VARIANCE> 39
 1.739667e+01 1.996012e+01 2.971045e+01 2.843074e+01 4.118994e+01 5.422958e+01 3.329154e+01 5.290398e+01 3.197737e+01 3.705491e+01 3.946689e+01 2.979093e+01 2.420380e+01 1.161070e+00 2.011268e+00 2.401010e+00 2.114823e+00 2.418348e+00 3.458861e+00 2.333472e+00 2.615933e+00 2.378399e+00 2.063033e+00 1.886109e+00 1.672378e+00 2.048403e+00 1.639949e-01 2.811865e-01 3.509793e-01 2.803385e-01 3.750980e-01 6.150472e-01 4.187669e-01 4.743204e-01 4.377660e-01 3.785792e-01 3.273970e-01 2.967781e-01 2.182043e-01
<GCONST> 1.125179e+02
<TRANSP> 5
 0.000000e+00 1.000000e+00 0.000000e+00 0.000000e+00 0.000000e+00
 0.000000e+00 4.950669e-01 5.049331e-01 0.000000e+00 0.000000e+00
 0.000000e+00 0.000000e+00 2.849417e-01 7.150583e-01 0.000000e+00
 0.000000e+00 0.000000e+00 0.000000e+00 7.636333e-01 2.363667e-01
 0.000000e+00 0.000000e+00 0.000000e+00 0.000000e+00 0.000000e+00
<ENDHMM>
~h "W"
<BEGINHMM>
<NUMSTATES> 5
<STATE> 2
<MEAN> 39
 -2.145777e+00 -1.763796e+00 -1.153411e+01 -7.070723e+00 -3.961880e+00 -7.077930e+00 -5.214273e+00 -3.051261e+00 -1.930978e+00 -1.229383e+00 -3.086934e+00 -3.051884e+00 5.337960e+01 7.031723e-01 -3.032518e-01 -1.086316e+00 -1.297819e-01 7.606594e-02 -5.578542e-01 -4.285645e-01 1.430108e-02 -3.505959e-02 -2.089426e-01 -3.705070e-01 -2.438889e-01 6.255182e-01 -3.823487e-01 -2.497255e-01 1.141221e-01 5.605222e-02 -2.115637e-01 6.416150e-02 3.868886e-01 1.193014e-01 -7.600545e-02 -1.540471e-01 1.064874e-04 5.386901e-02 4.104848e-01
<VARIANCE> 39
 2.247176e+01 2.508670e+01 5.163330e+01 3.091799e+01 3.676473e+01 3.778673e+01 3.528143e+01 3.696646e+01 3.300954e+01 3.109730e+01 3.559363e+01 2.721119e+01 4.197883e+01 2.206446e+00 2.552223e+00 3.626259e+00 3.666707e+00 3.617841e+00 4.149837e+00 3.362471e+00 3.585346e+00 3.332272e+00 2.825154e+00 2.470973e+00 1.996778e+00 4.077086e+00 2.661523e-01 3.519161e-01 6.456919e-01 6.100679e-01 6.397996e-01 7.179582e-01 7.279220e-01 6.805151e-01 6.255838e-01 5.116943e-01 4.425235e-01 3.861702e-01 3.479773e-01
<GCONST> 1.233606e+02
<STATE> 3
<MEAN> 39
 -3.697304e+00 -6.466389e+00 -1.382758e+01 -5.109501e+00 -5.441266e+00 -1.048189e+01 -3.699295e+00 4.746343e-01 -2.270058e+00 -4.831549e+00 -4.829178e+00 -2.348125e+00 5.855678e+01 -7.397374e-01 -1.234858e+00 1.873329e-01 1.721346e-01 -1.641338e+00 -3.103037e-01 1.833763e+00 2.075205e-01 -1.254294e+00 -6.476420e-01 1.559072e-01 -2.266205e-02 1.977215e+00 -4.636782e-01 2.865291e-01 7.104177e-01 -3.790994e-01 -2.108789e-01 8.612642e-01 3.572475e-01 -7.173171e-01 -8.389626e-02 4.358239e-01 1.810723e-01 -8.980627e-02 -1.184731e-01
<VARIANCE> 39
 1.412417e+01 2.431027e+01 4.413474e+01 2.835002e+01 4.252489e+01 3.795874e+01 3.696930e+01 4.467173e+01 3.894247e+01 2.974781e+01 3.569991e+01 2.867314e+01 2.944813e+01 1.756390e+00 1.746635e+00 3.328249e+00 3.819392e+00 3.368029e+00 3.302537e+00 3.779842e+00 4.001245e+00 2.985995e+00 2.893283e+00 2.870068e+00 2.568000e+00 2.485537e+00 2.878478e-01 2.434454e-01 4.582217e-01 6.064094e-01 5.898936e-01 6.717964e-01 6.324648e-01 6.471711e-01 7.812180e-01 5.020022e-01 4.710350e-01 3.892980e-01 2.768852e-01
<GCONST> 1.209914e+02
<STATE> 4
<MEAN> 39
 -6.833608e+00 -7.573010e+00 -1.030654e+01 -6.828684e+00 -1.073186e+01 -7.406573e+00 2.336679e+00 -2.953708e+00 -6.160903e+00 -2.841966e+00 -3.744358e+00 -3.652311e+00 6.155740e+01 -1.247619e+00 5.327911e-02 1.115090e+00 -1.566494e+00 -9.923292e-01 2.074338e+00 7.397579e-01 -1.975020e+00 1.394693e-01 5.243528e-01 -3.843478e-01 -2.801849e-01 1.299648e+00 -1.040550e-02 6.143154e-01 1.827219e-01 -3.183043e-01 6.784359e-01 3.041613e-01 -8.304627e-01 -1.944332e-01 7.069208e-01 -2.742717e-02 -1.138381e-01 1.457292e-01 -5.517553e-01
<VARIANCE> 39
 1.252810e+01 2.868363e+01 3.357221e+01 3.594323e+01 4.076696e+01 3.877663e+01 3.646195e+01 5.458519e+01 3.579984e+01 3.038795e+01 4.014071e+01 2.920522e+01 2.883784e+01 1.205196e+00 1.508794e+00 2.425467e+00 3.660992e+00 3.148580e+00 3.764479e+00 4.027581e+00 3.228217e+00 3.602854e+00 2.673302e+00 2.461276e+00 2.184187e+00 1.360087e+00 2.537986e-01 2.467016e-01 4.627172e-01 6.263337e-01 5.936398e-01 7.268449e-01 6.789069e-01 7.993751e-01 6.341974e-01 6.464629e-01 5.423343e-01 3.920902e-01 2.752129e-01
<GCONST> 1.199222e+02
<TRANSP> 5
 0.000000e+00 1.000000e+00 0.000000e+00 0.000000e+00 0.000000e+00
 0.000000e+00 7.089441e-01 2.910559e-01 0.000000e+00 0.000000e+00
 0.000000e+00 0.000000e+00 4.247125e-01 5.752875e-01 0.000000e+00
 0.000000e+00 0.000000e+00 0.000000e+00 3.783307e-01 6.216693e-01
 0.000000e+00 0.000000e+00 0.000000e+00 0.000000e+00 0.000000e+00
<ENDHMM>
~h "Y"
<BEGINHMM>
<NUMSTATES> 5
<STATE> 2
<MEAN> 39
 -1.016975e+01 8.206444e+00 -5.649090e+00 -7.259683e+00 -3.645612e+00 -6.631620e+00 -3.264967e+00 -2.575889e+00 -1.238186e+00 -1.021466e+00 -9.951134e-01 -7.034921e-01 5.194353e+01 2.736282e-01 1.445290e+00 -1.304012e+00 -1.680321e+00 -6.020807e-01 -1.859740e+00 -8.496569e-01 -5.373425e-01 -6.278821e-01 -4.223627e-01 -3.612376e-01 -3.062302e-01 1.386894e+00 2.216068e-02 -2.206735e-01 -1.302560e-01 -2.410886e-01 -1.841658e-02 9.166118e-03 8.209457e-02 3.401604e-02 -4.369909e-02 -6.535139e-02 -1.180829e-01 -1.267465e-01 2.990715e-01
<VARIANCE> 39
 2.647457e+01 3.281377e+01 4.183198e+01 7.330599e+01 3.459505e+01 5.247375e+01 4.269067e+01 3.272157e+01 3.369688e+01 3.227485e+01 3.204263e+01 2.957448e+01 6.536408e+01 2.675283e+00 2.441476e+00 3.852370e+00 6.075056e+00 4.236269e+00 4.599677e+00 4.083581e+00 3.450383e+00 3.132949e+00 2.666797e+00 2.869478e+00 2.424967e+00 3.966946e+00 3.672300e-01 4.048592e-01 5.008935e-01 9.702026e-01 6.052516e-01 8.278249e-01 7.010093e-01 5.755608e-01 5.253637e-01 4.797325e-01 4.296815e-01 4.357680e-01 4.366198e-01
<GCONST> 1.272211e+02
<STATE> 3
<MEAN> 39
 -1.023335e+01 1.142843e+01 -1.294134e+01 -1.333510e+01 -5.054685e+00 -1.379473e+01 -3.127907e+00 -5.084832e+00 -3.856401e+00 -3.337193e+00 -4.692204e+00 -3.626796e+00 5.875547e+01 -3.250383e-01 -1.605522e-01 -4.309953e-01 -1.162883e+00 4.656804e-01 -2.154189e-01 3.185711e-01 3.208959e-01 -2.612384e-02 -1.343093e-01 -1.767000e-01 -3.327091e-01 1.015718e+00 -9.043518e-03 -6.084510e-01 4.768260e-01 1.083599e-02 9.176446e-02 5.804002e-01 -7.966158e-02 1.773195e-01 6.755282e-02 4.276559e-04 1.495694e-01 7.091662e-02 -7.392474e-02
<VARIANCE> 39
 1.133001e+01 2.091943e+01 4.339915e+01 2.973984e+01 2.285432e+01 3.331335e+01 3.273030e+01 2.975076e+01 2.841128e+01 2.397685e+01 3.876320e+01 3.120471e+01 2.184657e+01 8.815816e-01 2.215149e+00 2.086746e+00 3.444728e+00 2.011918e+00 2.351152e+00 2.279904e+00 1.947267e+00 1.653243e+00 1.749344e+00 2.003089e+00 2.090718e+00 1.933050e+00 1.763841e-01 2.047459e-01 3.305736e-01 5.522670e-01 4.693575e-01 4.900762e-01 5.233456e-01 3.651218e-01 3.391653e-01 2.957076e-01 3.651124e-01 3.005260e-01 1.908190e-01
<GCONST> 1.090578e+02
<STATE> 4
<MEAN> 39
 -1.155964e+01 6.363217e+00 -8.630744e+00 -1.943036e+01 -2.613167e+00 -8.871511e+00 -5.187884e+00 -6.655533e-01 -3.168920e+00 -3.813297e+00 -2.721320e+00 -3.980916e+00 6.257638e+01 4.643518e-02 -1.690270e+00 8.413233e-01 -5.840527e-01 -2.750456e-01 1.769304e+00 -5.925401e-01 9.316184e-02 2.702912e-01 -4.706157e-01 1.694967e-01 1.927646e-01 5.523266e-01 1.442809e-01 -1.683145e-01 1.051062e-01 5.810915e-01 -3.198310e-01 2.107006e-01 4.016052e-02 -4.056889e-01 1.318433e-01 2.198846e-02 -4.300921e-02 1.523017e-01 -2.436491e-01
<VARIANCE> 39
 1.063988e+01 2.795168e+01 4.552736e+01 2.440578e+01 2.335549e+01 4.125976e+01 3.884539e+01 2.718759e+01 3.010925e+01 2.457050e+01 3.245503e+01 2.951150e+01 2.801705e+01 4.666840e-01 1.532427e+00 1.091619e+00 1.556513e+00 2.750577e+00 2.158911e+00 2.372501e+00 2.192880e+00 1.744201e+00 1.551526e+00 2.049466e+00 1.541687e+00 7.658365e-01 8.690120e-02 1.596031e-01 2.044574e-01 3.832524e-01 3.248440e-01 3.729143e-01 4.821504e-01 3.378218e-01 3.403617e-01 3.043587e-01 2.997625e-01 2.732072e-01 9.216850e-02
<GCONST> 1.026232e+02
<TRANSP> 5
 0.000000e+00 1.000000e+00 0.000000e+00 0.000000e+00 0.000000e+00
 0.000000e+00 5.977612e-01 4.022388e-01 0.000000e+00 0.000000e+00
 0.000000e+00 0.000000e+00 7.130466e-01 2.869534e-01 0.000000e+00
 0.000000e+00 0.000000e+00 0.000000e+00 6.677260e-01 3.322740e-01
 0.000000e+00 0.000000e+00 0.000000e+00 0.000000e+00 0.000000e+00
<ENDHMM>
~h "Z"
<BEGINHMM>
<NUMSTATES> 5
<STATE> 2
<MEAN> 39
 -8.741111e+00 4.405145e+00 -4.815339e+00 -9.033287e+00 -1.102585e+01 -4.821649e+00 -4.485884e+00 -5.521384e+00 -4.307108e-01 -3.192289e+00 -5.304540e+00 -3.348260e+00 5.517828e+01 -1.558029e+00 1.126498e+00 6.224318e-01 2.645328e+00 1.083162e+00 9.656705e-01 -4.145069e-01 8.838420e-01 -3.766270e-01 5.392557e-01 5.227453e-01 4.810198e-01 -1.569777e+00 -4.866207e-01 -4.312479e-01 -1.473082e-01 1.952774e-01 5.453252e-01 3.261523e-01 3.407548e-01 2.507396e-01 1.399354e-02 8.617795e-02 3.180051e-01 2.082686e-01 1.284490e-01
<VARIANCE> 39
 1.137915e+01 1.884784e+01 1.598683e+01 3.533506e+01 2.345520e+01 2.281917e+01 3.380527e+01 2.711723e+01 2.695353e+01 5.330479e+01 2.737665e+01 2.797724e+01 2.105779e+01 1.851704e+00 2.094899e+00 1.953083e+00 2.992093e+00 3.114987e+00 2.930013e+00 2.672613e+00 2.730147e+00 2.645930e+00 2.725315e+00 2.421191e+00 2.098886e+00 1.135246e+00 2.291274e-01 3.081238e-01 2.569888e-01 4.814205e-01 3.926263e-01 4.126084e-01 4.793000e-01 4.278762e-01 4.655648e-01 5.216932e-01 3.818532e-01 3.618281e-01 1.718455e-01
<GCONST> 1.111911e+02
<STATE> 3
<MEAN> 39
 -1.551944e+01 4.846133e+00 -3.637371e+00 -7.443556e-01 -4.537997e+00 -4.513072e-01 -3.622565e+00 -2.056600e+00 -1.049186e+00 -1.483344e+00 -1.828403e+00 -8.628063e-01 5.165935e+01 -2.018571e+00 -7.037196e-01 -9.342141e-02 1.638604e+00 1.728211e+00 1.525634e+00 9.670559e-01 1.228321e+00 4.890564e-01 7.459784e-01 1.084821e+00 8.799896e-01 -6.686831e-01 5.684645e-01 -4.529435e-01 -2.784663e-01 -9.319351e-01 -4.232742e-01 -3.295895e-01 2.117675e-01 -2.125599e-01 1.830693e-01 -1.237342e-01 -1.516353e-01 -1.271576e-01 4.610399e-01
<VARIANCE> 39
 1.531651e+01 2.156925e+01 1.365889e+01 2.084229e+01 2.407943e+01 2.378886e+01 2.518526e+01 2.248147e+01 2.169261e+01 2.693196e+01 2.010878e+01 1.785740e+01 1.805029e+01 1.579378e+00 1.610851e+00 1.641946e+00 2.866394e+00 2.348423e+00 2.347375e+00 2.784270e+00 2.629904e+00 2.383660e+00 3.042326e+00 2.354959e+00 2.051580e+00 1.161067e+00 2.868650e-01 4.046245e-01 3.592500e-01 4.620174e-01 5.159451e-01 4.918810e-01 5.210660e-01 4.985041e-01 5.003238e-01 4.707355e-01 4.132940e-01 3.558010e-01 2.782657e-01
<GCONST> 1.095409e+02
<STATE> 4
<MEAN> 39
 -1.833526e+01 1.593322e+00 -5.167973e+00 -6.445683e-01 -2.753864e+00 2.217536e+00 -8.135743e-01 3.050674e-01 1.171965e+00 2.498163e-01 -2.741991e-01 7.094879e-01 5.154278e+01 3.762479e-01 -3.152827e-01 2.658784e-02 -3.261585e-01 -6.985544e-02 -1.067701e-01 2.489810e-01 -2.174325e-02 6.655931e-02 2.933577e-02 4.514758e-02 2.671274e-02 -1.561264e-01 5.290050e-01 4.838065e-02 6.856303e-02 -2.983459e-01 -2.399288e-01 -2.946301e-01 -1.052214e-01 -2.224394e-01 -1.017903e-01 -1.233171e-01 -1.603698e-01 -1.421724e-01 5.904527e-03
<VARIANCE> 39
 1.394996e+01 2.077102e+01 1.377008e+01 2.095262e+01 2.350983e+01 2.176596e+01 2.060985e+01 2.032650e+01 1.975661e+01 1.997452e+01 1.797716e+01 1.410123e+01 1.906937e+01 1.838836e+00 1.462631e+00 1.543637e+00 2.421179e+00 2.086785e+00 2.082425e+00 2.109430e+00 2.099524e+00 1.975034e+00 1.915408e+00 1.733981e+00 1.413701e+00 2.093210e+00 3.245381e-01 2.936091e-01 3.092268e-01 4.968165e-01 4.970897e-01 4.641829e-01 4.573520e-01 4.703409e-01 4.168657e-01 4.268045e-01 3.935429e-01 3.175285e-01 3.616393e-01
<GCONST> 1.059284e+02
<TRANSP> 5
 0.000000e+00 1.000000e+00 0.000000e+00 0.000000e+00 0.000000e+00
 0.000000e+00 5.815333e-01 4.184667e-01 0.000000e+00 0.000000e+00
 0.000000e+00 0.000000e+00 5.018059e-01 4.981941e-01 0.000000e+00
 0.000000e+00 0.000000e+00 0.000000e+00 7.381842e-01 2.618158e-01
 0.000000e+00 0.000000e+00 0.000000e+00 0.000000e+00 0.000000e+00
<ENDHMM>
~h "CH"
<BEGINHMM>
<NUMSTATES> 5
<STATE> 2
<MEAN> 39
 -1.250967e+01 4.448942e+00 -2.334117e+00 -2.139909e+00 -2.400237e+00 -1.156139e+00 -2.583500e-01 -1.258131e+00 6.247513e-01 -5.165339e-01 2.009414e-01 4.490203e-02 4.635801e+01 -1.997842e+00 9.231449e-02 -3.057021e-01 1.619760e+00 1.013000e+00 8.767519e-01 8.030135e-01 9.386975e-01 4.642189e-01 5.445385e-01 6.766454e-01 3.929421e-01 -3.908409e-01 -4.380736e-01 -1.471508e-01 -5.675391e-01 -4.546853e-01 -1.536066e-01 -1.480719e-01 -3.082820e-02 -1.098327e-01 -3.253439e-03 -1.128397e-01 -1.208034e-01 -1.281412e-01 1.147807e+00
<VARIANCE> 39
 3.120714e+01 2.986405e+01 2.279630e+01 3.273945e+01 2.773128e+01 2.800426e+01 3.027713e+01 3.028970e+01 2.414311e+01 2.356061e+01 1.999340e+01 1.600947e+01 4.776619e+01 4.242914e+00 3.541397e+00 3.763382e+00 4.806176e+00 2.994127e+00 3.459882e+00 3.120918e+00 3.221492e+00 2.648149e+00 2.964231e+00 2.359737e+00 2.010869e+00 9.861373e+00 6.365252e-01 6.747082e-01 5.308779e-01 7.185055e-01 5.360313e-01 5.660406e-01 6.254182e-01 6.125107e-01 4.938573e-01 5.242075e-01 4.225836e-01 3.433099e-01 1.004370e+00
<GCONST> 1.235026e+02
<STATE> 3
<MEAN> 39
 -2.439874e+01 7.855402e+00 -7.858994e+00 -6.839805e-01 -2.975672e-01 1.441771e-03 7.095061e-01 -1.880937e-01 1.892999e+00 -6.030580e-01 6.464733e-01 2.130899e-01 5.569849e+01 -6.044263e-01 3.169682e-01 -2.173784e-01 -3.800583e-01 1.756749e-01 4.207138e-02 -1.142727e-01 -1.358546e-01 6.507201e-02 -1.460365e-01 -1.712790e-01 4.584233e-02 7.743727e-01 6.212795e-01 -1.795420e-01 2.724656e-01 -2.471791e-01 -1.077294e-01 -8.395963e-02 -1.055691e-01 -1.154403e-01 -7.186583e-02 -2.567013e-02 -9.133041e-02 -6.907029e-03 -3.625220e-01
<VARIANCE> 39
 8.246297e+00 2.426702e+01 1.674290e+01 1.944496e+01 1.573705e+01 1.528417e+01 1.642135e+01 1.633657e+01 1.402352e+01 1.316937e+01 1.169968e+01 9.953424e+00 1.730176e+01 2.413169e+00 2.420671e+00 1.763811e+00 1.571718e+00 1.311801e+00 1.400513e+00 1.471251e+00 1.502756e+00 1.452652e+00 1.430974e+00 1.281835e+00 1.135587e+00 2.516620e+00 3.052042e-01 4.819726e-01 3.166682e-01 3.454555e-01 3.028359e-01 3.089665e-01 3.264086e-01 3.342461e-01 3.069244e-01 3.123619e-01 2.775814e-01 2.318847e-01 2.897171e-01
<GCONST> 9.783904e+01
<STATE> 4
<MEAN> 39
 -2.083118e+01 4.042158e+00 -5.099771e+00 -5.356734e+00 -5.522252e-01 -1.006627e-01 -1.631644e-01 -1.882666e+00 1.404377e+00 -6.806830e-01 -1.028275e+00 1.168208e-01 5.602781e+01 2.403416e+00 -1.218065e+00 3.381361e-01 -1.202633e+00 -9.539349e-01 -5.699652e-01 -5.317087e-01 -6.129378e-01 -5.155495e-01 -2.484646e-01 -4.432837e-01 -2.649037e-01 -3.350063e-01 4.440342e-01 -1.609909e-01 -1.844495e-01 -4.344498e-02 -2.761332e-01 -2.082261e-01 -4.326587e-02 -1.789801e-02 -1.608020e-01 -1.048786e-01 -1.838110e-02 -1.238288e-01 5.815824e-02
<VARIANCE> 39
 1.935594e+01 2.740936e+01 2.488683e+01 3.125804e+01 2.733387e+01 2.560963e+01 2.842907e+01 2.647206e+01 2.313932e+01 2.192080e+01 2.034933e+01 1.858339e+01 2.435765e+01 2.065743e+00 2.441999e+00 2.220213e+00 4.956365e+00 3.275949e+00 3.307849e+00 2.923139e+00 2.904386e+00 2.549817e+00 2.329426e+00 2.261177e+00 1.959925e+00 2.749349e+00 4.498613e-01 4.369255e-01 4.241853e-01 6.100373e-01 6.078043e-01 5.470182e-01 5.375050e-01 5.128454e-01 5.218320e-01 4.426633e-01 4.497844e-01 4.099722e-01 4.754903e-01
<GCONST> 1.166918e+02
<TRANSP> 5
 0.000000e+00 1.000000e+00 0.000000e+00 0.000000e+00 0.000000e+00
 0.000000e+00 7.582123e-01 2.417877e-01 0.000000e+00 0.000000e+00
 0.000000e+00 0.000000e+00 8.449895e-01 1.550105e-01 0.000000e+00
 0.000000e+00 0.000000e+00 0.000000e+00 6.690390e-01 3.309611e-01
 0.000000e+00 0.000000e+00 0.000000e+00 0.000000e+00 0.000000e+00
<ENDHMM>
~h "DH"
<BEGINHMM>
<NUMSTATES> 5
<STATE> 2
<MEAN> 39
 -8.809871e+00 4.071282e+00 -4.935575e-01 -3.170074e+00 -5.661447e+00 -4.725127e+00 -3.312853e+00 -4.752752e+00 -3.262071e+00 -2.562843e+00 -2.831167e+00 -1.677487e+00 4.794260e+01 -5.506912e-01 7.672860e-02 2.169382e-01 5.508547e-01 7.361565e-01 7.024003e-01 2.353120e-02 3.195802e-01 2.100835e-01 1.957527e-01 4.353153e-01 3.369197e-01 -5.777448e-01 -2.025328e-01 -6.034547e-01 -6.034690e-01 -4.917629e-01 -1.609241e-01 8.231335e-02 2.446812e-01 1.134179e-01 2.914631e-01 -2.127911e-02 8.533021e-03 -1.178271e-02 9.255905e-01
<VARIANCE> 39
 2.599509e+01 1.484520e+01 1.429943e+01 3.050055e+01 3.043429e+01 2.955656e+01 3.073301e+01 3.527829e+01 2.872959e+01 3.063844e+01 2.565211e+01 2.162468e+01 3.952834e+01 2.245831e+00 1.809912e+00 1.741837e+00 2.391218e+00 2.815510e+00 2.659741e+00 2.691754e+00 2.922423e+00 2.476031e+00 2.335910e+00 2.078347e+00 1.696510e+00 3.959187e+00 4.482657e-01 3.312255e-01 3.223557e-01 5.285381e-01 5.053126e-01 5.000198e-01 5.496194e-01 5.408881e-01 5.023220e-01 4.674489e-01 3.695261e-01 3.167540e-01 7.777944e-01
<GCONST> 1.154620e+02
<STATE> 3
<MEAN> 39
 -1.200478e+01 1.921228e+00 -1.653814e+00 -1.750029e+00 -2.384451e+00 -1.167815e+00 -1.061004e+00 -1.485907e+00 -4.020559e-01 -7.359925e-01 -5.541375e-01 -1.026457e-01 4.691888e+01 -8.642511e-01 -1.316467e+00 -1.308715e+00 -1.180288e+00 -3.190470e-01 4.369295e-01 2.812249e-01 1.734057e-01 7.360799e-01 -6.412737e-02 1.507206e-01 7.238771e-02 2.343163e+00 2.788035e-01 -2.802234e-01 -4.842531e-01 -8.876146e-01 -6.941327e-01 -3.312155e-01 -5.295660e-02 -4.601900e-01 -2.643300e-02 -3.075482e-01 -2.976663e-01 -1.941189e-01 1.137978e+00
<VARIANCE> 39
 2.303752e+01 1.310279e+01 1.304751e+01 2.800245e+01 2.914654e+01 2.729864e+01 2.502516e+01 3.065903e+01 2.454838e+01 2.550649e+01 2.235776e+01 1.724189e+01 5.190636e+01 2.240746e+00 1.588452e+00 1.403483e+00 2.370808e+00 2.573227e+00 2.845527e+00 2.620044e+00 2.962282e+00 2.588757e+00 2.451074e+00 2.055643e+00 1.623851e+00 4.098813e+00 4.211520e-01 3.356910e-01 3.111399e-01 5.517017e-01 5.805029e-01 5.249790e-01 6.313885e-01 6.265776e-01 5.087455e-01 5.931049e-01 4.330243e-01 3.646718e-01 6.665532e-01
<GCONST> 1.146455e+02
<STATE> 4
<MEAN> 39
 -1.372111e+01 -1.666425e+00 -5.378791e+00 -6.009646e+00 -4.334947e+00 -1.387921e+00 -1.674481e+00 -2.306706e+00 6.494542e-01 -1.889215e+00 -7.695574e-01 -3.876516e-01 5.497799e+01 6.473045e-01 -9.594842e-01 -1.607339e+00 -2.727370e+00 -1.909706e+00 -4.554762e-01 8.034031e-02 -1.176108e+00 2.859040e-01 -8.362024e-01 -6.818424e-01 -3.727793e-01 3.460164e+00 5.913422e-01 3.049346e-01 8.897687e-02 -2.569895e-01 -3.582718e-01 -3.052368e-01 6.059287e-02 -3.143616e-01 -2.061614e-01 -1.243920e-01 -2.796528e-01 -1.803418e-01 -1.519399e-01
<VARIANCE> 39
 2.097543e+01 1.535832e+01 1.329690e+01 2.514095e+01 2.776516e+01 2.266476e+01 2.213429e+01 2.642721e+01 2.127788e+01 2.610118e+01 2.298601e+01 1.697134e+01 3.128838e+01 2.811054e+00 2.361524e+00 1.996394e+00 3.879845e+00 3.577696e+00 3.645479e+00 3.519696e+00 3.862332e+00 3.182703e+00 3.823702e+00 2.754574e+00 2.150189e+00 3.849884e+00 4.262610e-01 3.770279e-01 3.297770e-01 5.164056e-01 5.635985e-01 5.277839e-01 4.984643e-01 6.573334e-01 5.027653e-01 5.340631e-01 5.166219e-01 4.039112e-01 5.962279e-01
<GCONST> 1.172277e+02
<TRANSP> 5
 0.000000e+00 1.000000e+00 0.000000e+00 0.000000e+00 0.000000e+00
 0.000000e+00 4.808201e-01 5.191799e-01 0.000000e+00 0.000000e+00
 0.000000e+00 0.000000e+00 3.364120e-01 6.635880e-01 0.000000e+00
 0.000000e+00 0.000000e+00 0.000000e+00 3.791959e-01 6.208041e-01
 0.000000e+00 0.000000e+00 0.000000e+00 0.000000e+00 0.000000e+00
<ENDHMM>
~h "HH"
<BEGINHMM>
<NUMSTATES> 5
<STATE> 2
<MEAN> 39
 -1.586149e+01 -2.404462e+00 -4.874668e+00 -2.391630e+00 3.796012e-01 -1.361503e+00 -2.694170e+00 -3.935703e+00 1.119688e-01 -1.727439e+00 -1.905528e+00 -1.215720e+00 5.672493e+01 -2.605649e-01 -1.828663e-01 1.504789e-01 3.026113e-01 1.291047e-01 3.104029e-02 8.481081e-02 1.148085e-01 9.779505e-02 2.315400e-01 1.128125e-01 1.300943e-01 -7.139950e-02 3.988583e-01 6.476180e-02 -1.265188e-01 -3.360738e-01 -3.354230e-01 -2.565408e-01 -1.031332e-01 -1.349851e-01 -1.409052e-01 -9.493849e-02 -8.093687e-02 -1.742956e-02 7.379778e-02
<VARIANCE> 39
 2.369648e+01 4.323906e+01 3.479818e+01 5.354464e+01 4.472681e+01 4.236075e+01 4.375658e+01 3.974796e+01 3.332265e+01 3.517419e+01 3.059392e+01 2.460309e+01 2.861864e+01 1.211661e+00 1.337782e+00 1.466008e+00 2.198845e+00 2.330271e+00 2.579078e+00 2.530039e+00 2.677177e+00 2.304511e+00 2.219343e+00 2.042572e+00 1.694703e+00 6.489573e-01 2.048519e-01 2.376265e-01 2.862143e-01 4.020127e-01 4.339328e-01 5.174032e-01 5.133733e-01 5.108501e-01 4.790159e-01 4.533301e-01 4.164983e-01 3.461984e-01 1.218909e-01
<GCONST> 1.124075e+02
<STATE> 3
<MEAN> 39
 -1.398195e+01 -6.356691e-01 -4.316711e+00 -3.424655e+00 -9.741682e-01 -2.724497e+00 -2.685113e+00 -4.019606e+00 -2.534727e-01 -1.415552e+00 -2.195142e+00 -1.226581e+00 5.525500e+01 1.738168e+00 4.188616e-01 -5.506790e-01 -1.426245e+00 -1.364374e+00 -1.578387e+00 -1.013032e+00 -1.057681e+00 -8.759938e-01 -6.428391e-01 -5.684921e-01 -1.957879e-01 7.462767e-01 3.985284e-01 -1.253186e-01 -4.168440e-01 -5.469316e-01 -3.913785e-01 -2.735910e-01 -9.376191e-02 -7.960181e-02 -1.799846e-01 -1.892588e-01 -1.006896e-01 -1.169726e-01 4.390109e-01
<VARIANCE> 39
 2.462329e+01 5.679754e+01 3.888472e+01 5.602652e+01 4.711190e+01 4.834367e+01 4.488092e+01 4.014955e+01 3.440749e+01 3.666242e+01 3.300982e+01 2.751315e+01 4.194976e+01 1.652411e+00 2.290109e+00 1.977858e+00 2.719480e+00 2.756647e+00 3.752398e+00 2.783944e+00 3.136737e+00 2.672591e+00 2.597024e+00 2.548105e+00 2.192222e+00 1.204656e+00 2.118672e-01 2.845542e-01 3.145415e-01 4.012318e-01 4.593916e-01 5.204524e-01 5.183463e-01 5.047280e-01 5.052091e-01 4.702579e-01 4.554049e-01 4.169296e-01 1.994549e-01
<GCONST> 1.185218e+02
<STATE> 4
<MEAN> 39
 -8.780481e+00 1.914393e-02 -6.614788e+00 -8.161611e+00 -5.344570e+00 -7.490386e+00 -5.952148e+00 -7.082642e+00 -3.148157e+00 -3.919325e+00 -4.201909e+00 -2.256104e+00 5.831228e+01 1.538136e+00 -3.944855e-01 -1.281218e+00 -1.856331e+00 -1.374215e+00 -1.134966e+00 -3.801038e-01 -4.238144e-01 -5.753283e-01 -4.570372e-01 -3.776248e-01 -3.360881e-01 1.384144e+00 -3.727707e-01 -2.972677e-01 -1.409747e-02 1.241318e-01 2.319913e-01 4.327459e-01 3.775811e-01 3.387811e-01 2.317048e-01 1.506433e-01 1.400020e-01 -5.974589e-03 7.538629e-02
<VARIANCE> 39
 2.005785e+01 6.596343e+01 4.056131e+01 5.180507e+01 5.052030e+01 5.327000e+01 4.125219e+01 4.273186e+01 2.908617e+01 3.764325e+01 3.975178e+01 3.503701e+01 3.131438e+01 1.627105e+00 2.570504e+00 2.316176e+00 2.994797e+00 2.931279e+00 3.950909e+00 3.200013e+00 3.081700e+00 3.065082e+00 2.990772e+00 3.045012e+00 2.677922e+00 1.613913e+00 2.216829e-01 2.192184e-01 2.888696e-01 3.678831e-01 4.772176e-01 5.087717e-01 4.452176e-01 4.919812e-01 4.172570e-01 4.208844e-01 4.376642e-01 4.228155e-01 1.572574e-01
<GCONST> 1.189913e+02
<TRANSP> 5
 0.000000e+00 1.000000e+00 0.000000e+00 0.000000e+00 0.000000e+00
 0.000000e+00 7.142315e-01 2.857685e-01 0.000000e+00 0.000000e+00
 0.000000e+00 0.000000e+00 3.552716e-01 6.447284e-01 0.000000e+00
 0.000000e+00 0.000000e+00 0.000000e+00 3.140143e-01 6.859857e-01
 0.000000e+00 0.000000e+00 0.000000e+00 0.000000e+00 0.000000e+00
<ENDHMM>
~h "IY"
<BEGINHMM>
<NUMSTATES> 5
<STATE> 2
<MEAN> 39
 -7.605360e+00 -2.327386e+00 -1.315133e+01 -9.611565e+00 4.324040e+00 -1.006449e+01 7.328884e+00 -2.139558e+00 -4.290937e+00 -4.065388e+00 -1.614372e+00 -2.393611e+00 6.186800e+01 3.204546e-01 3.795358e-01 -6.070283e-01 3.169575e-01 1.597774e-01 -5.063723e-01 2.118078e-01 4.112135e-01 -2.195030e-02 1.284256e-01 1.957626e-02 1.483320e-01 -4.304489e-01 1.747176e-01 -1.518867e-02 5.444527e-01 -4.453385e-02 -5.879976e-01 5.102496e-01 -3.551909e-01 -2.244464e-01 4.593651e-01 -5.439634e-02 -1.419466e-02 1.003395e-02 -3.067999e-01
<VARIANCE> 39
 1.256288e+01 7.536217e+01 1.666669e+01 4.560764e+01 2.320984e+01 1.747686e+01 5.078539e+01 1.072602e+01 1.953251e+01 1.527826e+01 1.582334e+01 2.055829e+01 9.107954e+00 5.563825e-01 8.897750e-01 2.722428e+00 2.382521e+00 2.415575e+00 3.064360e+00 3.146996e+00 8.978227e-01 3.051681e+00 2.355492e+00 1.937232e+00 1.484982e+00 4.510987e-01 1.287682e-01 2.336414e-01 3.467592e-01 2.638780e-01 1.982828e-01 3.920158e-01 7.697991e-01 2.346104e-01 7.121815e-01 4.909516e-01 5.331408e-01 2.325754e-01 1.297026e-01
<GCONST> 1.022600e+02
<STATE> 3
<MEAN> 39
 -4.306876e+00 -2.748436e-01 -6.726681e+00 -8.684646e+00 -4.128460e+00 -6.987111e+00 6.484365e+00 -1.130358e+00 -1.430247e+00 -1.771761e+00 7.517157e-01 -4.715011e+00 5.565393e+01 3.719936e-01 4.560820e-02 2.644819e-01 5.148786e-01 -3.537510e-01 2.309657e-01 -3.761021e-01 7.528304e-02 5.583064e-01 -3.961579e-01 1.606676e-01 3.610902e-01 -6.685213e-01 3.053278e-02 -1.324489e-01 1.932457e-01 3.040282e-01 -6.155150e-04 1.020074e-01 -2.931608e-02 -1.593975e-01 -3.466234e-02 -2.056725e-03 -4.502818e-02 1.627478e-01 -1.531725e-01
<VARIANCE> 39
 1.231177e+01 2.989249e+01 4.922003e+01 5.256297e+01 2.996892e+01 1.216127e+01 4.016405e+01 3.893021e+00 9.566497e+00 7.714598e+00 1.215417e+01 2.065671e+01 2.637462e+01 7.752055e-01 9.139929e-01 3.153888e+00 3.665774e+00 1.971374e+00 8.589625e-01 3.165130e+00 6.424341e-01 3.416508e+00 8.120800e-01 1.289990e+00 1.886176e+00 1.883446e+00 1.609986e-01 9.759726e-02 3.862190e-01 8.393293e-01 1.985482e-01 2.456821e-01 3.595730e-01 1.579120e-01 3.636563e-01 1.272992e-01 1.362987e-01 4.183130e-01 3.000532e-01
<GCONST> 9.706628e+01
<STATE> 4
<MEAN> 39
 -6.256064e+00 3.077404e+00 -3.880012e+00 -1.494302e+00 -8.555174e-01 -1.179159e+00 2.493999e+00 2.206713e-01 1.532683e+00 -6.891963e-01 1.211906e+00 1.697620e-02 4.905384e+01 3.262706e-01 1.322578e-01 9.032145e-01 2.887816e-01 -6.869373e-01 6.743880e-01 -4.532587e-01 -2.613053e-01 -8.512042e-02 3.003912e-01 3.153414e-01 2.934924e-01 -8.797754e-01 2.269118e-02 -1.691860e-01 8.437166e-03 6.992908e-02 7.965434e-02 -7.874574e-02 6.492771e-02 -1.167087e-01 -9.787966e-02 7.132980e-02 -3.970918e-02 5.335587e-02 1.216231e-02
<VARIANCE> 39
 6.127138e+00 1.858312e+01 3.381653e+01 9.459716e+01 1.396879e+01 2.880545e+01 1.468647e+01 5.891432e+00 1.828995e+01 2.810904e+01 1.907986e+01 2.053974e+01 6.099021e+01 8.749869e-01 4.789125e-01 2.460378e+00 1.144785e+00 1.012949e+00 2.262314e+00 1.697891e+00 1.551872e+00 2.810236e+00 1.919834e+00 1.225776e+00 1.641613e+00 1.278576e+00 5.016266e-02 9.365486e-02 2.132138e-01 4.154186e-01 1.327741e-01 4.833927e-01 3.391830e-01 3.024878e-01 3.607233e-01 2.629959e-01 2.073249e-01 4.068727e-01 6.931172e-02
<GCONST> 9.555445e+01
<TRANSP> 5
 0.000000e+00 1.000000e+00 0.000000e+00 0.000000e+00 0.000000e+00
 0.000000e+00 7.459265e-01 2.540735e-01 0.000000e+00 0.000000e+00
 0.000000e+00 0.000000e+00 6.777327e-01 3.222673e-01 0.000000e+00
 0.000000e+00 0.000000e+00 0.000000e+00 6.552675e-01 3.447325e-01
 0.000000e+00 0.000000e+00 0.000000e+00 0.000000e+00 0.000000e+00
<ENDHMM>
~h "JH"
<BEGINHMM>
<NUMSTATES> 5
<STATE> 2
<MEAN> 39
 -8.915101e+00 7.762695e+00 -1.449000e+00 -4.313731e+00 -4.799777e+00 -4.796426e+00 -4.125340e+00 -5.658779e+00 -2.312973e+00 -3.903845e+00 -2.349369e+00 -1.718387e+00 4.802597e+01 -2.100381e+00 1.910291e-01 -1.056620e-01 1.886163e+00 1.052548e+00 5.986966e-01 6.428344e-01 6.737287e-01 7.644053e-02 5.711216e-01 5.671868e-01 3.636129e-01 -2.405395e-01 -7.610572e-01 -3.749261e-01 -6.549072e-01 -4.276754e-01 1.249379e-02 1.833927e-01 2.781997e-01 2.770374e-01 3.252547e-01 1.043093e-01 9.362305e-02 9.986307e-03 1.085034e+00
<VARIANCE> 39
 3.540059e+01 2.176396e+01 2.607211e+01 3.914351e+01 2.692317e+01 3.086941e+01 3.181339e+01 3.163041e+01 2.735102e+01 3.214565e+01 2.278249e+01 2.229674e+01 4.033765e+01 6.248739e+00 3.545430e+00 3.871091e+00 4.220879e+00 2.807651e+00 3.282194e+00 3.313181e+00 3.100857e+00 3.332752e+00 3.268635e+00 2.291484e+00 2.195841e+00 7.727423e+00 8.420135e-01 6.008532e-01 5.005302e-01 6.876098e-01 4.945490e-01 5.332481e-01 5.494197e-01 5.425583e-01 5.514497e-01 5.292180e-01 4.242581e-01 3.669981e-01 7.625383e-01
<GCONST> 1.244329e+02
<STATE> 3
<MEAN> 39
 -2.317744e+01 7.830600e+00 -7.172001e+00 -1.525078e+00 -5.797945e-01 -1.067905e+00 2.078205e-01 -1.337128e+00 1.483094e+00 -1.042910e+00 2.425959e-01 -9.524549e-02 5.542944e+01 -7.115561e-01 2.918216e-01 -5.707424e-01 -1.112408e+00 -1.451781e-01 1.673438e-01 -4.784854e-02 7.521129e-02 2.639332e-01 -6.318188e-02 -2.023430e-01 1.282005e-01 1.226215e+00 1.170873e+00 -2.815899e-01 2.940628e-01 -7.138156e-01 -4.744428e-01 -2.180141e-01 -3.114841e-01 -2.978825e-01 -1.967339e-01 -2.292458e-01 -2.933758e-01 -1.369993e-01 -1.915282e-01
<VARIANCE> 39
 1.310737e+01 2.900552e+01 2.389286e+01 2.427093e+01 2.061997e+01 1.892307e+01 1.818828e+01 1.828562e+01 1.596006e+01 1.464171e+01 1.299857e+01 1.126234e+01 1.910378e+01 6.302749e+00 2.775845e+00 2.531563e+00 4.128339e+00 2.581827e+00 2.153132e+00 2.281655e+00 2.236750e+00 1.940603e+00 2.124793e+00 1.855584e+00 1.494329e+00 2.927334e+00 5.937388e-01 8.173000e-01 4.230745e-01 6.721478e-01 5.200861e-01 4.321930e-01 4.441903e-01 4.342704e-01 4.080820e-01 4.466389e-01 3.819855e-01 3.379210e-01 3.685796e-01
<GCONST> 1.113426e+02
<STATE> 4
<MEAN> 39
 -1.516054e+01 5.602508e+00 -6.587728e+00 -1.316707e+01 -6.767323e+00 -3.412460e+00 -2.924480e+00 -3.708066e+00 4.889357e-01 -3.362516e+00 -3.165027e+00 -1.473830e+00 6.040187e+01 2.611495e+00 -2.629796e+00 -6.905410e-03 -2.800956e+00 -1.601135e+00 2.630531e-01 -2.212578e-01 -5.533229e-01 -2.917949e-01 -6.277266e-01 -8.273731e-01 -6.889007e-01 1.472428e+00 -1.747891e-01 -5.656619e-01 -8.993426e-03 8.185782e-01 3.442200e-01 3.247520e-01 2.448712e-01 1.591454e-04 -1.266785e-01 1.024178e-01 1.814511e-01 -4.345758e-02 -1.150723e-01
<VARIANCE> 39
 2.143051e+01 3.013393e+01 3.113533e+01 4.465626e+01 2.844593e+01 2.255999e+01 2.525200e+01 2.076533e+01 2.215480e+01 2.761566e+01 2.246957e+01 2.141069e+01 2.860629e+01 2.302616e+00 2.982947e+00 1.823667e+00 5.225529e+00 4.102118e+00 2.952349e+00 3.021593e+00 3.054700e+00 2.780880e+00 2.180604e+00 2.516466e+00 2.158198e+00 1.922707e+00 5.565200e-01 4.983585e-01 3.322484e-01 8.159858e-01 5.613219e-01 4.600265e-01 3.828124e-01 4.065515e-01 4.396213e-01 4.717742e-01 4.071271e-01 3.810600e-01 1.964382e-01
<GCONST> 1.162378e+02
<TRANSP> 5
 0.000000e+00 1.000000e+00 0.000000e+00 0.000000e+00 0.000000e+00
 0.000000e+00 6.948234e-01 3.051766e-01 0.000000e+00 0.000000e+00
 0.000000e+00 0.000000e+00 7.768063e-01 2.231937e-01 0.000000e+00
 0.000000e+00 0.000000e+00 0.000000e+00 5.525108e-01 4.474893e-01
 0.000000e+00 0.000000e+00 0.000000e+00 0.000000e+00 0.000000e+00
<ENDHMM>
~h "NG"
<BEGINHMM>
<NUMSTATES> 5
<STATE> 2
<MEAN> 39
 -1.013750e+01 3.903403e+00 -1.340717e+01 -1.380743e+01 2.119894e+00 -1.194256e+01 -2.559054e+00 -3.285602e+00 -6.210489e+00 -3.815416e+00 -3.985437e+00 -3.750802e+00 5.995333e+01 1.024377e+00 -2.133001e-01 6.306288e-01 6.250620e-01 -3.018423e-01 -1.092255e+00 5.150888e-01 -3.897863e-01 -2.753438e-01 5.653613e-01 -4.543600e-01 1.245473e-01 -1.052785e+00 1.731666e-01 -4.116203e-01 5.259008e-01 1.693247e-02 -4.798348e-01 4.648126e-01 -1.580702e-01 -1.792010e-01 2.684816e-01 -1.031562e-01 -2.387013e-02 7.159178e-02 -1.129442e-01
<VARIANCE> 39
 1.370265e+01 2.169086e+01 3.903588e+01 3.182807e+01 2.895178e+01 4.500244e+01 4.560253e+01 5.371650e+01 3.052340e+01 2.920392e+01 3.088342e+01 2.740647e+01 2.269980e+01 8.785618e-01 2.026817e+00 2.339364e+00 1.889965e+00 2.514276e+00 3.182344e+00 2.792451e+00 2.438858e+00 2.413502e+00 2.264659e+00 1.702417e+00 1.389809e+00 7.250502e-01 1.221137e-01 2.179683e-01 3.077206e-01 3.303962e-01 3.521751e-01 4.577166e-01 5.133951e-01 4.745522e-01 3.637786e-01 3.251151e-01 3.022680e-01 2.517006e-01 9.825694e-02
<GCONST> 1.082480e+02
<STATE> 3
<MEAN> 39
 -4.509364e+00 -7.549548e-01 -5.902522e+00 -1.257200e+01 -2.746430e+00 -1.154118e+01 -2.927592e+00 -5.687266e+00 -4.881134e+00 -3.652298e+00 -5.821877e+00 -3.398974e+00 5.565446e+01 5.331680e-01 -2.204284e-01 8.269911e-01 1.994416e-01 -4.422033e-01 1.139130e-01 -1.903431e-01 -2.780983e-01 1.976488e-01 5.085022e-02 -1.586457e-01 5.075319e-02 -6.699022e-01 -3.150025e-01 2.391254e-01 -2.136354e-01 8.167264e-02 1.136411e-01 2.347373e-01 -9.566022e-02 1.383479e-01 2.542294e-02 -2.251279e-02 1.252914e-01 -6.417301e-03 9.388801e-02
<VARIANCE> 39
 9.798556e+00 1.736136e+01 3.072102e+01 2.568866e+01 3.187725e+01 4.244905e+01 4.275789e+01 6.119035e+01 3.310182e+01 4.617330e+01 3.258212e+01 3.278845e+01 2.084243e+01 7.970483e-01 1.628799e+00 1.748148e+00 1.472724e+00 1.919914e+00 2.100674e+00 2.174881e+00 2.130622e+00 1.715468e+00 1.666184e+00 1.377437e+00 1.211536e+00 6.428199e-01 1.408443e-01 2.305102e-01 2.765207e-01 3.284218e-01 3.445836e-01 4.725516e-01 4.231403e-01 4.062713e-01 3.626261e-01 3.481283e-01 2.821190e-01 2.443944e-01 1.080207e-01
<GCONST> 1.047906e+02
<STATE> 4
<MEAN> 39
 -5.896830e+00 1.000814e+00 -4.558731e+00 -9.993064e+00 -2.782319e+00 -9.004472e+00 -5.176379e+00 -4.418221e+00 -3.759403e+00 -1.680413e+00 -3.877761e+00 -2.151627e+00 5.279497e+01 -8.220845e-01 1.681366e-01 4.007228e-01 9.804897e-01 6.887355e-03 1.369463e+00 -1.195493e-01 3.864384e-01 5.025634e-01 1.742080e-01 5.254599e-01 2.296607e-01 -6.255563e-01 -3.798193e-01 -1.782599e-01 -1.543309e-01 1.058361e-01 5.443243e-02 3.628548e-01 2.479179e-01 1.079669e-01 1.882111e-01 -2.310698e-02 1.819662e-01 9.606610e-02 1.800898e-01
<VARIANCE> 39
 1.933452e+01 2.414056e+01 4.203991e+01 4.177589e+01 4.374650e+01 5.573941e+01 4.829411e+01 6.031740e+01 5.084772e+01 6.432735e+01 5.650932e+01 4.424259e+01 3.407458e+01 1.711060e+00 2.016465e+00 2.409005e+00 3.055681e+00 3.140031e+00 3.889496e+00 3.776902e+00 3.771023e+00 2.994067e+00 3.171182e+00 2.693440e+00 2.475619e+00 2.137405e+00 3.919097e-01 3.564715e-01 4.352861e-01 5.037019e-01 5.823302e-01 7.354310e-01 6.774015e-01 6.958474e-01 5.752765e-01 6.042635e-01 5.371925e-01 4.399634e-01 3.070721e-01
<GCONST> 1.250508e+02
<TRANSP> 5
 0.000000e+00 1.000000e+00 0.000000e+00 0.000000e+00 0.000000e+00
 0.000000e+00 6.643429e-01 3.356571e-01 0.000000e+00 0.000000e+00
 0.000000e+00 0.000000e+00 7.505363e-01 2.494637e-01 0.000000e+00
 0.000000e+00 0.000000e+00 0.000000e+00 6.120410e-01 3.879590e-01
 0.000000e+00 0.000000e+00 0.000000e+00 0.000000e+00 0.000000e+00
<ENDHMM>
~h "SH"
<BEGINHMM>
<NUMSTATES> 5
<STATE> 2
<MEAN> 39
 -1.826215e+01 6.388833e+00 -5.133782e+00 -5.760288e+00 -1.771550e+00 -1.501118e+00 -3.199977e+00 -3.459584e+00 3.155172e-01 -2.648895e+00 -2.469976e+00 -2.133538e+00 5.766372e+01 -2.970512e+00 1.160202e+00 -1.013292e-01 2.036943e+00 1.092627e+00 1.018052e+00 8.818074e-01 1.169304e+00 5.622761e-01 7.692643e-01 1.028226e+00 8.534208e-01 -4.463251e-01 1.378443e-01 -3.565637e-01 -2.517997e-01 -2.466723e-01 -1.655286e-01 -8.403193e-02 1.756740e-01 4.254327e-02 -1.050759e-02 2.878128e-02 6.904496e-02 1.141329e-01 1.980491e-01
<VARIANCE> 39
 3.023935e+01 2.757162e+01 2.480937e+01 3.839437e+01 2.731515e+01 3.400529e+01 3.463210e+01 2.927650e+01 2.446404e+01 3.062320e+01 2.518112e+01 2.078945e+01 1.750027e+01 1.832945e+00 3.086083e+00 1.999828e+00 3.578767e+00 2.835639e+00 3.488059e+00 3.141554e+00 2.870106e+00 2.465190e+00 2.850700e+00 2.532497e+00 2.239249e+00 1.204570e+00 6.605031e-01 3.334904e-01 3.192452e-01 5.875066e-01 4.615013e-01 5.565339e-01 5.355583e-01 5.060595e-01 4.546977e-01 5.049402e-01 4.767945e-01 3.908952e-01 1.394667e-01
<GCONST> 1.158496e+02
<STATE> 3
<MEAN> 39
 -2.506177e+01 9.038895e+00 -6.910355e+00 -1.732646e+00 8.295596e-02 8.829467e-02 -1.910405e-01 -3.734947e-01 1.606867e+00 -7.414561e-01 2.971526e-01 4.193310e-01 5.698236e+01 -1.395899e-01 1.895637e-02 -2.951329e-02 -5.444252e-02 8.582032e-02 -1.724810e-02 1.152041e-01 4.917456e-02 2.236548e-02 8.571025e-02 2.601951e-02 8.691937e-02 -5.404415e-02 4.658091e-01 -1.812151e-01 8.519194e-02 -3.064645e-01 -1.435593e-01 -1.179106e-01 -1.419753e-01 -1.778472e-01 -7.225779e-02 -9.253798e-02 -1.296635e-01 -1.063451e-01 -3.992493e-02
<VARIANCE> 39
 6.699303e+00 1.714234e+01 1.650171e+01 2.409208e+01 1.610199e+01 1.662211e+01 1.703839e+01 1.698066e+01 1.494349e+01 1.408883e+01 1.320979e+01 1.179916e+01 1.389475e+01 6.417498e-01 9.068111e-01 7.698383e-01 1.125043e+00 1.010049e+00 1.162354e+00 1.248364e+00 1.302126e+00 1.282598e+00 1.262858e+00 1.196549e+00 1.048570e+00 3.806659e-01 2.025097e-01 1.853777e-01 1.523270e-01 2.745449e-01 2.513172e-01 2.954990e-01 2.834406e-01 2.969198e-01 2.726135e-01 2.827056e-01 2.659091e-01 2.333956e-01 7.579387e-02
<GCONST> 8.694365e+01
<STATE> 4
<MEAN> 39
 -2.187728e+01 7.127325e+00 -5.611609e+00 -4.599770e+00 -4.909211e-01 -4.107945e-01 -6.530454e-01 -1.532165e+00 1.261515e+00 -7.439878e-01 -4.507676e-01 2.710698e-01 5.604966e+01 2.943412e+00 -1.028255e+00 -1.365281e-01 -2.242400e+00 -1.510166e+00 -1.190068e+00 -7.669305e-01 -1.047376e+00 -5.869580e-01 -6.196045e-01 -5.382605e-01 -4.448377e-01 2.485103e-01 5.984796e-01 -2.962776e-01 -2.197825e-01 -4.585534e-01 -3.842392e-01 -3.229379e-01 -1.154487e-01 -1.349683e-01 -1.733763e-01 -2.123488e-01 -1.274111e-01 -2.021824e-01 3.654686e-01
<VARIANCE> 39
 1.928798e+01 2.040392e+01 2.179501e+01 2.908224e+01 2.282076e+01 2.509322e+01 2.506252e+01 2.351432e+01 2.017849e+01 2.010914e+01 1.893562e+01 1.658098e+01 1.721309e+01 2.118646e+00 3.043828e+00 1.842523e+00 4.325839e+00 2.533299e+00 3.599905e+00 2.435247e+00 2.298703e+00 2.115216e+00 2.087657e+00 1.965384e+00 1.790305e+00 1.601452e+00 3.989788e-01 3.583937e-01 3.002813e-01 5.705502e-01 4.455415e-01 5.235905e-01 4.435867e-01 4.342200e-01 4.376699e-01 3.975368e-01 4.088183e-01 3.583442e-01 2.231780e-01
<GCONST> 1.105398e+02
<TRANSP> 5
 0.000000e+00 1.000000e+00 0.000000e+00 0.000000e+00 0.000000e+00
 0.000000e+00 6.842840e-01 3.157160e-01 0.000000e+00 0.000000e+00
 0.000000e+00 0.000000e+00 8.520366e-01 1.479634e-01 0.000000e+00
 0.000000e+00 0.000000e+00 0.000000e+00 6.175503e-01 3.824497e-01
 0.000000e+00 0.000000e+00 0.000000e+00 0.000000e+00 0.000000e+00
<ENDHMM>
~h "TH"
<BEGINHMM>
<NUMSTATES> 5
<STATE> 2
<MEAN> 39
 -9.345860e+00 2.894574e+00 -1.729770e+00 -4.774210e+00 -3.959314e+00 -2.514405e+00 -3.342216e+00 -5.286541e+00 -8.294266e-01 -2.972656e+00 -3.310146e+00 -2.099216e+00 5.134959e+01 -1.275895e+00 4.303897e-01 9.043146e-01 2.580851e+00 1.626268e+00 1.211610e+00 6.931213e-01 1.790889e+00 3.769411e-01 1.129244e+00 1.312036e+00 8.630137e-01 -2.575435e+00 -3.165236e-01 -5.267793e-01 -4.555429e-01 -2.582957e-01 1.802511e-02 1.479445e-01 3.394732e-01 3.388794e-01 1.513041e-01 1.429710e-01 2.542160e-01 1.473676e-01 3.988061e-01
<VARIANCE> 39
 1.928360e+01 1.960464e+01 1.581344e+01 3.375896e+01 2.981306e+01 2.667803e+01 3.311398e+01 3.495778e+01 2.792413e+01 3.872285e+01 2.560717e+01 1.986346e+01 3.842769e+01 2.222064e+00 2.314015e+00 2.272625e+00 3.359307e+00 3.122680e+00 2.877709e+00 3.275173e+00 4.016664e+00 2.999505e+00 4.091277e+00 2.976815e+00 2.243502e+00 3.475663e+00 3.363972e-01 3.158526e-01 3.161405e-01 5.099774e-01 4.485462e-01 4.663687e-01 5.359682e-01 5.832963e-01 5.230794e-01 5.486180e-01 4.614978e-01 3.357386e-01 4.776892e-01
<GCONST> 1.179402e+02
<STATE> 3
<MEAN> 39
 -1.274527e+01 2.231993e+00 -1.540995e+00 -4.456362e-02 -2.497325e-02 1.210165e+00 7.861652e-01 9.554579e-01 1.496285e+00 9.600753e-01 1.099437e+00 8.421346e-01 4.566629e+01 -1.128711e+00 -6.203101e-01 -2.917018e-01 6.232241e-01 8.158071e-01 7.428333e-01 6.575762e-01 1.183925e+00 5.831816e-01 5.320823e-01 8.741825e-01 5.165275e-01 -4.007863e-01 2.060322e-01 -2.999217e-01 -4.474689e-01 -8.850793e-01 -5.149237e-01 -4.055191e-01 -2.959876e-01 -6.011432e-01 -1.292990e-01 -4.677263e-01 -4.248526e-01 -2.823080e-01 1.134695e+00
<VARIANCE> 39
 1.998615e+01 1.220909e+01 1.109246e+01 1.500495e+01 1.525261e+01 1.649682e+01 1.735680e+01 1.877639e+01 1.873639e+01 1.806039e+01 1.542080e+01 1.234335e+01 3.665464e+01 1.941056e+00 1.708024e+00 1.609618e+00 2.656791e+00 2.380076e+00 2.335967e+00 2.654668e+00 3.267570e+00 2.398342e+00 2.986735e+00 2.304039e+00 1.725092e+00 5.166499e+00 4.217859e-01 3.220683e-01 3.277993e-01 4.473467e-01 3.861792e-01 3.892888e-01 4.655687e-01 5.275050e-01 4.566998e-01 5.390876e-01 4.170128e-01 3.230425e-01 6.487345e-01
<GCONST> 1.087429e+02
<STATE> 4
<MEAN> 39
 -1.579152e+01 -5.464408e-01 -3.988575e+00 -2.175077e+00 -8.792231e-01 8.025227e-01 -1.615247e-02 8.329484e-02 1.825311e+00 -3.302268e-01 4.271036e-01 4.496157e-01 5.076519e+01 2.974468e-01 -3.279513e-01 -4.475784e-01 -7.635049e-01 -3.635414e-01 -2.434499e-01 -1.809877e-01 -4.564740e-01 -1.891302e-01 -3.922377e-01 -2.669489e-01 -1.058678e-01 8.465906e-01 3.769059e-01 3.533302e-02 -5.095729e-02 -3.042184e-01 -2.070883e-01 -1.698537e-01 -1.162726e-01 -2.768900e-01 -1.748269e-01 -1.309672e-01 -1.797968e-01 -1.139229e-01 2.232581e-01
<VARIANCE> 39
 1.950974e+01 1.514344e+01 1.373651e+01 1.687097e+01 1.477169e+01 1.608625e+01 1.801015e+01 2.100008e+01 1.857508e+01 1.960531e+01 1.668456e+01 1.314987e+01 3.777536e+01 2.382493e+00 1.815081e+00 2.039324e+00 3.501294e+00 2.186455e+00 2.090718e+00 2.183616e+00 2.965839e+00 2.240601e+00 2.520940e+00 2.090277e+00 1.578061e+00 5.248615e+00 3.797964e-01 3.674915e-01 3.938052e-01 5.549378e-01 4.281701e-01 4.107895e-01 4.317187e-01 5.473540e-01 4.533641e-01 4.832798e-01 4.215572e-01 3.371702e-01 8.142938e-01
<GCONST> 1.101933e+02
<TRANSP> 5
 0.000000e+00 1.000000e+00 0.000000e+00 0.000000e+00 0.000000e+00
 0.000000e+00 4.377242e-01 5.622758e-01 0.000000e+00 0.000000e+00
 0.000000e+00 0.000000e+00 5.093080e-01 4.906920e-01 0.000000e+00
 0.000000e+00 0.000000e+00 0.000000e+00 7.435614e-01 2.564386e-01
 0.000000e+00 0.000000e+00 0.000000e+00 0.000000e+00 0.000000e+00
<ENDHMM>
~h "ZH"
<BEGINHMM>
<NUMSTATES> 5
<STATE> 2
<MEAN> 39
 -1.105248e+01 7.553094e+00 -7.250582e+00 -1.235337e+01 -1.064065e+01 -3.811852e+00 -6.431736e+00 -3.934497e+00 1.883087e+00 -5.483553e+00 -4.057713e+00 -5.527795e+00 5.936513e+01 -1.539326e+00 2.108781e+00 2.082292e-01 2.124918e+00 7.661315e-01 -1.174927e-01 -1.683734e-02 1.248606e-01 -4.509614e-01 5.866133e-01 -1.083614e-01 3.463030e-01 -1.052895e+00 -3.638272e-01 -1.391362e-01 -4.283059e-02 2.968715e-01 3.179272e-01 2.729325e-01 2.666816e-01 -9.670816e-02 -1.191595e-01 2.091056e-02 1.671026e-01 3.030372e-01 3.893615e-02
<VARIANCE> 39
 1.847776e+01 2.909982e+01 2.759300e+01 2.640988e+01 2.226669e+01 1.997279e+01 3.647374e+01 1.970253e+01 2.094548e+01 4.269130e+01 3.153612e+01 2.645584e+01 1.516564e+01 1.250315e+00 2.294989e+00 1.183112e+00 3.749221e+00 2.221931e+00 1.877732e+00 1.832407e+00 1.388189e+00 2.192947e+00 1.637818e+00 2.373505e+00 1.997515e+00 8.927994e-01 1.766900e-01 3.302717e-01 1.854335e-01 4.094164e-01 3.488750e-01 3.509237e-01 2.742947e-01 2.133024e-01 3.317986e-01 2.666186e-01 3.877969e-01 2.675259e-01 8.374415e-02
<GCONST> 1.035705e+02
<STATE> 3
<MEAN> 39
 -2.088685e+01 1.217411e+01 -8.311880e+00 -3.139402e+00 -3.811143e+00 -2.529026e+00 -2.527218e+00 -3.305039e+00 5.600805e-01 -3.233175e+00 -2.283027e+00 -1.315095e+00 5.613285e+01 -6.341913e-02 -3.199849e-01 -1.891679e-01 -5.840574e-03 1.603971e-01 2.357741e-01 6.233856e-02 -1.633201e-01 -1.462808e-01 -3.861700e-02 3.182808e-01 3.504345e-01 3.828935e-03 9.136497e-01 -6.849669e-01 -6.883992e-02 -1.044662e+00 -5.044467e-01 -7.646096e-02 -1.938409e-01 -1.073357e-01 9.879950e-02 -2.456415e-01 -1.745490e-01 -2.708579e-01 3.624043e-01
<VARIANCE> 39
 1.957492e+01 1.508783e+01 1.345346e+01 2.399388e+01 3.875198e+01 1.942221e+01 3.070293e+01 2.035815e+01 2.140251e+01 2.672193e+01 1.757537e+01 2.008904e+01 1.109569e+01 4.579358e+00 1.763281e+00 1.052750e+00 5.753046e+00 3.163560e+00 1.835861e+00 2.162664e+00 1.946222e+00 1.775835e+00 2.134592e+00 1.730523e+00 1.665598e+00 6.889448e-01 2.380662e-01 3.141201e-01 2.434386e-01 4.371804e-01 4.018300e-01 3.182508e-01 4.114329e-01 3.918625e-01 4.698948e-01 4.202259e-01 3.703738e-01 3.163244e-01 8.931449e-02
<GCONST> 1.050338e+02
<STATE> 4
<MEAN> 39
 -1.250143e+01 4.003988e+00 -1.008341e+01 -1.310317e+01 -7.320045e+00 -1.869838e+00 -4.375256e+00 -5.138264e+00 1.325407e+00 -7.970796e+00 -2.143365e+00 -3.520925e+00 6.039822e+01 1.250066e+00 -1.691134e+00 -1.133319e-01 -1.217177e+00 -2.143985e-01 3.808520e-01 -2.282326e-01 -5.361463e-01 1.715530e-01 -6.584798e-01 -2.422738e-04 -1.957982e-01 6.174578e-01 -2.012549e-01 7.775972e-02 1.341120e-01 4.412966e-01 2.415351e-01 5.305474e-03 1.863996e-02 5.174015e-02 -5.727311e-04 9.414200e-02 2.301715e-02 3.954730e-02 -1.983308e-01
<VARIANCE> 39
 1.001586e+01 3.067303e+01 1.378518e+01 2.383511e+01 2.798074e+01 1.344352e+01 3.657316e+01 2.340483e+01 2.505499e+01 3.065185e+01 2.600344e+01 2.270310e+01 1.519289e+01 2.244218e+00 1.577380e+00 8.433732e-01 4.133286e+00 2.350668e+00 1.063287e+00 1.643684e+00 1.660439e+00 1.806993e+00 1.441880e+00 1.477950e+00 1.473582e+00 9.174425e-01 2.444689e-01 2.855951e-01 1.515042e-01 4.377852e-01 3.655937e-01 1.898958e-01 2.582862e-01 2.580766e-01 2.699704e-01 2.250902e-01 2.090197e-01 2.181862e-01 9.319895e-02
<GCONST> 9.869767e+01
<TRANSP> 5
 0.000000e+00 1.000000e+00 0.000000e+00 0.000000e+00 0.000000e+00
 0.000000e+00 7.298464e-01 2.701537e-01 0.000000e+00 0.000000e+00
 0.000000e+00 0.000000e+00 7.846086e-01 2.153915e-01 0.000000e+00
 0.000000e+00 0.000000e+00 0.000000e+00 7.384620e-01 2.615381e-01
 0.000000e+00 0.000000e+00 0.000000e+00 0.000000e+00 0.000000e+00
<ENDHMM>
~h "sp"
<BEGINHMM>
<NUMSTATES> 3
<STATE> 2
~s "silst"
<TRANSP> 3
 0.000000e+00 1.942092e-01 8.057908e-01
 0.000000e+00 9.202769e-01 7.972307e-02
 0.000000e+00 0.000000e+00 0.000000e+00
<ENDHMM>
~h "JAY2"
<BEGINHMM>
<NUMSTATES> 5
<STATE> 2
<MEAN> 39
 -8.151573e+00 1.234005e+01 -4.074747e+00 -7.588418e+00 -4.639063e+00 -9.229857e+00 -6.640357e+00 -4.791300e+00 -3.768870e+00 -3.304414e+00 -3.075027e+00 -2.898304e+00 4.844947e+01 1.973581e-01 -1.436952e+00 2.255496e+00 2.962656e+00 2.135040e-01 2.408899e+00 -6.524162e-01 6.317078e-01 -3.420076e-01 9.001461e-02 2.195608e-01 3.995758e-01 -2.688850e+00 -8.192092e-01 -3.950147e-01 -6.988041e-01 2.882412e-01 6.810851e-02 -9.577060e-02 5.769747e-01 7.329322e-03 4.049358e-01 1.483696e-01 7.840402e-02 2.840305e-02 7.439367e-01
<VARIANCE> 39
 1.378613e+01 1.652938e+01 2.783206e+01 3.176426e+01 1.921455e+01 2.949780e+01 2.315965e+01 2.746134e+01 2.177744e+01 1.898733e+01 2.097716e+01 1.740179e+01 2.118441e+01 2.415604e+00 1.320013e+00 1.875608e+00 2.307083e+00 1.620778e+00 2.369703e+00 3.007070e+00 2.111464e+00 1.616665e+00 2.071919e+00 1.910977e+00 9.553321e-01 2.315457e+00 4.283526e-01 2.482088e-01 4.790104e-01 5.663738e-01 3.414599e-01 4.112349e-01 3.947686e-01 3.698173e-01 2.570463e-01 2.815839e-01 3.378459e-01 2.436349e-01 8.537384e-01
<GCONST> 1.074182e+02
<STATE> 3
<MEAN> 39
 -1.761214e+01 6.495581e+00 -5.297534e+00 2.280959e-01 -3.032637e+00 -2.913554e+00 -2.933787e+00 -1.703975e+00 -1.128730e+00 -1.185221e+00 -1.047681e+00 -1.457793e+00 5.066574e+01 -2.487197e+00 -4.444272e-01 -1.192553e+00 7.899243e-02 4.974299e-01 8.614539e-01 9.610479e-01 7.605549e-01 7.702177e-01 3.020887e-01 5.952120e-01 1.967580e-01 1.834473e+00 4.948779e-01 4.258748e-01 -2.062245e-01 -1.139428e+00 -7.598255e-02 -4.597560e-01 -1.345620e-01 -1.620929e-01 -8.692466e-02 -1.888245e-01 -4.190329e-02 -1.220278e-01 3.112742e-01
<VARIANCE> 39
 4.921287e+01 3.898018e+01 2.675297e+01 1.331283e+01 1.831008e+01 2.479153e+01 2.803281e+01 2.421126e+01 2.118879e+01 1.820552e+01 1.158796e+01 9.155082e+00 3.869712e+01 3.833868e+00 4.990152e+00 2.428793e+00 5.010519e+00 1.494467e+00 2.648119e+00 2.808911e+00 2.501621e+00 1.721877e+00 2.402180e+00 1.389891e+00 1.445241e+00 3.294365e+00 1.645788e+00 9.431994e-01 8.931574e-01 4.171675e-01 3.185533e-01 4.969324e-01 6.825503e-01 4.828592e-01 3.935062e-01 4.554875e-01 3.105992e-01 2.921119e-01 1.387935e+00
<GCONST> 1.168185e+02
<STATE> 4
<MEAN> 39
 -1.351718e+01 2.991534e+00 -9.935478e+00 -1.715834e+01 -7.321352e-01 -2.692312e+00 -1.859601e+00 -9.466520e-01 -1.962073e+00 -3.988276e+00 -2.386026e+00 -1.817480e+00 5.895596e+01 6.371471e-01 -3.478082e-01 -7.760656e-02 -6.890947e-01 1.653288e-01 -4.942982e-02 -2.713337e-02 -1.138204e-01 -1.825125e-01 -8.223489e-02 -1.782314e-01 -5.104139e-02 2.408379e-02 -1.261479e-02 -5.942727e-02 5.456043e-02 2.466905e-01 -7.713974e-03 2.647204e-02 1.272742e-02 -2.292223e-02 1.859861e-03 3.689564e-02 9.871656e-04 1.000620e-02 -1.072058e-01
<VARIANCE> 39
 2.032829e+01 2.458758e+01 2.933633e+01 4.570224e+01 3.270089e+01 2.602494e+01 2.684755e+01 2.604881e+01 2.909027e+01 1.607996e+01 1.964371e+01 9.916058e+00 2.508708e+01 1.807032e+00 1.779657e+00 1.099563e+00 5.611908e+00 1.797399e+00 1.792834e+00 1.589634e+00 1.546988e+00 1.280946e+00 1.174075e+00 1.158397e+00 8.998000e-01 1.346650e+00 3.528531e-01 2.786739e-01 2.010072e-01 5.574055e-01 2.644899e-01 3.392169e-01 2.858129e-01 2.443244e-01 1.974261e-01 1.741775e-01 2.168717e-01 1.702504e-01 1.582146e-01
<GCONST> 1.007425e+02
<TRANSP> 5
 0.000000e+00 1.000000e+00 0.000000e+00 0.000000e+00 0.000000e+00
 0.000000e+00 5.849705e-01 4.150295e-01 0.000000e+00 0.000000e+00
 0.000000e+00 0.000000e+00 7.882732e-01 2.117269e-01 0.000000e+00
 0.000000e+00 0.000000e+00 0.000000e+00 9.307002e-01 6.929979e-02
 0.000000e+00 0.000000e+00 0.000000e+00 0.000000e+00 0.000000e+00
<ENDHMM>
~h "A02"
<BEGINHMM>
<NUMSTATES> 5
<STATE> 2
<MEAN> 39
 0.000000e+00 0.000000e+00 0.000000e+00 0.000000e+00 0.000000e+00 0.000000e+00 0.000000e+00 0.000000e+00 0.000000e+00 0.000000e+00 0.000000e+00 0.000000e+00 0.000000e+00 0.000000e+00 0.000000e+00 0.000000e+00 0.000000e+00 0.000000e+00 0.000000e+00 0.000000e+00 0.000000e+00 0.000000e+00 0.000000e+00 0.000000e+00 0.000000e+00 0.000000e+00 0.000000e+00 0.000000e+00 0.000000e+00 0.000000e+00 0.000000e+00 0.000000e+00 0.000000e+00 0.000000e+00 0.000000e+00 0.000000e+00 0.000000e+00 0.000000e+00 0.000000e+00
<VARIANCE> 39
 1.000000e+00 1.000000e+00 1.000000e+00 1.000000e+00 1.000000e+00 1.000000e+00 1.000000e+00 1.000000e+00 1.000000e+00 1.000000e+00 1.000000e+00 1.000000e+00 1.000000e+00 1.000000e+00 1.000000e+00 1.000000e+00 1.000000e+00 1.000000e+00 1.000000e+00 1.000000e+00 1.000000e+00 1.000000e+00 1.000000e+00 1.000000e+00 1.000000e+00 1.000000e+00 1.000000e+00 1.000000e+00 1.000000e+00 1.000000e+00 1.000000e+00 1.000000e+00 1.000000e+00 1.000000e+00 1.000000e+00 1.000000e+00 1.000000e+00 1.000000e+00 1.000000e+00
<GCONST> 7.167721e+01
<STATE> 3
<MEAN> 39
 0.000000e+00 0.000000e+00 0.000000e+00 0.000000e+00 0.000000e+00 0.000000e+00 0.000000e+00 0.000000e+00 0.000000e+00 0.000000e+00 0.000000e+00 0.000000e+00 0.000000e+00 0.000000e+00 0.000000e+00 0.000000e+00 0.000000e+00 0.000000e+00 0.000000e+00 0.000000e+00 0.000000e+00 0.000000e+00 0.000000e+00 0.000000e+00 0.000000e+00 0.000000e+00 0.000000e+00 0.000000e+00 0.000000e+00 0.000000e+00 0.000000e+00 0.000000e+00 0.000000e+00 0.000000e+00 0.000000e+00 0.000000e+00 0.000000e+00 0.000000e+00 0.000000e+00
<VARIANCE> 39
 1.000000e+00 1.000000e+00 1.000000e+00 1.000000e+00 1.000000e+00 1.000000e+00 1.000000e+00 1.000000e+00 1.000000e+00 1.000000e+00 1.000000e+00 1.000000e+00 1.000000e+00 1.000000e+00 1.000000e+00 1.000000e+00 1.000000e+00 1.000000e+00 1.000000e+00 1.000000e+00 1.000000e+00 1.000000e+00 1.000000e+00 1.000000e+00 1.000000e+00 1.000000e+00 1.000000e+00 1.000000e+00 1.000000e+00 1.000000e+00 1.000000e+00 1.000000e+00 1.000000e+00 1.000000e+00 1.000000e+00 1.000000e+00 1.000000e+00 1.000000e+00 1.000000e+00
<GCONST> 7.167721e+01
<STATE> 4
<MEAN> 39
 0.000000e+00 0.000000e+00 0.000000e+00 0.000000e+00 0.000000e+00 0.000000e+00 0.000000e+00 0.000000e+00 0.000000e+00 0.000000e+00 0.000000e+00 0.000000e+00 0.000000e+00 0.000000e+00 0.000000e+00 0.000000e+00 0.000000e+00 0.000000e+00 0.000000e+00 0.000000e+00 0.000000e+00 0.000000e+00 0.000000e+00 0.000000e+00 0.000000e+00 0.000000e+00 0.000000e+00 0.000000e+00 0.000000e+00 0.000000e+00 0.000000e+00 0.000000e+00 0.000000e+00 0.000000e+00 0.000000e+00 0.000000e+00 0.000000e+00 0.000000e+00 0.000000e+00
<VARIANCE> 39
 1.000000e+00 1.000000e+00 1.000000e+00 1.000000e+00 1.000000e+00 1.000000e+00 1.000000e+00 1.000000e+00 1.000000e+00 1.000000e+00 1.000000e+00 1.000000e+00 1.000000e+00 1.000000e+00 1.000000e+00 1.000000e+00 1.000000e+00 1.000000e+00 1.000000e+00 1.000000e+00 1.000000e+00 1.000000e+00 1.000000e+00 1.000000e+00 1.000000e+00 1.000000e+00 1.000000e+00 1.000000e+00 1.000000e+00 1.000000e+00 1.000000e+00 1.000000e+00 1.000000e+00 1.000000e+00 1.000000e+00 1.000000e+00 1.000000e+00 1.000000e+00 1.000000e+00
<GCONST> 7.167721e+01
<TRANSP> 5
